-2.055741,-0.105969,0.324933,0.442217,-0.352968,-0.792316,-0.023950,1.124581,-0.450626,0.791542,-1.008274,-0.329254,-0.311576,0.626693,-0.387294,0.254141,-0.502554,-0.923536,0.238179,0.533481,0.983596,0.000000
-0.699536,-1.251293,-0.515454,0.695508,0.589151,-0.100135,-1.169724,-0.666438,0.569088,-0.260534,0.169088,1.071340,0.527807,-0.607880,0.264363,-0.189483,-0.640863,-0.005947,-0.247970,0.871954,0.048833,0.000000
-1.207233,-0.426282,-0.040043,-0.640639,-0.625878,-1.272195,-1.008100,1.172295,0.222676,1.228817,-0.377183,0.342678,0.234386,-0.254036,-0.346034,0.239960,0.167919,-0.855383,-1.195889,0.661932,-0.620008,0.000000
0.471880,-0.149499,0.945408,-1.018068,-0.581687,-0.802356,-0.495641,0.193228,0.226217,0.842952,-0.793008,-0.693978,0.406957,0.796636,0.489799,-0.765977,0.987888,0.225511,-0.309268,-0.346584,-0.782139,0.000000
0.858089,-0.543138,0.757012,0.360576,0.515427,0.758721,0.135044,0.981506,0.637928,0.395489,-0.201514,0.309366,0.582812,-0.569201,-0.767937,-0.688284,0.929014,0.218787,-0.017670,0.867733,0.469710,0.000000
-1.877454,-0.534403,-0.391288,-0.136376,0.017191,-0.549747,-0.484322,0.963042,1.025406,-0.017680,-1.179024,-0.013269,1.175057,-0.087006,0.788666,-0.163048,0.002788,-0.352767,-0.214303,0.628179,0.381480,0.000000
-0.610646,0.029009,-0.203638,0.572019,-0.321182,-0.302340,0.382079,1.151292,-0.324164,0.480620,0.153074,0.971407,0.429352,0.473380,0.428696,-0.070131,0.166690,-1.668903,-0.602994,-0.727526,0.616085,0.000000
-1.611858,-0.338327,1.085537,-0.982285,0.633306,-0.798231,-0.081793,-0.056689,1.035718,1.258465,-1.109169,0.604735,0.652790,0.960190,-0.656488,-0.912186,0.868276,-1.145231,-1.619056,-0.758272,0.211891,0.000000
-0.568814,0.301636,-0.430618,-1.227116,-0.746207,-0.281678,-1.266500,0.617201,0.956930,-0.111681,0.030398,-0.434657,-0.221013,0.503613,0.303234,0.477371,0.487471,-0.721225,0.247195,-0.289394,-0.593790,0.000000
0.063616,-1.003311,-0.682138,-0.203093,0.486186,-0.171310,-0.422821,0.045747,-0.577262,0.320670,0.455003,-0.232613,1.098097,-0.378343,-0.555354,-0.611947,-0.628464,-0.576855,-0.309399,0.860219,0.573153,0.000000
-1.842403,-0.975668,0.248135,0.519754,-0.353908,-0.248628,0.224899,0.174791,0.915792,0.658901,0.231584,0.788112,0.754146,-0.449291,-0.356760,-0.686555,-0.137056,-1.197151,0.171979,-0.762287,-0.352166,0.000000
-1.173434,-0.400160,1.233476,-0.532662,-0.498433,-0.048771,-0.524501,-0.156359,0.594339,-0.403349,-0.962981,0.452923,1.360470,0.903347,0.433562,0.593704,-0.889756,-0.366769,-0.393550,-0.226126,0.736396,0.000000
-2.642398,-0.446027,1.069538,-1.304979,-0.696466,0.059588,-1.200051,0.016722,-0.040660,1.641050,-1.262225,-0.577379,0.752298,-0.397185,0.072158,-0.461612,-0.329100,-0.503641,-0.951556,0.866663,-0.587779,0.000000
-0.339318,-0.378470,0.140815,-0.224340,0.477764,-1.017748,0.739763,0.618839,-0.545867,0.288614,0.642281,-0.570433,-0.752512,-0.815170,0.917368,0.220367,-0.145455,0.743177,-0.622438,0.504857,-0.794671,1.000000

-0.050628,-0.504136,0.179206,-0.329122,0.080898,-0.768903,-0.478087,-0.176530,-0.467716,-0.620049,0.031698,0.154036,-0.282232,-0.840584,-0.165721,-0.828871,0.476816,-0.485822,-0.850213,0.802185,0.230323,0.000000
0.265244,0.047687,-0.701412,-0.145847,0.745354,-0.079529,-0.703875,0.639523,0.336652,0.590454,-0.410688,-0.810440,0.089824,0.221654,-0.278397,-0.547548,0.986103,-0.909758,0.169670,0.320081,-0.438704,0.000000
-0.094896,-0.566400,0.466679,0.997592,0.332260,0.592743,-0.437326,0.408025,-0.656968,0.553707,-0.546556,0.917962,0.131894,-0.851032,0.007168,0.424491,-0.020218,0.491253,0.257461,-0.193578,0.185031,0.000000
0.009223,0.617324,-0.892547,0.100608,0.302835,-0.861825,0.058793,-0.527484,0.866579,0.137342,-0.885243,0.746247,-0.028801,0.252814,0.214664,-0.315113,-0.000861,-0.613755,0.384945,-0.688723,-0.440657,0.000000
0.274091,0.045864,-0.025508,0.322414,0.782525,0.438519,0.429520,-0.801011,0.993850,0.291592,-0.659850,0.193100,-0.210154,0.038798,-0.275778,0.624077,-0.203810,0.749441,-0.551651,0.079979,-0.590808,0.000000
-0.236805,0.802794,0.308820,0.699807,-0.586352,0.863601,-0.464625,0.171881,0.537763,0.174500,-0.856839,0.121727,-0.356579,0.139743,-0.139648,0.931276,-0.753587,-0.481082,-0.894399,-0.588051,-0.187109,0.000000
0.750643,-0.720088,0.415357,-0.784380,0.574084,0.231843,-0.097283,0.927019,-0.556162,-0.191171,0.195306,-0.023656,0.441189,-0.390939,-0.148963,0.247890,0.763151,-0.465211,-0.489485,0.450700,0.131914,0.000000
-0.439806,-1.001224,0.045287,-0.660680,-0.862667,0.330844,-0.314949,0.253212,-0.824896,1.046926,0.935980,-0.834495,-0.918907,0.419297,0.452483,-0.309769,0.463021,0.771747,-0.649157,-0.630110,-0.584155,0.000000
-0.573748,0.602264,-0.127970,0.101827,0.695486,-0.068515,-0.204566,0.727812,0.151516,1.031851,0.731260,0.809078,-0.718897,0.159339,-0.345729,0.998428,-0.383208,0.251325,-0.789276,0.496944,-0.652394,0.000000
-0.824176,0.686939,0.358528,0.903933,-0.868160,0.780856,-0.413124,-0.565526,0.591102,0.764500,0.278080,-0.130818,0.753049,0.811220,-0.111510,-0.058326,0.505910,-0.300810,1.046504,-0.674246,-0.319193,0.000000
0.874691,0.433152,0.846124,0.040791,0.927000,0.202923,0.592494,-0.420930,0.158002,0.601727,-0.351918,0.221797,0.572525,-0.321563,-0.531825,-0.350167,-0.146361,-0.617438,-0.880164,0.195215,0.857540,0.000000
-0.703258,0.341068,-0.795001,0.238673,-0.080071,0.284082,0.877630,-0.694330,0.913261,0.311406,-0.119089,-0.789413,-0.133841,0.144800,-0.869443,0.108883,-0.290547,-0.075710,-0.696946,0.413927,0.113325,0.000000
-0.099619,-0.963331,-1.004297,0.622018,-0.261130,-0.776027,-0.703248,-0.266166,-0.926572,0.959071,-0.278408,-0.617619,0.062930,-0.302869,-0.347820,0.834431,-0.155816,-0.891306,0.517658,-0.642685,-0.962279,0.000000
0.822010,-0.494215,-0.602468,-0.493900,-0.895260,-0.780585,-0.913329,0.326718,0.136660,-0.320335,0.540109,0.942668,0.888950,0.444379,-0.234027,0.073875,-0.578595,0.858173,0.966502,0.222924,0.024737,0.000000
-0.750790,-0.355462,0.378196,-0.617885,-0.108667,0.760959,-0.482186,-0.101637,0.718688,-0.799224,0.553674,0.326395,0.544865,0.483032,-0.613271,0.576433,0.227116,-0.052299,0.856438,0.332348,-0.729667,0.000000
-0.424904,0.149832,-0.424232,0.935800,-0.195026,0.669748,0.672202,-0.814575,-0.466958,-0.811718,-0.587498,0.289015,0.816324,0.882429,0.283441,-0.385983,-0.084771,-0.375857,-0.494663,-0.647666,-0.538499,0.000000
-0.126149,0.575573,0.871423,0.824120,-0.529038,0.984958,0.706158,0.084348,0.962215,-0.935495,-0.180106,0.441032,-0.013833,0.769216,-0.297984,-0.477038,-0.327968,0.374684,0.767118,0.550162,0.460738,0.000000
0.711402,0.893455,-0.065938,-0.637634,0.572069,0.018101,-0.235948,-0.271811,-0.347423,-0.535205,-0.894156,0.133466,-0.059928,0.568340,-0.957714,0.754221,-0.090570,-0.749606,0.902218,-0.110500,-0.306742,0.000000
0.412278,0.580203,0.735861,-0.532349,-0.998291,-0.274078,0.112538,0.802729,0.182387,-0.690612,-0.277584,-0.631978,-0.168108,-0.851325,0.305180,-0.133330,0.259594,-0.087362,-0.160183,0.473893,-0.539415,0.000000
-0.949365,0.093267,0.614353,0.400044,-0.577075,0.889153,0.855731,-0.509154,-0.940737,0.661870,-0.340743,-0.753972,-0.315914,-0.425073,-0.155295,0.495924,0.093702,-0.634555,-0.901686,-0.130284,0.297647,0.000000
-0.926268,0.913305,-0.063798,0.354516,-0.699088,-0.659363,-0.143482,0.914691,0.991873,-0.348149,0.249552,-0.063181,0.562506,0.815893,-0.560781,-0.650388,0.407991,0.365232,0.617961,0.672627,0.766594,0.000000
-0.370238,-0.513167,0.020137,0.801377,0.425049,0.750506,-0.617095,-0.406489,0.331120,0.613523,-0.368980,0.155919,-0.834278,-0.047895,-0.444219,0.866544,-0.870970,0.139701,-0.116322,-0.551382,-0.772759,1.000000

-0.929589,-0.263326,-0.624452,-0.144684,-0.419311,0.011667,0.925051,-0.016198,0.831495,0.839740,0.418073,0.675567,-0.336531,-0.281709,-0.922788,0.144432,-0.602710,0.705741,0.179695,-0.646078,0.809809,0.000000
0.061713,-0.305098,-0.341124,-0.600714,-0.914289,0.697825,0.471416,0.779274,-0.308350,0.119559,0.889828,0.323919,-0.524278,-0.712946,0.085235,0.670013,-0.035522,0.815607,0.215629,-0.504048,-0.634039,0.000000
-0.393855,-0.375620,0.083799,0.784481,0.124457,0.952533,-0.812203,0.587886,-0.252573,-0.085689,0.220118,-0.134462,-0.856700,-0.323985,-0.488937,0.600978,-0.233669,-0.906552,0.431972,-0.052211,0.783640,0.000000
0.924062,-0.031591,-0.363026,-0.733668,0.735530,-0.554619,0.055684,-0.784474,-0.031282,-0.665777,0.307901,-0.394475,-0.171092,-0.074289,0.604602,0.358433,0.889645,0.682791,0.918660,-0.811953,-0.928231,0.000000
-0.117802,0.631995,0.072345,-0.727536,-0.216407,0.293580,0.774587,-0.095020,0.466025,-0.270909,-0.137913,0.595667,0.178914,0.246258,0.048769,-0.643948,-0.209439,0.911069,0.670693,-0.883157,-0.386102,0.000000
-0.930802,0.172284,-0.039704,0.006536,0.948606,-0.713737,0.767087,0.714745,-0.396152,0.049084,0.585803,-0.004274,0.247964,-0.664451,0.035221,-0.075245,-0.264920,-0.556383,0.951815,-0.862206,-0.577930,0.000000
-0.175371,0.257611,0.069348,-0.996043,0.561354,-0.717394,0.707114,-0.995876,0.862749,-0.500439,0.738884,0.801013,0.877481,0.958211,0.626942,-0.630580,0.609424,0.575243,-0.956908,0.291418,-0.045639,0.000000
0.061496,-0.948816,-0.749352,0.933797,-0.756765,0.700895,0.895677,-0.982568,0.325085,0.318122,0.857051,0.072037,-0.973170,-0.822160,-0.347697,-0.978821,0.894650,0.846919,0.315825,0.259544,0.824072,0.000000
0.524322,0.941157,-0.213219,-0.086387,-0.906025,0.199315,0.149792,0.210059,-0.522844,0.006183,-0.878903,0.036422,-0.226185,1.002115,-0.182654,0.816330,-0.779229,0.469161,-0.213451,-0.136968,0.691458,0.000000
0.363630,-0.543247,0.707132,0.695774,-0.744114,-0.191608,-0.102105,0.616133,0.457588,-0.825394,0.421308,-0.553290,-0.558807,-0.513623,-0.297708,-0.162414,0.001569,0.980834,0.738596,0.085810,-0.515193,0.000000
0.169296,-0.912879,-0.426455,0.609600,0.675549,-0.834284,0.884354,0.954904,0.261697,-0.838783,-0.601123,0.147234,0.638372,-0.594440,-0.406964,0.777319,-0.557299,0.239296,0.992625,0.795372,0.898675,0.000000
0.954707,0.228077,-0.147350,-0.840891,0.771013,-0.238045,0.406402,-0.557696,-0.399680,0.566584,-0.634022,-0.406793,-0.725513,-0.868951,0.226269,-0.517921,-0.472054,0.297403,0.269212,0.192420,0.906887,0.000000
0.472806,-0.978169,0.063113,0.375214,0.194464,-0.663920,-0.166294,-0.009930,-0.599927,-0.214256,-0.837519,0.608355,-0.743291,-0.295663,-0.410932,-0.814052,-0.232170,0.980895,-0.693789,-0.626651,0.276100,0.000000
-0.451167,0.325275,-0.276466,-0.540466,-0.780780,-0.226579,-0.347007,0.142615,-0.882241,-0.971422,0.487045,0.737105,-0.537855,0.705121,0.177152,0.183843,-0.523484,0.281960,-0.290997,0.714551,-0.875472,0.000000
0.582814,-0.543018,0.406516,0.903713,-0.055728,0.353298,0.468230,-0.085265,-0.201769,0.218321,-0.051790,0.259415,0.076460,0.513489,-0.008704,-0.903684,0.313883,-0.450606,0.592822,0.010226,-0.541192,0.000000
0.314636,-0.377072,0.806649,0.863138,0.399814,-0.210988,0.550956,-0.028267,-0.282925,-0.084275,-0.470992,0.661978,0.389614,0.806464,-0.013463,-0.965037,-0.832209,-0.441939,0.731184,-0.794533,-0.504236,0.000000
0.709309,-0.627941,0.847582,-0.133920,0.029155,0.422545,-0.418543,0.537172,0.749944,0.053101,-0.912290,-0.584477,0.479964,-0.765581,0.157848,-0.943135,-0.250918,-0.870663,-0.272588,0.305276,0.335796,0.000000
-0.504402,-0.424203,0.290120,-0.004017,0.535122,-0.734898,-0.869155,-0.969914,0.302898,-0.219642,-0.074991,-0.359648,-0.436391,-0.310167,0.742729,0.858142,-0.148555,-0.466903,0.213167,0.213710,-0.312760,0.000000
0.186445,0.840532,0.811641,0.234649,0.839922,0.536286,0.608580,0.538153,-0.265875,-0.896078,0.622059,-0.703794,-0.470811,-0.518136,-0.018222,0.793223,-0.827570,0.241737,0.144573,0.137107,0.370231,0.000000
0.832153,-0.026942,0.629967,0.137048,-0.798033,0.557172,0.130244,-0.272883,-0.134692,0.501329,0.657399,-0.846596,-0.426783,0.151469,-0.559252,0.954382,-0.190187,-0.461165,-0.256568,0.561499,0.512595,0.000000
0.132351,-0.855252,0.158259,0.009910,0.958382,0.383321,-0.379597,0.041861,-0.840143,0.659521,-0.086276,0.670583,-0.086985,0.393270,0.055982,-0.383461,0.641591,0.830683,-0.915708,0.277571,-0.619005,0.000000
-0.770031,0.969947,0.013541,0.184634,0.049266,0.216023,0.016118,-0.499870,0.255697,-0.906743,-0.166089,-0.717536,-0.217671,0.594697,0.671621,-0.008528,-0.699576,0.048943,0.759735,0.356709,0.527146,1.000000

0.738301,-0.775323,0.479528,-0.824955,0.346664,-0.917295,0.217980,0.359355,-0.611499,0.373418,-0.066849,0.508254,0.430093,-0.350388,-0.393196,-0.513095,0.813471,0.697394,0.595752,0.087722,0.599602,0.000000
-0.434133,-0.100742,-0.031068,0.838868,-0.210911,0.983215,-0.653188,0.372967,-0.483849,0.734121,0.229595,0.148492,0.150223,-0.860448,0.321577,-0.305368,-0.117710,-0.451454,0.535630,-0.769219,0.032764,0.000000
0.368574,-0.856563,-0.097678,-0.335076,0.694994,-0.371502,0.698965,-0.875301,0.208231,0.423776,-0.091194,-0.206164,-0.286734,0.833351,-0.554920,-0.643094,-0.254250,0.237771,-0.049576,-0.089463,-0.231348,0.000000
0.640736,0.961608,0.759619,0.320842,0.216891,-0.836848,-0.837339,-0.294168,-0.774246,-0.287730,-0.158198,0.051884,0.610770,-0.935137,-0.144385,-0.965811,-0.895871,0.409328,-0.523789,0.733207,0.016546,0.000000
-0.761819,-0.208228,-0.339553,0.331019,0.163474,-0.384869,0.907579,0.811518,0.835100,-0.275648,0.083721,0.125006,0.895876,0.026071,-0.529309,0.382219,0.705008,0.188962,0.115340,-0.874874,-0.848615,0.000000
-0.004337,0.638050,-0.715140,-0.624350,0.243892,-0.311869,-0.817788,-0.127487,-0.818641,0.064729,-0.685420,-0.815185,0.860836,0.582948,0.327855,0.945527,0.307230,-0.208669,-0.054950,0.032430,0.215810,0.000000
0.613673,0.517319,0.120693,0.926112,0.815983,0.392254,0.082235,-0.217922,0.261543,0.924525,0.559206,-0.365084,0.180538,0.336070,-0.991291,-0.736856,0.988647,-0.257749,0.040428,0.121724,0.389626,0.000000
-0.634972,-0.660573,-0.673657,-0.632379,-0.165297,0.881100,0.491596,-0.896603,0.720368,0.744045,0.705474,-0.132772,0.586234,0.480408,-0.729911,-0.069563,-0.626331,-0.046938,-0.525559,-0.804804,0.558089,0.000000
0.533233,-0.648671,-0.924542,0.283004,0.096062,0.500656,0.210586,0.022685,0.981689,-0.978943,-0.352819,0.044778,-0.674612,-0.152275,0.317788,-0.903540,-0.750237,-0.923732,-0.400189,-0.423200,0.536071,0.000000
0.094100,-0.694571,-0.721549,-0.709403,-0.126735,0.714591,0.459456,-0.480514,0.066860,-0.754143,0.616016,-0.841121,-0.913938,-0.558092,0.344049,0.893246,0.569506,-0.435613,0.214942,-0.222022,0.439799,0.000000
0.882211,0.199316,0.412987,0.490457,0.067761,0.861873,-0.355956,0.539537,0.017143,-0.303307,-0.471854,0.874691,-0.788202,-0.913968,0.077146,0.532940,0.640248,0.451753,-0.339453,-0.248523,0.707882,0.000000
0.894600,0.072420,0.396677,0.765680,0.071528,-0.967711,0.782647,-0.875851,-0.908994,-0.917417,0.718863,-0.620659,-0.417122,-0.846308,0.736737,0.985721,0.716605,0.141819,-0.343791,-0.756157,0.716163,0.000000
0.503770,-0.680593,-0.425782,-0.248167,-0.124644,0.745537,0.836116,0.888424,0.386395,-0.710562,0.177572,-0.591968,0.310160,0.091185,0.228100,0.998047,-0.511887,0.623646,-0.946776,0.069716,0.860039,0.000000
-0.573494,0.388836,-0.167525,0.054285,-0.615424,-0.252419,0.629200,0.684866,0.077280,0.836360,-0.728568,0.204574,-0.647694,0.450810,-0.866204,-0.624952,-0.427046,-0.384553,0.565722,0.057905,-0.930861,0.000000
0.077641,-0.478195,0.993906,0.168987,-0.232728,0.869991,-0.767570,0.098209,-0.007494,-0.972078,0.953734,-0.461711,-0.681753,0.986843,0.181682,0.631256,0.916196,-0.754610,0.354224,0.605152,0.346830,0.000000
0.917755,-0.218360,0.799650,-0.574558,-0.170783,0.456160,0.946722,0.247669,-0.945195,0.948900,-0.109900,0.364785,0.849361,0.209292,0.965222,-0.241439,0.705863,-0.201193,0.700858,0.686209,0.250232,0.000000
0.119523,0.977844,-0.683279,-0.056292,-0.601428,-0.178930,-0.183264,-0.741569,-0.951476,-0.288797,-0.518113,0.581774,0.851253,0.125857,-0.089004,0.316446,-0.958129,0.852596,-0.547227,0.499680,-0.293379,0.000000
0.183971,-0.393963,-0.468832,-0.789137,0.419467,-0.594409,0.418506,0.967345,-0.243238,0.805180,-0.605123,-0.657426,-0.585275,0.476170,0.798880,-0.205941,0.429121,-0.657733,0.033210,0.233484,-0.443599,0.000000
-0.659129,-0.359416,-0.142916,0.802912,0.047517,0.464583,0.272731,-0.767327,-0.067747,-0.506193,0.912285,-0.776642,-0.041703,-0.459327,-0.725343,0.082205,-0.451033,0.612628,0.122039,0.455241,-0.656068,0.000000
-0.084622,-0.928831,0.361582,-0.617541,0.590390,0.298440,0.982482,0.411847,0.232527,0.081536,-0.304236,0.983940,0.841792,-0.147226,0.304013,-0.592561,-0.058209,0.396162,0.262001,-0.373516,0.840711,0.000000
-0.903865,-0.699393,0.469287,0.079145,-0.512334,-0.580370,-0.608115,-0.505722,0.521766,-0.461560,-1.000000,-0.973823,0.095628,0.089284,0.837209,0.529222,-0.283364,-0.453243,-0.135800,-0.737846,-0.174512,0.000000
0.509816,0.676565,-0.073940,0.111041,-0.469353,0.221891,-0.648879,-0.250404,0.191381,0.968802,0.139374,-0.878104,-0.696680,-0.341309,0.630797,0.131427,-0.097186,-0.097550,0.337752,-0.003552,-0.446943,1.000000

0.073973,0.999219,-0.248937,0.013784,0.931211,-0.776666,0.397004,-0.209803,0.692740,-0.364894,0.662465,-0.430598,-0.149562,-0.158441,-0.573351,0.587756,-0.636464,0.208838,0.536424,0.854249,-0.563280,0.000000
-0.636280,0.316263,-0.383648,0.616016,-0.379864,0.913877,0.088219,0.616077,-0.663137,0.602649,0.464705,-0.188640,0.950316,0.075235,0.591296,-0.348491,0.731071,0.879940,0.707938,0.406720,0.463851,0.000000
-0.586596,-0.443859,0.509949,0.757683,-0.776299,-0.467025,-0.568346,0.031177,-0.657033,0.477904,-0.296121,-0.769585,0.766533,-0.060304,0.215003,0.761223,-0.763115,-0.874874,0.926084,0.801190,0.204088,0.000000
-0.062295,0.116011,0.282844,-0.220985,-0.298916,0.097916,-0.454978,0.529416,0.715018,0.701108,-0.167272,-0.831416,-0.917051,0.450301,-0.818354,0.289834,-0.087547,0.077853,-0.329691,0.374624,0.438337,0.000000
0.142752,-0.891240,0.718853,-0.500107,0.505600,-0.352702,-0.360107,0.475643,-0.190283,-0.981042,-0.445540,-0.049209,0.501205,0.189571,0.196631,0.848933,0.248146,-0.236793,-0.548753,0.651131,0.593066,0.000000
-0.295584,0.650506,-0.086917,-0.389569,0.082743,0.720878,0.443636,0.336159,-0.252297,0.491314,0.122166,-0.762810,-0.845820,-0.581042,0.120579,-0.416730,0.319315,-0.748772,0.437239,0.099957,0.889279,0.000000
0.872493,-0.214414,0.576819,-0.424482,0.294953,0.973022,0.561388,0.583932,0.704031,-0.314265,0.047458,-0.852657,-0.560045,0.586962,0.300821,-0.394879,-0.624928,-0.369976,0.382794,0.154915,0.750175,0.000000
-0.284726,0.069734,-0.439609,-0.558763,-0.881649,0.902768,0.242591,0.633412,-0.785516,-0.499969,-0.094943,-0.896298,-0.054850,0.920652,0.329020,-0.515244,-0.096843,-0.461531,-0.833491,0.097131,0.827937,0.000000
-0.469456,0.326995,-0.468497,-0.392865,0.397015,0.741569,-0.738823,0.156922,-0.526597,0.098417,0.875973,0.282585,-0.946287,0.155735,0.263283,-0.850093,-0.276040,0.959410,-0.038958,-0.894162,0.885617,0.000000
-0.050800,0.733167,0.215026,-0.317179,-0.126527,0.281594,0.527390,-0.647239,0.539048,0.546535,0.999329,0.273707,0.726249,-0.505234,0.227027,-0.176975,-0.427229,-0.583056,0.120938,-0.972312,-0.977844,0.000000
-0.628346,-0.634564,-0.654754,-0.851619,0.848079,-0.329081,-0.764092,-0.826125,-0.826411,0.414447,0.520066,0.676382,-0.898862,0.087597,0.566271,-0.944945,0.513718,0.405744,-0.926328,0.942782,-0.864620,0.000000
-0.830500,0.720817,0.606372,0.434553,0.739433,0.938292,0.185766,0.379498,0.700674,0.298257,0.288491,0.404157,-0.369488,0.263588,-0.733818,-0.165319,-0.034089,-0.212439,-0.267312,-0.453475,-0.129551,0.000000
0.284212,-0.530747,-0.763843,0.245521,0.539232,-0.561449,-0.680349,0.995424,0.053417,-0.177402,0.982482,-0.776849,0.586840,-0.451582,-0.214026,0.379803,0.572436,-0.700003,0.756279,-0.478541,-0.489242,0.000000
0.421030,0.051260,-0.183477,0.651051,-0.113226,0.205542,-0.662465,0.702200,0.518967,-0.183341,0.929014,-0.581530,0.564074,0.227834,0.050447,0.157994,-0.500595,0.682119,-0.977355,0.720267,0.845210,0.000000
-0.467765,-0.969420,0.542421,0.379131,-0.890866,0.576586,-0.086949,-0.840508,-0.417646,0.864801,-0.075045,-0.104612,-0.344646,-0.374371,-0.262429,-0.613330,0.571276,-0.903500,0.195471,-0.654588,-0.300333,0.000000
0.736869,-0.658742,0.397506,-0.019135,0.153897,0.020352,0.620472,-0.669301,-0.083102,-0.616993,0.667653,-0.802362,-0.371868,-0.989807,0.378216,0.599597,0.518723,0.213477,-0.189489,-0.970702,0.691214,0.000000
-0.782314,-0.611152,-0.566178,0.957396,0.363624,-0.703726,-0.802545,0.362794,0.611499,-0.327426,-0.464217,0.285333,0.024336,-0.534593,0.919614,-0.502304,0.021274,0.656056,-0.584399,-0.431366,-0.331786,0.000000
-0.635060,-0.938597,-0.641163,-0.736198,0.231164,-0.195593,0.365759,-0.859188,-0.384136,-0.192042,-0.221961,-0.560900,0.736076,-0.755608,0.197791,0.492660,-0.031841,0.325968,0.697989,-0.591174,0.032386,0.000000
-0.458763,-0.660145,-0.982043,-0.106479,0.562548,0.798883,0.221561,0.736639,-0.209204,-0.341306,-0.896054,-0.462320,-0.613208,0.558458,-0.219947,-0.459700,0.272439,0.189917,-0.786981,-0.084692,0.593371,0.000000
-0.022141,-0.609851,-0.876156,0.586657,0.502792,0.691824,-0.625233,0.502243,-0.654592,0.443195,0.190161,-0.877804,0.617298,-0.591357,-0.589221,-0.001304,-0.611316,-0.621754,-0.383953,0.147402,0.308573,0.000000
0.260437,-0.746696,0.335012,0.072054,0.661672,0.085643,0.299249,-0.610877,0.512314,0.827617,-0.925108,0.096486,-0.271950,-0.754631,0.501938,-0.272988,-0.410260,0.268288,0.459761,-0.339014,0.893246,0.000000
0.114247,0.610935,0.818843,-0.012660,0.881954,0.577624,-0.268980,-0.344738,0.311136,-0.713705,0.985839,0.863479,-0.061336,-0.720634,0.929929,0.517319,0.441389,0.845210,-0.922239,-0.832599,-0.790765,1.000000

0.187109,0.161656,-0.456648,0.261879,-0.426557,0.287149,-0.300943,0.985046,0.788018,0.446821,0.985229,0.877621,-0.030793,0.010826,-0.677847,-0.643239,-0.299722,0.465377,0.492965,-0.596728,0.657399,0.000000
-0.748344,0.284768,-0.623218,-0.839229,0.911862,0.798456,0.321451,-0.808100,0.934629,0.382794,0.202246,0.899350,-0.322428,0.262001,0.656362,0.992859,-0.585131,0.566759,0.983276,0.740959,-0.608692,0.000000
-0.544481,-0.031281,-0.958800,-0.616016,0.915342,-0.782220,0.495407,-0.224525,0.996704,0.985839,-0.591052,0.833491,0.306192,-0.407819,0.675161,-0.453963,-0.048798,0.886898,0.450179,-0.525315,0.377606,0.000000
-0.345866,-0.169897,-0.615284,0.730949,0.258339,-0.670888,0.587451,0.844539,0.120151,0.329386,0.858638,0.121625,0.380840,-0.104402,0.104343,0.247291,-0.071810,-0.247992,-0.308023,0.434553,0.888424,0.000000
0.619068,-0.713797,0.850887,-0.688406,0.941649,0.198233,-0.742180,0.880489,-0.625599,0.683523,-0.630116,0.717887,-0.389325,-0.523972,-0.289285,-0.174230,0.354473,-0.414294,0.670705,0.867550,0.844417,0.000000
0.068148,-0.543992,0.442244,0.692618,-0.562609,-0.954161,-0.957091,0.937315,-0.923460,-0.061699,0.046380,-0.653798,0.554735,0.139116,-0.842219,0.749565,-0.342082,0.085794,-0.273537,0.243543,-0.181032,0.000000
0.610157,-0.645436,0.260353,-0.781060,-0.734611,-0.058965,-0.608875,-0.408002,0.558397,-0.192053,0.003839,-0.187536,-0.163366,0.301981,-0.826838,-0.118015,0.046662,-0.258278,-0.729911,-0.745537,-0.555223,0.000000
-0.446272,-0.632252,0.344584,0.517563,-0.019521,0.532334,0.957884,0.194067,0.397809,0.542405,-0.706412,-0.441939,0.604602,-0.743706,-0.408551,-0.871883,0.845515,0.866634,-0.553514,0.315775,0.687368,0.000000
0.302713,0.403851,0.529527,0.331401,-0.181211,-0.838435,0.259011,0.563219,0.875729,0.572558,-0.436750,-0.706595,0.591418,-0.633595,-0.658986,-0.604236,0.966979,-0.479843,0.673940,-0.684194,0.293619,0.000000
0.452315,0.462752,0.500778,-0.267251,-0.340312,0.364544,-0.153050,0.307718,-0.098056,0.987671,0.491440,0.955321,0.363628,-0.771050,0.886532,-0.235267,0.809687,-0.506699,0.185827,-0.639149,-0.609912,0.000000
0.406598,0.603870,0.492294,0.083312,-0.819391,-0.415937,-0.876644,-0.615589,-0.901608,-0.392499,-0.958434,-0.986572,-0.964171,0.725883,-0.555345,0.571032,0.377728,0.716666,-0.324015,0.300089,-0.396100,0.000000
-0.444136,0.768731,-0.648122,-0.894833,-0.900021,0.138646,0.629139,-0.374981,0.717948,-0.992981,0.749321,-0.234779,0.493026,0.992370,0.455245,-0.873165,0.231727,-0.214515,-0.697562,0.629505,-0.294534,0.000000
-0.593371,0.883663,-0.378887,-0.421064,0.012573,0.740532,0.739006,0.287027,-0.870052,-0.532456,0.464888,-0.442000,0.378582,0.889096,-0.437422,-0.606372,0.455306,0.861751,0.607776,0.089640,0.413007,0.000000
-0.046236,0.588549,-0.782647,-0.740532,-0.081210,0.422346,-0.367351,-0.238075,0.389630,-0.200720,-0.937132,0.553514,0.914670,-0.792596,0.240211,-0.784967,-0.951964,0.287332,-0.288736,-0.305094,0.530137,0.000000
-0.971007,0.690848,-0.627918,0.794366,-0.682424,-0.938231,0.968383,-0.882504,-0.799860,-0.407331,0.252174,-0.111563,0.836787,0.936583,-0.042879,-0.388531,0.618885,0.538682,-0.376812,-0.069896,0.630726,0.000000
-0.390790,-0.365581,0.611560,-0.185339,-0.377605,0.646412,0.851619,0.220679,-0.231422,-0.939268,0.080889,-0.421491,-0.845943,0.566698,-0.690481,0.663381,-0.559862,-0.273354,0.379192,0.057989,0.460189,0.000000
-0.417829,-0.651967,-0.820063,0.815546,0.617359,0.710990,0.709464,0.869381,-0.242347,-0.529710,0.364849,0.417585,0.926328,-0.386639,-0.515976,0.314432,0.631825,0.757683,-0.841853,0.243202,-0.883908,0.000000
0.127293,0.686148,-0.577868,-0.182165,0.664907,-0.919065,0.077639,-0.354656,-0.375408,0.725150,-0.677847,0.189978,-0.489792,0.492721,0.042329,-0.649647,0.319926,-0.382611,-0.887387,-0.212867,0.100875,0.000000
-0.713614,-0.101901,-0.569872,-0.775018,0.142979,0.223975,-0.240944,0.361370,0.770318,-0.264138,0.663076,0.995239,0.836909,-0.696463,0.792779,0.047639,-0.221839,0.968017,-0.922727,0.403973,-0.867672,0.000000
-0.134007,-0.405377,0.471175,-0.524827,-0.306497,-0.797357,0.533616,0.451216,-0.653310,0.701163,0.082917,0.238868,0.280862,-0.995849,-0.746757,0.223060,-0.099216,0.762566,0.593066,-0.853633,0.552904,0.000000
-0.364605,0.475448,-0.652455,-0.832148,-0.452825,0.542650,0.223878,0.357708,-0.181860,-0.157018,0.252785,0.450850,0.699637,-0.936155,0.774468,0.847285,0.844356,-0.065108,0.135594,-0.876339,0.330302,0.000000
-0.233131,-0.981628,0.137183,0.183947,0.093643,0.197242,-0.314737,0.441389,0.078036,-0.786309,-0.815668,0.221964,-0.875973,-0.284463,-0.611621,0.666982,0.668447,-0.518845,-0.719718,-0.372112,-0.874020,1.000000

0.416547,0.397626,0.508103,-0.928465,0.671316,0.205847,0.059969,-0.085360,-0.731498,0.515488,0.658864,-0.298441,0.675710,-0.578417,0.837397,-0.346049,-0.909848,-0.737297,0.213355,-0.876400,0.962462,0.000000
-0.675588,-0.536790,-0.872555,-0.038545,0.093234,0.272439,-0.025504,0.400128,-0.345744,0.066866,0.917600,-0.054110,0.253395,-0.227821,0.632984,-0.230140,0.197058,0.833979,-0.209510,-0.097324,0.282388,0.000000
0.614124,0.277932,-0.547533,-0.765435,0.481857,0.484603,-0.196875,-0.023466,-0.235878,-0.482711,-0.598376,0.829951,0.778252,0.966002,-0.599170,-0.224830,-0.090868,-0.888974,-0.779473,0.462142,0.320353,0.000000
-0.932798,0.856746,0.368328,0.597278,0.621204,0.325724,0.447920,-0.682241,0.807978,0.222144,0.421918,-0.350078,-0.488632,0.674734,-0.707327,-0.820307,-0.337565,0.990417,0.511765,-0.270302,-0.893429,0.000000
0.654958,-0.121372,-0.373211,0.930906,-0.518052,-0.772027,0.579516,0.582507,-0.968017,-0.171300,0.184790,0.803766,-0.854366,0.598865,0.053377,0.266335,0.771966,-0.827326,0.697562,-0.817743,0.367046,0.000000
0.311380,0.056795,-0.203040,-0.238075,0.480453,0.669179,-0.392621,-0.577868,0.866390,0.177282,0.701285,-0.590014,-0.528916,-0.087436,0.395123,-0.578906,0.220679,0.308267,0.550829,-0.219459,-0.230018,0.000000
-0.699026,0.234901,0.558092,-0.516770,-0.508408,0.627247,0.395245,0.492843,-0.876156,-0.366619,-0.092380,-0.339396,-0.378582,-0.998779,0.700308,0.766533,0.885800,-0.576708,0.992615,-0.047212,0.882015,0.000000
-0.198096,-0.770196,0.135044,-0.454085,-0.809137,0.731498,0.998169,-0.961730,0.228858,0.738823,0.508591,0.883419,0.355754,0.781304,-0.812677,-0.859859,0.828242,0.804865,0.962157,0.029939,-0.038423,0.000000
0.849788,-0.343730,-0.200781,-0.932371,0.636158,-0.986450,-0.453047,-0.449629,0.803888,-0.936827,-0.416364,-0.257057,-0.099704,0.896115,0.338054,-0.726981,-0.727165,0.604419,0.269570,-0.468856,-0.657521,0.000000
0.174352,-0.854060,0.694571,0.204382,-0.552355,-0.207801,0.057312,0.305826,-0.158116,-0.016591,0.110691,-0.775750,-0.886715,-0.591540,-0.407697,0.662709,-0.131932,0.001025,0.397382,0.285318,0.741813,0.000000
-0.564196,0.360820,0.125095,0.195044,0.241920,-0.645924,-0.631153,-0.047273,0.140599,0.094882,-0.884457,0.669851,-0.332316,0.635731,-0.915708,-0.520493,-0.940489,0.540025,-0.231178,-0.118503,0.713797,0.000000
-0.973510,0.691092,-0.856929,-0.499985,-0.840144,-0.342631,-0.026840,-0.091891,0.899533,0.482040,-0.185644,-0.543260,-0.776238,-0.344096,-0.278481,0.020016,-0.740287,0.386944,-0.325968,-0.378155,0.900326,0.000000
-0.113926,-0.302957,0.182531,0.315897,0.542100,0.733024,0.346477,0.446638,0.977294,0.141392,-0.837581,0.349162,0.498642,0.504379,0.836543,0.581652,0.217200,0.502731,-0.953368,-0.499619,-0.803766,0.000000
0.142064,-0.073824,-0.283547,0.991089,0.872799,-0.306436,0.257973,-0.661306,0.722343,0.750847,0.030183,-0.959716,-0.956969,-0.812128,0.313334,-0.117893,-0.974609,0.048189,-0.778130,-0.493759,-0.747307,0.000000
0.681570,0.785394,-0.640004,0.651173,0.791559,0.819025,-0.340983,0.974242,-0.573840,-0.989502,-0.044527,0.478072,0.708121,-0.417768,0.713492,-0.579272,-0.504440,0.146397,0.144261,0.743217,0.718314,0.000000
0.706534,0.703970,0.086825,0.452864,0.274636,0.713248,0.349284,0.627613,0.875607,0.416059,-0.199683,-0.217322,-0.397748,-0.331095,0.133702,0.292459,0.590991,-0.591418,-0.948790,-0.267678,-0.986755,0.000000
0.005076,-0.947386,0.753594,0.185400,-0.807978,0.342753,-0.301309,0.502792,0.710746,-0.699393,0.785272,-0.439192,0.899167,0.786370,-0.325785,0.791803,-0.784173,0.669240,0.252480,0.273354,0.263161,0.000000
0.078402,-0.084933,-0.246254,0.124607,0.084922,-0.854732,0.088242,-0.172643,-0.943236,-0.622547,-0.873348,0.512314,-0.871944,0.741997,-0.340495,0.219031,0.321696,-0.408002,-0.950499,0.299966,0.479049,0.000000
0.685354,-0.062960,0.126255,0.246864,0.236000,-0.219398,0.511460,-0.365154,0.259804,-0.147008,0.650136,-0.286660,0.909482,-0.369793,0.850887,-0.644398,0.921079,0.169713,-0.045137,-0.253395,-0.175207,0.000000
-0.817682,0.038789,0.767449,-0.991394,0.999695,-0.602710,0.750725,-0.026913,-0.460494,0.615650,0.127232,0.204627,0.679495,-0.336039,-0.068087,0.107639,-0.202612,-0.981506,0.852229,0.400617,-0.861629,0.000000
-0.661489,0.245094,0.933897,-0.507004,0.939634,-0.974975,-0.346660,-0.635914,-0.802606,-0.162877,-0.517624,0.665517,-0.528428,-0.424543,-0.566454,-0.884884,0.870846,-0.133885,-0.188574,-0.262856,0.151646,0.000000
-0.873409,0.047517,-0.934080,0.264992,-0.218299,0.570727,0.641835,-0.084924,0.243141,0.413007,-0.729057,-0.174169,-0.544420,0.477523,-0.435591,0.055035,0.366314,0.722404,-0.493515,-0.009186,0.229102,1.000000

0.638295,0.303385,0.769524,0.086398,0.595630,0.188086,0.038484,0.986389,0.849483,-0.214576,-0.379986,-0.922056,-0.657155,0.577197,-0.788385,-0.794244,-0.653798,0.229713,0.131260,-0.276589,0.855708,0.000000
-0.390912,-0.898251,0.476669,0.111118,0.661672,0.968627,0.846858,-0.253822,-0.070650,0.315714,0.739555,0.311441,0.106723,-0.215857,0.210669,-0.015900,-0.844234,0.710379,-0.295022,-0.335734,0.111423,0.000000
0.883297,0.610706,-0.085055,-0.043306,0.600330,-0.341289,0.546434,0.882687,-0.392438,-0.339396,0.479598,0.752800,0.251564,-0.564501,0.101657,0.902463,-0.674673,-0.033906,0.883053,0.748405,0.654469,0.000000
0.972533,0.163671,0.720572,0.656056,0.252052,-0.558519,0.779840,-0.123203,0.103488,-0.076510,-0.424177,-0.688650,0.198340,0.925413,0.282998,-0.648183,0.118259,0.522935,0.076022,-0.603748,-0.402326,0.000000
0.554430,0.889767,-0.457259,0.864498,0.259926,0.689138,-0.035249,0.729667,0.171667,-0.071139,-0.499008,0.064852,-0.857356,-0.658498,-0.379559,0.498764,0.544847,-0.370464,0.041292,0.891720,-0.457808,0.000000
0.504868,0.684500,0.557360,-0.724174,0.248451,-0.307169,0.109165,0.527879,-0.143040,-0.528977,0.594653,-0.715079,-0.830439,-0.217383,0.630543,0.247230,-0.280679,-0.269082,-0.664235,-0.330363,0.912351,0.000000
0.829463,-0.002270,0.474960,0.063875,0.542100,-0.160619,-0.484970,-0.523789,0.459151,-0.651967,0.174291,-0.122532,-0.132603,-0.649159,-0.467940,0.409650,-0.777154,0.904355,-0.588733,-0.200171,-0.388287,0.000000
-0.465865,-0.883785,0.622425,-0.762017,0.995666,0.734062,-0.029756,0.362774,0.696768,-0.329997,-0.549791,0.258400,0.362957,-0.908261,-0.965026,-0.227699,-0.537889,0.727775,-0.283059,0.246376,0.821833,0.000000
0.766594,0.131871,-0.872982,-0.712577,0.294778,0.624439,-0.985290,-0.774041,-0.204321,-0.546251,0.787591,0.889462,-0.664907,0.171667,0.894772,0.914975,0.001570,0.897580,0.976196,0.706839,-0.945067,0.000000
0.884152,0.334635,-0.170568,0.863887,-0.570971,0.498764,0.364788,0.914182,0.230750,-0.971435,0.650258,-0.072176,-0.634693,0.104831,0.236549,0.453902,-0.909482,-0.544542,0.352458,-0.008999,0.400983,0.000000
0.523484,-0.109775,0.900449,0.638783,0.899045,-0.566332,0.722709,-0.523972,-0.771172,-0.998596,0.327982,0.259438,0.464766,-0.456587,0.368877,-0.041047,-0.737236,-0.382000,0.713981,0.946226,0.319315,0.000000
0.319926,-0.007474,-0.328471,-0.234413,0.967345,0.371807,-0.150365,0.531480,-0.172643,-0.435957,-0.171728,-0.799554,0.505661,0.243141,-0.264260,-0.989074,0.744865,-0.492965,-0.697928,0.246681,-0.583239,0.000000
-0.283792,0.595691,-0.149937,0.139073,-0.962645,-0.922239,0.592212,-0.718436,0.744621,-0.287027,-0.266335,0.740593,0.637867,-0.090732,0.631886,0.355205,0.356365,0.052461,0.088717,-0.920652,0.401898,0.000000
-0.615833,-0.597278,-0.494186,-0.568407,-0.127781,-0.848445,0.817743,-0.137120,0.381207,0.915220,-0.221717,-0.481918,-0.340739,0.180334,-0.911008,0.215247,0.187475,0.750481,0.367656,-0.321207,-0.891110,0.000000
-0.832392,0.092746,-0.036470,0.290872,-0.377605,-0.903745,-0.688040,0.881039,-0.272622,-0.116062,0.423627,0.530076,0.792840,0.862606,0.873714,-0.223731,-0.819514,-0.261086,-0.261269,-0.311625,-0.484481,0.000000
-0.620167,0.809198,-0.681509,0.575610,0.439131,-0.459578,-0.274514,0.770257,-0.341960,-0.315958,0.965331,-0.153966,0.442488,-0.581713,-0.726981,0.211646,0.292337,0.271096,-0.369976,-0.065706,-0.831355,0.000000
-0.718863,0.940184,-0.939451,0.914182,0.294046,0.044342,-0.431623,-0.416852,0.746208,-0.133457,0.460921,0.685415,0.412153,-0.322916,0.149998,0.924131,-0.965575,0.946654,-0.941465,0.277566,-0.777825,0.000000
-0.713248,0.787530,-0.560106,-0.020261,-0.706778,0.010760,-0.527940,0.767815,-0.522691,0.464278,-0.049043,-0.722648,0.538865,0.922666,0.289285,-0.391095,0.523545,0.809992,-0.883114,-0.710990,0.127659,0.000000
-0.828303,0.281411,-0.593921,0.562243,-0.834712,-0.286111,0.416364,0.147435,0.389813,0.554979,0.533982,0.756218,0.675649,0.720939,-0.424604,-0.545946,0.065340,0.432234,-0.044221,-0.721732,0.899594,0.000000
-0.279641,0.421430,-0.567553,0.409955,0.255715,0.682119,-0.238868,0.797052,0.056551,-0.326579,-0.324870,-0.199866,-0.157384,0.919614,-0.438765,0.121311,0.947203,0.282998,-0.740287,-0.203101,-0.940855,0.000000
0.736564,-0.052644,0.866756,0.282022,-0.081759,-0.110630,-0.236793,0.716056,-0.321329,0.020819,0.431440,-0.508286,-0.774163,-0.051973,0.202979,0.807550,0.177221,0.514267,0.299417,-0.890805,-0.666982,0.000000
0.884518,-0.903012,-0.840388,0.813532,-0.031648,-0.096530,0.939634,-0.344707,0.440413,-0.750969,0.071810,-0.847041,0.574999,-0.226356,-0.915403,-0.202734,0.668142,-0.339640,0.086703,0.586657,0.717338,1.000000

-0.659536,-0.920530,-0.758110,0.722831,0.718375,-0.346660,-0.852046,0.718802,-0.415571,0.841487,-0.361675,0.058321,0.472396,-0.607166,0.596912,0.746086,0.153539,0.995361,0.375530,-0.512986,-0.089877,0.000000
-0.014252,-0.782769,-0.864559,0.713492,0.314737,-0.034516,-0.178259,-0.754143,0.881527,-0.569018,-0.249367,-0.368389,-0.516709,0.327372,-0.706229,0.442793,0.454878,-0.197974,0.668752,-0.599841,-0.152135,0.000000
-0.411725,-0.937742,0.932859,-0.818415,-0.262856,0.493637,0.808771,0.734367,0.315531,-0.656178,-0.779351,0.324992,-0.263894,0.589282,0.983581,0.479354,-0.950255,0.154637,-0.375835,0.527207,0.405988,0.000000
-0.503098,0.028519,-0.984313,0.186193,0.072482,-0.551866,0.138523,-0.054415,0.181249,0.149632,-0.888730,-0.952635,-0.829279,-0.147679,-0.299417,-0.812250,-0.275369,0.680288,0.786676,0.900998,0.480026,0.000000
0.629383,0.796564,-0.385418,-0.242897,0.546678,-0.830195,0.330912,-0.375103,0.649831,0.332621,0.372417,0.346477,-0.861568,-0.818720,-0.193335,-0.986877,0.453536,-0.351299,-0.389630,0.451888,-0.573901,0.000000
0.636341,0.979308,0.457747,0.855708,-0.180578,0.642689,-0.952635,0.619251,0.338847,0.282632,-0.714530,-0.571825,0.869198,-0.954283,0.868221,-0.530564,0.610645,0.219581,0.013459,0.972900,0.843867,0.000000
-0.535936,-0.491012,-0.538865,0.429548,-0.492111,0.130039,0.500351,0.624195,-0.888607,-0.963683,0.971496,0.112339,0.430586,-0.719657,0.090609,-0.049104,0.294229,-0.258217,-0.241554,-0.682913,-0.459639,0.000000
0.250465,0.071505,0.496323,-0.811701,0.144139,-0.507614,-0.116123,-0.609058,0.902829,-0.337870,0.094089,0.673269,-0.480209,-0.052950,0.564745,-0.987060,0.219398,-0.518784,-0.070711,-0.723319,0.448470,0.000000
-0.364055,0.771905,0.324198,-0.795892,-0.534410,0.305826,-0.143284,0.510178,-0.682302,0.028840,0.816218,0.946532,-0.170751,0.271950,-0.368694,-0.865352,0.195105,0.312540,-0.606128,-0.720450,0.191382,0.000000
0.584216,-0.021027,-0.167760,-0.919980,-0.194433,-0.957762,0.515976,0.600085,-0.642750,0.480697,-0.515610,-0.129002,0.476852,0.012604,-0.774773,-0.635914,-0.021882,-0.233436,-0.513901,0.050935,0.181188,0.000000
0.408857,0.017826,-0.043123,0.283120,0.887204,0.668996,0.960387,-0.130284,0.431257,0.616688,0.662526,0.028169,-0.116611,0.573412,0.280252,0.336711,-0.393414,0.270363,-0.499619,-0.877132,-0.304483,0.000000
-0.023469,-0.834040,-0.235328,-0.620289,-0.705863,-0.818110,0.895138,0.796991,-0.506272,0.291788,-0.479476,-0.724784,0.384503,0.756768,-0.048738,-0.896725,0.463241,-0.968505,0.337687,-0.428083,0.281960,0.000000
-0.000802,0.192358,0.412153,-0.622608,0.249489,-0.240272,0.684194,0.743217,0.866085,0.344462,0.948180,-0.154210,-0.586596,-0.032197,0.390240,0.749016,-0.357036,0.320109,0.926511,0.760064,-0.608814,0.000000
-0.797235,-0.093112,-0.591052,0.306009,0.458846,-0.211463,-0.655446,0.911252,-0.169652,-0.029084,0.124241,-0.204444,-0.352947,-0.023713,-0.162633,-0.021516,0.928282,-0.430586,-0.365581,-0.000618,-0.312357,0.000000
0.432356,0.764153,-0.853267,-0.597095,0.791437,-0.921506,-0.142247,0.815363,0.411542,-0.317423,0.827998,0.172033,-0.766350,-0.748589,0.843501,0.781549,-0.620716,-0.016938,-0.241981,-0.356914,0.237098,0.000000
-0.743706,0.044343,0.110813,-0.478133,-0.647450,0.089877,0.103916,-0.407758,-0.907651,-0.058443,-0.804498,-0.264443,-0.135655,-0.152684,-0.136631,0.924436,-0.235511,0.736808,0.632252,0.309244,0.338176,0.000000
-0.856136,0.084384,0.599231,0.763115,0.671194,0.379864,-0.797235,-0.348064,0.236854,0.481674,0.131993,-0.144383,0.042085,0.825983,-0.554003,-0.238990,0.416303,0.053133,-0.687246,-0.528977,-0.409589,0.000000
-0.289590,-0.987487,0.252968,-0.236183,-0.327311,0.634693,-0.189001,-0.273598,0.862850,-0.586840,-0.221656,-0.605701,-0.424360,0.500717,-0.499435,-0.307352,0.971557,-0.313272,-0.752434,-0.351482,-0.244057,0.000000
0.400311,0.011689,-0.846980,-0.967345,0.904660,0.205847,-0.979614,-0.531785,0.946348,0.454390,0.752312,-0.911252,0.945555,-0.083163,-0.259011,0.861202,0.975951,0.091769,0.856868,-0.303446,0.725761,0.000000
0.931333,-0.122898,0.215430,0.079684,0.174474,0.355754,-0.957091,-0.829463,-0.607349,0.350017,-0.749077,0.053194,-0.588549,0.529893,0.373089,0.600879,-0.654347,-0.201819,0.759697,0.103305,0.716788,0.000000
-0.769280,0.050752,0.700003,0.377239,-0.556383,0.705435,0.764458,-0.189367,-0.780084,-0.973510,-0.984191,-0.922056,-0.174841,0.558458,-0.279641,0.238990,-0.093112,0.397565,0.944273,-0.645497,-0.856685,0.000000
0.571764,0.145054,0.351177,0.171667,-0.526841,0.088900,-0.990905,0.058260,-0.531175,0.644032,0.370952,-0.934874,-0.464522,0.513230,-0.963256,-0.025561,-0.246193,0.993286,-0.543626,0.814447,0.362896,1.000000

0.692740,0.147557,-0.941221,-0.935728,0.781793,-0.533494,-0.275857,-0.626637,0.789361,0.015778,0.861934,0.340922,0.423688,0.411603,-0.467269,-0.112705,0.853572,0.775201,-0.574694,0.637501,-0.143895,0.000000
-0.756279,-0.009430,0.860775,0.448408,-0.907651,0.333720,-0.481796,0.763970,0.798151,0.299478,0.601367,0.179724,-0.490829,0.875362,-0.173193,-0.604846,-0.756706,-0.216590,0.276833,0.246803,-0.557848,0.000000
-0.532334,0.750664,0.764275,-0.922300,0.973144,-0.217383,0.854793,0.988525,-0.680532,-0.744621,-0.610645,-0.377850,0.241737,-0.301187,0.522629,-0.502426,-0.883297,-0.310953,0.562548,-0.027375,-0.701102,0.000000
0.105258,-0.886044,0.894589,-0.941527,0.240089,0.951415,0.363628,0.996582,0.865047,-0.209998,-0.412580,0.944823,-0.763909,-0.436628,0.188574,-0.504807,0.934019,-0.683157,0.578722,-0.027558,0.855831,0.000000
0.443342,0.561327,0.675466,-0.131565,0.671499,0.897397,-0.742485,0.316813,-0.359416,0.509445,0.563768,-0.552293,0.199499,-0.973693,-0.531175,-0.960143,0.473739,0.992004,0.729972,0.924192,0.888852,0.000000
-0.859310,0.203955,0.734367,-0.893490,0.800470,-0.294534,-0.612598,-0.846309,-0.146214,0.790399,0.152745,-0.736198,-0.097446,0.283181,-0.820978,-0.563463,-0.031343,-0.487167,0.218848,0.765496,-0.576159,0.000000
-0.478256,-0.467940,-0.398114,-0.386212,0.783807,-0.665883,0.342814,0.756829,0.265358,-0.597827,-0.856380,0.629139,0.715995,0.129429,-0.762017,-0.776055,0.874630,0.646412,-0.702017,-0.497299,0.680715,0.000000
-0.866207,-0.850276,-0.880917,0.750786,0.804559,-0.684500,-0.899228,-0.914365,0.864559,-0.114353,-0.037629,0.728141,0.401471,-0.920835,0.964232,-0.278420,-0.215796,0.152745,0.300760,0.455611,-0.969543,0.000000
0.507736,-0.619984,-0.551073,0.394147,0.586718,0.690359,-0.023164,-0.753960,-0.396649,0.430525,-0.064180,0.939329,0.287393,-0.252174,0.661550,-0.727103,-0.226112,0.927427,0.938231,-0.741752,0.502060,0.000000
-0.670827,0.770501,-0.908261,0.210486,-0.563768,-0.153661,0.831111,0.639515,0.663137,0.953917,0.315714,0.502915,0.844234,-0.762383,0.186804,0.614307,-0.152440,-0.322001,-0.009735,-0.599475,0.879269,0.000000
0.315714,-0.638050,-0.562487,-0.205542,0.110874,-0.174718,0.023530,-0.110996,-0.001825,-0.521165,0.508774,-0.944639,0.403790,-0.868404,-0.975890,0.220496,-0.096591,0.334025,-0.763115,-0.279641,-0.691519,0.000000
-0.837642,-0.721183,0.064547,-0.874325,-0.017487,0.683340,-0.425642,-0.310099,0.421857,0.910947,0.231239,-0.837275,-0.586962,0.808161,-0.521470,0.662404,0.689688,0.247047,-0.599353,0.328593,0.528611,0.000000
-0.273843,-0.484603,-0.271584,0.334697,0.985168,-0.682974,-0.643117,-0.877865,0.949156,0.717948,0.259377,0.060823,0.187658,-0.641713,0.597766,0.101047,-0.883175,0.051546,0.861080,-0.621937,0.773553,0.000000
0.156163,0.659413,-0.512009,-0.256691,0.213538,0.014069,0.246010,0.870479,-0.282693,0.615039,-0.713492,-0.837519,0.858028,-0.997436,0.647816,0.854183,-0.465011,-0.552232,0.635731,-0.124302,-0.963073,0.000000
-0.796136,-0.779778,0.798212,-0.519883,0.552904,0.463790,-0.757256,0.840876,0.127232,-0.914243,-0.224647,-0.898312,-0.339579,-0.917478,0.711356,0.300699,0.008515,-0.491745,-0.187597,-0.360942,0.110691,0.000000
-0.058809,-0.101657,-0.427595,0.173620,0.260842,-0.512741,-0.861873,0.231971,0.460372,-0.161290,-0.117649,0.655751,0.424909,0.112033,-0.429975,-0.895749,-0.077303,-0.457076,0.876766,0.997131,-0.277871,0.000000
0.407147,0.765801,0.720511,0.005524,-0.440413,0.313150,0.161046,0.306864,0.654653,0.129978,0.988525,-0.434858,0.779046,-0.707266,-0.225318,-0.518357,-0.379620,0.899045,0.610157,0.727714,0.115635,0.000000
-0.982055,0.507797,-0.890744,0.900510,-0.406293,0.102573,-0.133579,-0.128208,-0.154942,-0.531541,-0.053621,0.063204,0.284951,-0.288491,0.032380,0.331889,0.873959,-0.874508,-0.499130,-0.124973,-0.925352,0.000000
0.033662,0.099277,0.708609,-0.340556,-0.894894,-0.934996,0.724418,-0.794244,-0.109653,0.229591,-0.429365,0.068697,-0.470016,-0.733268,0.002777,-0.206153,-0.927671,0.537462,0.945616,-0.843379,-0.691092,0.000000
0.819941,0.320963,-0.180334,0.202673,0.514023,0.790094,0.340312,-0.075167,-0.904660,0.377117,0.222633,-0.983154,-0.897275,-0.916440,0.785943,0.490280,0.602710,0.100803,0.091708,0.917173,-0.318827,0.000000
0.827143,-0.677480,-0.858455,-0.341350,-0.894467,-0.035737,-0.414045,0.181921,-0.113498,-0.640187,-0.363140,-0.113254,-0.329264,0.434309,0.578906,0.793634,0.626331,0.793878,-0.280740,0.490646,-0.888241,0.000000
-0.890805,0.351909,-0.935179,0.395856,-0.065951,-0.165563,0.579821,-0.563463,0.008271,0.982482,0.450240,-0.691275,-0.521836,0.231544,-0.904172,0.786981,0.738212,-0.775506,0.118381,-0.807184,0.860775,1.000000

0.630116,0.256447,0.215735,0.932310,0.662404,-0.964415,-0.627796,-0.857540,0.736137,0.728507,0.319437,-0.174291,-0.712943,0.636708,-0.246559,0.293008,0.746452,0.945799,-0.528611,0.376019,-0.435774,0.000000
-0.921262,0.700064,-0.223792,0.610340,0.334880,0.091952,-0.800714,-0.298990,0.301859,0.622913,-0.746452,0.451949,0.820734,-0.900998,-0.376202,-0.733940,0.996460,0.924375,-0.057588,0.234107,-0.872555,0.000000
-0.068331,0.267922,-0.293313,0.485519,0.378094,-0.260231,-0.342021,0.510483,-0.563829,-0.595874,0.956420,-0.433332,0.137608,0.709830,-0.773125,-0.562487,-0.027680,-0.438276,0.502182,-0.906980,-0.900571,0.000000
0.076022,-0.636525,0.457564,-0.419294,-0.727592,-0.502670,-0.753594,0.231605,0.650807,0.474838,0.522691,0.002899,-0.548143,0.348064,-0.628101,0.567980,0.791864,-0.949705,0.907529,-0.710135,-0.970946,0.000000
0.634449,0.194250,0.443953,0.787957,-0.101108,-0.332316,0.234901,0.806085,-0.183020,-0.403119,0.228126,0.070772,-0.341411,0.630116,-0.716300,0.491440,-0.682546,0.022065,0.429060,-0.841487,-0.789605,0.000000
-0.316935,-0.194556,-0.830561,0.721915,-0.054231,-0.810419,-0.934080,0.309488,0.898862,0.496750,-0.387249,0.584521,-0.243263,-0.631764,-0.122043,-0.970580,-0.888974,0.875607,-0.322062,0.833979,-0.764763,0.000000
0.270547,0.293191,-0.264931,0.150487,-0.536912,0.438032,-0.989257,-0.202429,-0.120396,0.193213,-0.185827,-0.648793,0.806635,-0.123508,-0.004120,0.731437,-0.351115,-0.234046,-0.588549,0.986206,-0.984313,0.000000
0.592334,0.970275,0.423933,-0.519211,0.627430,0.510910,-0.618946,-0.697745,-0.644948,-0.666982,-0.431196,-0.252846,0.126865,0.756706,0.271462,-0.046052,-0.810968,-0.528550,0.007904,0.926878,0.424970,0.000000
0.521958,-0.795221,0.363323,-0.280984,0.914243,0.055879,0.099948,-0.010529,-0.614612,-0.024995,-0.046297,0.610767,0.247963,0.181432,-0.436262,-0.528306,-0.619984,0.036348,-0.884396,-0.885128,-0.000949,0.000000
-0.393902,0.644520,0.038240,0.085360,0.928343,-0.523362,0.120945,-0.000942,-0.205481,0.617725,0.676015,0.447310,0.165563,0.870724,0.309000,-0.150487,0.555284,-0.136937,-0.763115,-0.085788,0.710196,0.000000
0.061495,0.074190,-0.998169,-0.562548,0.620716,0.007294,-0.476058,-0.267434,0.456526,-0.275246,-0.591540,0.912412,0.990967,-0.565111,0.268593,-0.538804,0.237159,-0.877499,-0.867367,0.245338,0.760369,0.000000
-0.409955,-0.997375,-0.257912,-0.055208,0.264321,0.156896,-0.079989,0.318277,-0.366497,0.074435,-0.078097,0.822077,-0.482650,0.278909,0.619373,0.776788,-0.787652,0.214087,-0.111911,-0.393292,-0.391034,0.000000
-0.735710,0.172826,0.838008,-0.019196,0.396832,-0.877010,0.907956,0.982482,-0.879513,0.683950,-0.978271,0.489853,-0.281533,-0.160619,-0.568102,0.220863,0.293435,0.062716,-0.371563,-0.167882,0.416059,0.000000
-0.371258,0.970214,-0.029084,0.451705,0.132664,-0.939390,0.442305,-0.614490,-0.915159,0.867061,0.484542,0.361919,0.409650,0.773858,0.738578,-0.812006,-0.177770,0.946959,-0.617237,-0.894894,-0.115940,0.000000
0.872982,0.129978,-0.799860,0.543626,-0.444441,0.496689,0.265542,-0.988220,0.477340,0.321085,0.761406,-0.076754,-0.454451,0.442244,0.569140,0.973083,-0.456282,0.604602,-0.791620,-0.195227,0.967589,0.000000
-0.369304,-0.431623,0.959044,-0.969115,-0.695364,0.171728,0.753960,0.558763,-0.241371,0.834773,0.079073,-0.704825,0.231483,-0.936155,-0.124180,0.803461,0.583605,0.898984,-0.578539,0.051180,0.788873,0.000000
0.377789,0.780328,0.349467,0.450667,-0.723930,-0.991516,0.702567,0.843013,0.592700,-0.990905,0.250221,-0.755547,-0.272317,0.192541,0.410932,-0.979675,0.467330,0.618946,-0.155614,-0.427778,0.507126,0.000000
0.601978,0.722282,0.156774,-0.966491,0.888424,0.477523,-0.248634,-0.391400,-0.104160,-0.688589,0.655873,-0.498886,0.072237,-0.796503,-0.111301,0.451399,-0.042451,-0.565722,-0.006256,-0.659413,-0.386578,0.000000
0.954100,0.685720,-0.139317,-0.703543,0.924070,0.436201,-0.486129,0.276101,0.053560,-0.986633,-0.194128,0.518540,-0.946532,-0.154027,-0.138707,-0.705069,0.608631,0.709647,0.477889,0.703909,-0.911557,0.000000
0.561388,0.860164,-0.813532,-0.141331,0.842891,-0.447798,-0.279153,0.922483,-0.071688,-0.174047,0.882931,0.802545,-0.479110,-0.706351,0.759819,0.208838,0.652333,-0.223243,-0.330607,0.619312,0.549669,0.000000
-0.463546,0.844478,-0.550035,0.962218,0.078402,-0.038789,0.951293,-0.588916,0.611133,-0.602466,0.186865,0.847102,0.517136,0.621509,0.512619,-0.430403,-0.556261,0.723258,0.842036,-0.175024,0.701712,0.000000
0.855892,0.262307,0.275918,-0.247230,-0.812189,0.262917,-0.298746,0.539781,0.589648,0.360637,-0.678823,0.308390,-0.562670,-0.762383,0.216956,0.870602,0.562365,-0.041169,0.046236,-0.551134,-0.944090,1.000000

-0.980529
-0.155980
-0.941954
0.762444
-0.617847
0.006928
0.632740
0.398907
-0.260720
0.093173
0.030366
-0.149754
0.612293
-0.687246
0.297525
0.947020
0.600391
0.595508
-0.537767
0.152501
-0.329997
0.972777
