-3.243818,-1.153412,-2.775657,-0.448331,1.344352,1.226947,-15.729181,-0.146368,0.145594,-113.895226,-20.977577,0.843643,-2.696059,3.861451,-0.047441,-1.304075,0.021908,-2.227000,-2.893112,-0.514972,-0.060240,0.000000
14.643261,0.151028,-15.182445,0.258159,1.546576,4.029458,6.237141,0.975978,-0.695152,-77.919189,1.400686,-0.459373,-13.367454,-14.492724,-0.994768,-3.008350,0.368885,-9.459075,-14.240054,0.334087,1.619906,0.000000
-0.232407,-0.885578,-0.685627,-0.199783,-0.432872,-0.891907,-0.349195,-0.198500,-0.560186,-0.886067,0.936379,-0.841071,-0.947615,0.832309,0.586859,-0.208273,-0.898078,-0.308257,-0.619266,-0.860036,0.461763,0.000000
0.944851,0.280619,-0.107776,-0.487401,0.657322,-0.727760,1.062172,-0.520814,-0.234669,-0.382467,0.408240,0.564002,-0.854128,-0.052935,-0.605290,0.552183,-0.434288,0.201902,-0.344376,0.358703,0.069561,0.000000
-0.085641,0.000438,0.119711,-0.012103,-0.039595,-0.063437,0.048407,0.007498,-0.012287,-63.577900,0.071687,-0.002531,0.148350,0.089281,-0.011878,0.060370,0.014037,0.100827,0.169650,0.009790,0.015215,0.000000
-0.883755,0.715924,-0.120643,0.646690,0.352039,-0.391650,-1.297340,-0.411325,-0.249829,-3.444031,-0.503828,0.986828,-0.305404,0.819108,-0.286003,-0.336476,-0.130031,0.715744,0.110833,-0.533245,0.443111,0.000000
0.977236,0.726712,-0.336027,-0.857562,0.511467,-0.781428,0.921142,0.358241,-0.826589,-1.316063,-0.261764,0.554450,-0.763115,0.071747,0.189297,0.866467,0.780935,0.423667,0.301734,0.384383,-0.261787,0.000000
3.674691,0.105656,-9.742318,1.080032,3.879436,3.908459,-8.816344,-0.273865,1.229220,-125.159538,-15.634988,0.966730,-10.043425,-4.333582,0.011729,-4.204013,-0.600671,-9.273907,-10.989752,-0.036543,-0.634622,0.000000
6.918436,-0.446370,-6.757462,3.385044,5.311513,6.892148,18.852839,-3.038273,3.288037,185.698105,29.205593,0.152924,-6.256263,-6.472289,1.752862,-6.962213,-2.403181,-7.552583,-8.157481,-1.016932,-2.989940,0.000000
0.036651,0.726191,0.284447,-0.388121,0.787588,-0.435733,0.847376,0.778651,-0.872317,0.423729,-0.571138,-0.095725,0.548727,-0.205510,-0.693705,0.868298,0.791648,-0.697339,-1.188599,0.100808,0.629380,0.000000
-2.052104,-0.943990,0.589265,0.010098,-0.779386,-0.976213,-1.424923,-0.893164,0.515101,0.221514,-2.134163,-0.977238,-0.113328,1.384220,0.213357,-0.343013,-0.113544,0.762951,-0.375031,-0.733152,-0.579013,0.000000
0.436991,-0.742901,0.173993,-0.552107,0.737551,-0.734528,-0.402443,0.885610,0.321623,-1.073817,-0.201005,0.505862,0.506285,0.109238,-0.091977,0.772285,-0.204563,0.777679,-0.339858,0.094395,-0.869757,0.000000
6.904707,0.407730,-12.091084,0.741529,3.337851,5.839774,-7.137973,-0.694353,1.045657,-73.817810,-9.756935,-0.472231,-12.675100,-7.570743,0.901267,-5.339528,-0.172174,-10.600390,-13.437010,-0.910368,-0.465533,0.000000
0.229620,0.234294,0.788742,-0.777715,-0.497156,-0.834953,-0.998998,0.571504,0.605972,-0.966215,-0.799189,-0.190302,0.300782,-0.212827,0.395308,-0.121200,-0.383681,0.025186,0.381753,0.949190,0.568963,1.000000

-0.000177
-0.000052
-0.001175
0.000500
-0.000272
0.000090
-0.000288
0.001011
-0.000101
-0.265980
-0.000214
0.000119
0.000029
0.000479
0.000537
-0.000295
0.000833
0.000162
-0.000864
0.000353
0.000231
-0.161732
