-1.048988,-5.576678,-10.757315,-11.599559,-6.402741,2.031846,10.496162,11.313684,-9.448340,6.897224,-9.480431,0.025437,-12.143221,0.489635,0.396695,-1.527072,-8.497960,-0.613848,-1.169738,-0.315095,1.776712,0.000000
-4.080055,-13.471498,-29.594147,-31.464249,-19.958292,7.130122,26.922421,32.840969,-28.143303,20.488556,-26.502218,1.448878,-34.135563,0.296273,3.779480,-4.065442,-26.306389,0.396572,1.241336,-3.655877,6.579244,0.000000
-0.045643,0.532611,0.651262,-0.797465,0.682800,-0.158543,0.856976,0.413538,0.501927,0.780017,0.252216,0.255218,-0.208166,-0.692502,-0.545704,-0.058794,-0.344556,-0.649862,-0.446055,0.827910,0.856217,0.000000
-0.987904,-1.012271,-0.442589,-0.686578,-0.912925,0.628005,-0.195481,0.760104,-0.808960,0.605290,0.540739,0.642716,-0.398915,-0.573641,-0.760190,-0.406031,-0.154097,-0.318731,-0.397390,-0.041330,-0.144502,0.000000
0.030035,0.069032,0.163269,0.164258,0.116600,-0.029796,-0.125771,-0.152882,0.168102,-0.130673,0.150742,0.007291,0.170223,0.007428,-0.035041,0.036972,0.164068,0.007658,0.004375,0.027075,-0.025727,0.000000
0.232751,-0.963037,-0.671211,-0.908502,0.896410,0.819220,0.545336,0.221220,0.165911,0.072878,-0.654379,-0.789173,-0.558620,-0.374751,-0.503503,0.525412,-0.364635,0.008827,0.614688,0.663102,-0.626461,0.000000
0.083908,-0.004532,-0.955760,0.205562,0.237972,-0.235960,-0.546348,0.270564,-0.261583,-0.853423,-1.043264,-0.215792,0.091066,-0.061598,-0.988080,0.684483,-0.670972,0.921171,0.256953,-0.844302,-0.791295,0.000000
-6.047297,-17.429161,-28.444252,-30.614256,-21.919785,12.330258,26.768669,31.154114,-26.564480,23.623659,-26.556553,3.502939,-31.921036,3.000954,5.833139,-7.163706,-26.700418,3.308079,0.892187,-6.601220,11.502041,0.000000
6.258900,12.017537,22.489086,23.178514,16.989374,-10.272037,-21.383102,-24.906240,20.581808,-18.277018,19.422995,-4.806579,25.433212,-4.048048,-5.291593,6.496605,21.512465,-3.658197,-2.930670,5.775221,-9.339304,0.000000
0.724739,-0.226930,-0.519737,0.858151,0.508536,-1.128566,-0.267698,-0.132338,0.163627,-0.198665,0.644882,0.521846,0.128458,-0.942012,-0.948539,0.625060,-0.207125,0.723472,-0.526545,0.459607,-0.174763,0.000000
0.469118,1.530024,0.672179,0.904300,0.197161,-0.177912,-1.507189,-0.829928,0.156572,0.074927,0.868138,0.616187,2.326338,0.160993,0.763952,0.678896,0.683423,-0.706832,-0.484111,0.215540,0.263652,0.000000
0.316359,-0.156700,-0.667545,-1.159887,0.743426,-0.168570,-0.303997,1.020648,0.115392,0.366934,0.655042,-0.319856,-0.273314,-0.669783,-0.188727,-0.901618,-0.940515,0.007788,0.923246,-0.211281,0.793110,0.000000
0.801075,-2.694395,-6.459159,-7.806364,-5.269467,0.975483,5.737840,7.893237,-7.113237,5.631732,-6.353627,-1.173188,-8.328032,-1.467561,0.225791,-0.787198,-6.512280,-1.146762,-0.375919,-0.422437,0.578104,0.000000
0.736491,-0.860556,0.292601,0.381629,-0.919742,0.337197,-0.780419,0.666892,-0.668203,-0.178116,-0.604396,0.128680,0.208819,0.648811,0.042671,0.506405,-0.641233,0.397285,0.033713,0.950427,-0.000241,1.000000

0.000469
0.000543
0.000017
-0.001431
0.000309
-0.000084
0.000088
-0.000125
0.000349
-0.000334
0.000429
0.000491
-0.000735
-0.000043
-0.000720
0.000315
-0.000264
0.000078
-0.000833
-0.001175
0.000013
0.054299
