-0.283726,-1.224874,-1.454419,2.219707,-0.888391,0.750887,2.065697,0.822041,1.460623,0.800742,0.221848,0.135516,-2.654842,-1.211114,0.745539,0.034669,0.324864,0.180181,2.540988,1.380530,-0.303430,0.000000
0.820550,-1.786268,-1.408505,2.130854,-0.817060,0.525793,1.605223,0.425917,0.966369,0.302069,0.021888,0.907115,-1.346840,-1.088140,0.257408,0.309798,1.388399,-0.202021,2.239881,1.846850,-0.490865,0.000000
0.176093,-1.743139,-2.513529,1.531831,0.213345,0.053659,1.440886,-0.229265,0.296712,-0.352758,1.002938,-0.794733,-2.453905,0.374651,1.360570,0.081396,0.787853,-0.577003,2.529433,1.555318,-0.620505,0.000000
0.665423,-0.327616,0.213779,-0.626351,-0.981158,-0.583876,-0.418072,0.927126,-0.587057,-0.239553,-0.347232,0.997810,0.755568,0.690957,-0.359699,1.033223,-0.536667,0.478990,0.522226,-0.531849,-0.430097,0.000000
0.170019,-0.705374,-0.098422,-0.075839,-0.248268,0.487472,-0.149693,-0.716849,0.634388,0.669362,-0.087802,0.145177,-0.427839,-0.578845,-0.126621,-0.085116,0.256142,0.110263,0.609058,-0.782891,-0.068880,0.000000
0.422094,-1.210387,-1.377050,0.322265,-1.088744,-0.013605,1.855784,1.085088,0.485399,-0.693485,-0.274875,-0.810042,-1.547245,-0.908169,0.033064,1.415804,0.774755,0.841590,0.639372,1.873365,-0.253991,0.000000
0.401467,0.156204,-2.525899,2.014234,-0.060087,-0.008822,1.929444,0.803903,0.123365,0.388438,1.240314,0.194732,-2.567089,-0.104398,1.015542,-0.160273,0.761390,-0.465645,2.182775,2.421819,-1.087314,0.000000
1.505036,-0.950006,-1.459297,0.740287,-1.312930,0.974474,2.913791,0.039234,0.837040,0.686692,-0.123133,-0.473480,-1.424959,-1.188064,0.945515,0.903765,0.811423,-0.571997,2.815668,2.248059,-0.757264,0.000000
1.352715,-1.594139,-1.087705,1.867254,-1.403573,0.565107,2.421048,0.280084,1.281937,0.212833,0.756786,0.816692,-1.202067,-0.986573,1.128808,-0.153610,1.065868,0.258220,2.882146,1.063427,0.086535,0.000000
1.017657,-1.607224,-0.619996,1.656646,0.526532,-0.726317,1.117108,-0.537666,0.420745,-0.520316,0.341044,0.351900,-0.970917,-0.249364,-0.031875,0.358135,0.914407,0.433007,1.755325,0.951026,-0.667968,0.000000
0.059927,-1.815640,-1.620376,2.301929,-0.868995,0.273601,1.263492,1.354791,0.382321,1.255341,-0.329591,0.448259,-1.673727,0.290381,0.880319,1.508515,1.579537,0.217932,2.515893,0.911388,0.262792,0.000000
1.422150,-1.072547,-2.048147,2.299940,-0.872513,-0.154130,2.225018,0.788225,0.953695,1.197587,0.799275,-0.469708,-1.367868,0.159622,1.792033,-0.252273,1.522500,-0.248649,1.134930,0.895417,0.531535,0.000000
1.764345,-1.511865,-2.385948,2.697053,-0.619492,0.613766,3.620529,0.112916,1.918382,0.779663,1.205569,0.937909,-4.037621,-0.317761,2.040956,2.020030,1.895415,0.081465,4.231506,3.588817,0.002928,0.000000
0.262109,-0.133253,-0.095693,0.217761,0.243217,0.243073,-0.236591,0.895608,0.783570,-0.188945,-0.112544,-0.708955,-1.331013,-0.923002,1.138194,-0.204613,0.729783,-0.823000,1.634742,1.218633,0.319923,1.000000

-0.572128,0.497342,0.515261,-0.150504,-0.625599,-0.140935,-0.059630,-1.016226,0.725351,0.691258,0.756495,-0.641710,0.623968,-0.249506,-0.007798,-1.077088,0.643242,0.659455,-0.240071,0.873850,-0.413741,0.000000
-0.419418,-0.006195,0.707941,-0.492597,0.727157,-0.134431,0.572287,0.737349,-0.116562,0.878161,-0.606968,0.791435,0.472775,0.394587,-0.222724,0.125685,-0.075592,0.930423,0.146658,-0.436513,-0.146394,0.000000
0.838152,-0.239671,-0.967008,-0.724766,-0.547615,0.894708,0.133892,0.281955,-0.846504,-0.616549,-0.848003,0.146449,0.487637,-0.705651,-0.880308,0.714434,0.183195,-0.600245,-0.043731,-0.959312,0.729158,0.000000
0.073932,0.570727,-0.671212,0.757256,-0.589587,0.739118,-0.995907,0.328160,0.477986,0.472728,-0.044311,-0.130606,-0.579660,-0.065778,0.884546,-0.422617,0.238241,0.907662,0.678604,0.465380,0.042423,0.000000
0.325018,0.105684,0.417113,-0.866953,0.082567,0.069542,-0.561886,-0.831255,-0.658573,0.288591,0.185367,0.254086,-0.596666,-0.861176,-0.654645,-0.391635,0.139278,0.596660,-0.612801,-0.697938,-0.824126,0.000000
-0.795381,-0.283662,0.300780,-0.103111,0.892389,0.740786,-0.479221,0.029926,0.873958,0.238278,-0.703244,0.404521,-0.330826,0.477824,-0.646274,-0.602979,0.683986,0.998288,0.590291,-0.969931,0.192422,0.000000
-0.042480,0.911435,-0.490611,0.192699,-0.978269,0.450699,-1.264019,0.813845,0.468443,0.735205,-0.432631,-0.914083,0.498933,0.590469,-0.121965,-1.137320,0.404030,0.799971,1.140319,-1.051530,0.486919,0.000000
-0.264794,0.263993,-0.803901,-0.355627,-0.908097,-0.148952,-0.391856,-0.949212,0.672743,-0.156186,-0.542747,-0.438243,0.938648,-0.483777,0.782915,0.064717,-0.261172,0.868868,-0.842792,-0.361708,0.616372,0.000000
-0.033402,-0.646840,-0.588977,0.141460,-0.034748,-0.418914,-1.103022,-0.530186,-0.660265,0.761509,0.457744,-0.492664,-0.128742,0.526182,-0.322811,-0.404862,-0.921780,0.358276,0.442669,0.218421,0.795594,0.000000
0.562743,-0.248913,0.315205,-0.507554,-0.222010,-0.933708,0.078677,-0.781213,-0.159703,0.256276,0.062168,-0.195735,0.158236,0.356778,-0.128578,-1.131986,-0.412038,-0.537001,0.516647,-0.376053,0.762722,0.000000
-0.009606,-0.736747,-0.242817,-0.330659,-0.898467,0.115441,0.432115,0.879455,-1.077595,-0.784144,0.383866,0.776546,-0.640814,0.453058,0.231845,-1.132221,-0.257911,0.337597,-0.498623,-0.243129,-0.345222,0.000000
-0.252197,0.487963,-0.314134,-0.749993,-0.534396,0.949101,-1.037579,0.190610,0.451247,0.223097,0.501336,0.413392,0.899574,0.175411,-0.822310,-0.206344,-0.498768,-0.405587,-0.762290,-0.210272,0.771586,0.000000
0.376020,0.903439,-0.264274,0.616387,0.782022,-0.202217,0.618940,-0.416708,-0.772995,0.137718,-0.115433,0.456494,-0.592453,-0.801883,-0.116823,0.713790,0.542271,-0.497874,-0.448331,-0.819471,0.290223,0.000000
0.063951,0.223996,0.322726,-0.730182,-0.535556,-0.517266,0.320618,0.843845,-0.191797,-0.157288,0.371027,0.791856,0.037676,0.092539,0.019189,0.871200,-0.256029,0.465461,0.355183,0.089411,0.494299,0.000000
0.184702,-0.944334,0.679579,-0.385130,-0.793833,0.235119,0.107386,-0.348045,-0.462138,0.801530,-0.033079,-0.226988,0.449053,-0.758675,0.471847,-0.388932,0.798473,0.679320,0.829599,0.326998,0.725712,0.000000
-0.230977,-0.338050,0.674029,0.613383,-0.815034,-0.436897,0.395026,0.328284,0.923133,0.020369,0.806448,-0.212834,-0.014144,1.059647,0.714859,0.305484,-0.717028,-0.574788,0.230642,-0.378288,0.587889,0.000000
-1.016153,-0.888180,0.128723,0.837239,0.774865,0.432630,-0.219662,-0.647451,-1.008690,0.070879,0.360786,0.793463,0.516651,0.072206,0.066368,0.027596,0.510438,0.532085,-0.103417,0.242341,0.812935,0.000000
0.413399,0.278471,0.230062,0.583246,-0.847413,0.896442,0.343781,-0.695227,-0.503480,0.064852,-0.583777,-0.383589,-0.805659,0.953522,-0.274199,0.598052,0.263839,-0.027091,0.573618,0.746370,0.823134,0.000000
-0.826977,-0.736747,0.672191,0.534576,-0.994468,-0.064285,-0.995123,-0.603875,-0.707634,-0.576007,1.075672,-0.238500,-0.699225,0.600149,0.950166,0.554785,0.847252,-0.732493,-0.380490,-0.001986,0.894283,0.000000
0.219628,0.694144,0.873389,0.275194,-0.964995,0.842648,0.116385,-0.035409,-0.584375,-0.285236,0.917859,0.128737,-0.715048,0.197867,1.131097,-0.018972,-0.576554,0.712707,0.421334,0.071976,0.110651,0.000000
0.715250,0.728629,-0.683057,-0.260897,-0.366351,-0.963764,0.335730,0.765069,-0.732351,-0.341824,-0.144287,-0.303187,-0.886957,0.418020,0.359933,0.108443,0.090399,0.748511,-0.472091,-0.923391,-0.096400,0.000000
-0.045400,0.197829,0.336164,0.760191,0.740703,0.946710,0.274671,-0.872190,0.154421,-1.013255,1.151781,0.452690,-0.148059,0.530127,1.259482,-1.038116,0.863380,-0.646147,-0.436284,-0.141431,-0.715487,1.000000

-0.128676,-0.699215,0.597523,0.112705,-0.990964,-0.921751,-0.223098,0.116457,0.835624,-0.410889,0.689566,0.942859,0.017619,-0.202148,0.926197,-0.466427,-0.970582,0.750046,-0.481839,0.599810,0.314436,0.000000
-0.939310,-0.095853,0.494716,0.088961,-0.316737,-0.166632,-0.637559,-0.816401,0.774473,-0.053091,0.221943,0.465703,-0.480892,-0.757773,0.240650,0.649405,0.975926,-0.383573,-0.647848,0.170013,-0.411781,0.000000
-0.472778,0.405021,0.987259,-0.107331,-0.236087,0.872250,0.167804,0.832909,0.646253,0.734212,-0.912219,0.393624,0.582280,-0.335264,0.633690,0.311035,0.790890,0.580443,-0.738399,0.705850,0.542587,0.000000
-0.162165,0.973755,-0.577644,-0.877255,-0.728385,-0.864493,-0.604745,0.772238,-0.322066,-0.860681,-0.644056,-0.989052,0.907252,0.816747,-0.080936,0.217242,-0.047302,0.888670,-0.499159,-0.408230,0.816455,0.000000
0.308185,0.551007,0.258950,0.992065,0.654653,-0.670278,0.920286,0.714041,-0.209597,-0.798029,-0.632496,0.289914,-0.572728,-0.597034,0.636946,-0.472749,0.399706,0.176914,-0.009678,0.878319,0.684253,0.000000
0.625135,0.255888,0.834889,-0.744499,0.483660,-0.577363,-0.613224,-0.898434,0.040270,-0.735755,-0.276457,0.567448,-0.828146,0.901798,0.563010,0.714186,-0.245276,-0.541435,0.962771,-0.514729,-0.545046,0.000000
-0.948439,0.238871,0.183838,0.201819,0.782392,-0.766167,-0.235919,-0.020813,-0.886703,-0.714973,-0.100358,0.464967,0.554894,-0.749284,-0.718936,-0.076780,0.216284,-0.439060,-0.898099,0.882124,-0.006518,0.000000
0.658050,0.890296,0.836808,-0.899289,0.287356,0.182226,-0.391822,0.262444,0.313928,0.834997,-0.629871,0.630612,-0.530418,0.699180,0.045151,0.498506,0.009879,0.125000,-0.837369,0.431541,-0.955906,0.000000
-0.695612,0.364343,0.018370,-0.654408,0.308590,-0.763298,-0.758283,0.486849,-0.963767,-0.392367,0.790844,-0.776513,0.161832,0.795949,-0.922011,-0.285199,0.159335,0.759328,-0.305044,-0.767136,-0.861198,0.000000
0.325077,-0.445711,-0.006799,0.320475,0.044735,0.238478,-0.598821,0.495709,0.607816,-0.273088,0.256871,0.384350,0.711927,-0.088823,-0.908455,-0.947371,-0.840043,-0.475680,-0.400663,0.503300,-0.966199,0.000000
0.164556,0.105993,-0.084202,-0.335124,0.485774,0.162567,-0.900581,-0.506946,0.591794,0.604618,0.105069,-0.309944,0.815476,-0.533434,0.583725,-0.019929,-0.151485,-0.369855,0.076063,-0.106688,-0.319220,0.000000
0.991367,-0.430428,0.780456,-0.368084,0.480685,0.380596,0.542512,0.816095,-0.529764,-0.913224,0.823671,0.276230,-0.292901,0.278045,-0.297997,0.263227,-0.497996,0.464744,-0.001402,-0.668399,0.418408,0.000000
-0.052650,0.087922,0.884105,0.307169,0.918241,0.463348,0.522216,0.581254,-0.666089,0.623523,0.049422,0.813334,0.113440,0.127563,0.830792,-0.183604,0.902796,0.739847,-0.160955,-0.961735,-0.190283,0.000000
-0.509271,0.397589,-0.619021,-0.178930,-0.051113,0.831378,0.768274,-0.618212,-0.808822,-0.542039,0.473033,0.721693,1.090489,0.269745,0.008039,-0.206893,0.807275,-0.511813,0.892370,-0.967002,-0.669271,0.000000
-0.336658,-0.534299,-0.480262,-0.144993,-0.256076,0.341025,-0.989896,0.087695,0.418252,0.773505,1.003441,-0.994089,0.846676,-0.130638,0.620274,-0.918777,1.017414,-0.592253,0.245812,-0.141336,-0.434859,0.000000
0.564571,0.092991,-0.593980,-0.556749,-0.775626,-0.402997,-0.102705,-0.897545,-0.934175,-0.487072,0.938658,0.546736,0.294947,-0.967024,-0.898421,-0.422266,0.218868,-0.106154,-0.415428,0.724412,-0.635851,0.000000
-0.260505,-0.039292,0.474653,0.357036,0.824041,0.617725,-0.139502,0.028164,-0.240377,-0.481253,0.743910,-0.153792,-0.448797,0.747133,0.336757,0.216664,0.247032,0.803762,-0.010090,-0.772649,0.462673,0.000000
0.027677,0.874513,0.898826,-0.667104,0.660628,-0.241253,0.610843,0.561502,0.478557,-0.608207,0.692586,-1.047470,0.742142,-0.697482,-0.860515,0.795690,-0.750791,0.177159,-0.149815,-1.025771,-0.763305,0.000000
0.259548,0.320802,0.261257,-0.004684,-0.077891,0.995001,-0.071166,0.396072,0.650334,-0.556295,-0.700426,-0.583415,-0.182202,-0.449792,0.423856,-0.117150,-0.123532,-0.924338,0.933045,-0.609880,-0.904558,0.000000
-0.777614,0.525733,-0.916729,0.015347,-0.781784,0.545030,-0.007728,-0.953287,-0.105225,0.689757,-0.249051,-0.179985,-0.234928,-0.410294,0.962256,0.867106,-0.363479,0.994626,0.109314,0.623092,0.042348,0.000000
1.035762,0.216586,0.299740,0.605457,0.757331,-0.591063,0.506956,0.443712,1.047416,0.725147,-0.418397,-0.750488,-0.811945,0.387151,0.093249,-0.205594,0.094741,-0.852767,0.717245,0.538799,-0.315784,0.000000
0.580772,-0.139467,-0.913777,-0.129856,0.541616,-0.658747,-0.514571,0.086316,0.357117,0.750205,-0.645306,0.772773,0.243716,0.147333,0.507462,0.095403,-0.739851,0.268002,0.637370,0.502302,0.579517,1.000000

-0.232130,0.053276,-0.316234,-0.876003,-0.727041,-0.632644,0.893479,0.824458,-0.889612,-0.201557,-0.361019,-0.551292,0.463629,-0.887160,0.718925,-0.803930,0.370557,0.056339,0.198191,-0.564596,0.654782,0.000000
0.085343,-0.492417,-0.911252,-0.528005,-0.564194,0.927995,0.310980,0.660207,0.915384,-0.361060,-0.262974,-0.773032,-0.823902,-0.021642,0.029585,-0.166710,0.587302,0.604114,0.542458,-0.853438,0.098305,0.000000
0.333837,0.826441,-0.027831,0.949299,0.130042,-0.561783,-0.612589,0.211972,-0.833913,0.210884,0.860458,0.048562,-0.840077,0.906393,0.411757,0.345146,0.855173,0.588244,-0.626956,-0.398607,-0.799068,0.000000
-0.099690,-0.026408,-0.958434,0.010494,-0.643483,-0.915505,-0.435550,-0.390240,0.130858,0.615955,0.011620,-0.470797,0.506150,0.618487,-0.487655,0.053115,0.856868,0.492660,-0.099907,-0.871090,0.017731,0.000000
-0.449741,-0.309549,0.676382,0.212401,0.270463,-0.552616,-0.309014,0.568468,0.917477,-1.033002,-0.214116,-0.972574,0.686703,-0.133345,0.841891,0.635233,0.704115,-0.025624,0.497939,-0.187213,0.883449,0.000000
0.894964,0.097348,0.239294,-0.867908,-0.786187,-0.507956,0.052010,-0.699759,0.142230,-0.815285,0.185886,0.160190,0.270714,0.810804,-0.020751,0.669435,-0.472719,0.655568,-0.148855,-0.733782,0.440116,0.000000
0.964293,0.145263,0.081166,-0.265089,-0.092501,-0.189292,-0.418126,0.085238,0.757317,-0.215452,0.552892,0.541124,-0.280740,-0.641502,-0.812922,-0.457032,-0.789117,0.118076,0.272629,-0.496628,-0.053229,0.000000
0.445469,-0.294699,0.211808,0.895399,0.517864,0.563564,-0.576897,0.378094,-0.190634,-0.483695,-0.876769,-0.774592,-0.057886,-0.058749,0.651967,-0.012546,-0.862818,-0.442427,0.587238,0.635673,-0.106697,0.000000
0.177860,-0.268579,0.141378,0.703064,-0.327005,-0.483940,-0.819132,-0.210378,-0.202403,-0.407117,-0.745442,0.950117,-0.817242,-0.080379,-0.846626,0.728697,0.822082,-0.305643,-0.675050,0.008371,0.828952,0.000000
-0.460794,-0.644373,0.554735,-0.333594,-0.885189,0.786081,-0.793972,0.986389,-0.177335,0.628514,-0.607953,-0.255383,-0.173634,0.386301,-0.434825,-0.703514,-0.699775,-0.891720,-0.366656,-0.466112,0.092646,0.000000
-0.742575,-0.393304,0.280650,-0.528990,-0.432027,-0.262797,0.404717,-0.796136,0.310581,0.676617,-0.860986,0.814991,-0.624923,-0.520925,-0.236035,0.934005,0.795863,0.822504,0.908569,0.973574,-0.276899,0.000000
-0.604572,-0.552676,0.393493,-0.425260,0.388748,0.446327,0.685758,-0.176794,0.646635,-0.389463,-0.380291,0.047212,-0.314537,0.869412,0.286433,0.072874,-0.278078,0.525803,0.411666,0.832955,0.768492,0.000000
0.189040,0.880975,0.519883,-0.915514,0.747314,-0.616325,0.324707,-0.945128,0.883609,-0.646145,-0.105369,-0.542734,0.820379,-0.470147,0.024968,-0.571070,0.928172,-0.263039,-0.629381,-0.763970,0.309371,0.000000
-0.034983,0.508115,0.736015,0.971387,0.139767,-0.917515,0.623277,0.374859,-0.440853,0.095987,0.218884,-0.384999,-0.543954,-0.421030,-0.141045,-0.875594,-0.224683,-0.435224,0.706339,-0.438511,-0.760280,0.000000
-0.299204,0.643581,-0.684011,-0.669520,0.737164,0.184535,-1.003334,-0.482223,-0.999343,-0.096565,-0.375404,-0.032705,-0.386517,0.624278,-0.718558,-0.600203,-0.324506,-0.577502,-0.925737,0.406287,0.006199,0.000000
-0.543059,0.322253,-0.150848,-0.871730,-0.837581,-0.309495,-0.028714,-0.661977,0.227233,0.965643,-0.870471,-0.371477,-0.691705,0.624522,0.949950,-0.608374,0.378004,-0.350871,0.471790,-0.063741,-0.776368,0.000000
-0.048527,0.389347,0.572924,-0.564861,0.590808,-0.290616,0.200677,-0.542711,-0.901358,-0.152285,0.206917,-0.165708,-0.319412,0.248751,-0.850765,-0.616102,0.778575,-0.899716,-0.937304,-0.413368,-0.443835,0.000000
0.380421,-0.446777,-0.957152,-0.404498,0.999329,0.325568,0.868018,-0.621998,0.311153,-0.278173,-0.732025,0.529505,-0.635426,0.583114,-0.989624,-0.601010,-0.234289,0.763237,-0.745065,-0.311907,0.089159,0.000000
0.885689,0.567058,-0.119342,0.557303,0.275035,0.924496,-0.436563,0.724418,-0.164490,-0.201568,-0.484760,0.694272,-0.463548,-1.008798,0.829584,0.902009,-0.119167,-0.502365,-0.858235,0.041379,0.574442,0.000000
0.342066,-0.869201,-0.915708,0.298342,0.237773,-0.553600,0.209474,0.526597,0.908994,-0.236068,0.645765,-0.220707,-0.588122,-0.480303,-0.176716,0.185843,0.349745,-0.192358,0.101901,0.622242,-0.261732,0.000000
0.965148,0.444619,0.012964,-0.832639,0.189556,0.791457,0.493710,-0.904782,0.207872,0.157392,-0.126103,-0.144909,-0.655080,-0.421252,0.510666,0.477557,-0.465752,-0.710257,0.136596,0.033699,0.716239,0.000000
-0.538298,0.758261,-0.457654,-0.494397,0.192749,-0.339219,0.726719,-0.031798,-0.607111,0.708907,0.933635,0.462215,-0.339153,0.877872,-0.625366,-0.425576,-0.017298,0.750542,0.038283,-0.874867,0.477214,1.000000

-0.559649,-0.198804,0.379009,-0.527409,-0.351319,0.734046,-0.806574,0.895993,0.231899,-0.837092,0.211243,-0.766716,0.141219,-0.500473,-0.018797,0.922056,0.515427,-0.196631,-0.194886,-0.355693,0.542367,0.000000
0.859089,0.016054,0.652882,0.646469,-0.373236,0.197202,0.336406,-0.558763,0.439802,-0.808710,0.250013,0.996338,-0.484273,-0.568931,0.336772,-0.803674,-0.226755,-0.454634,-0.356548,-0.540330,-0.956959,0.000000
-0.365979,-0.329386,-0.018500,0.568642,-0.671039,-0.001351,-0.676321,0.260537,0.462142,0.994140,0.788446,0.479843,-0.650630,0.732353,-0.463301,-0.094909,0.490269,0.777764,-0.202598,0.922361,-0.367036,0.000000
-0.713553,-0.343181,-0.092502,-0.451908,-0.262297,-0.938412,0.381878,0.151402,-0.696158,-0.911069,0.364974,-0.918332,0.250325,-0.138544,-0.790521,-0.813654,-0.452010,0.184729,0.315165,-0.509018,-0.384060,0.000000
0.221906,0.250909,0.306864,0.133303,-0.439220,0.352586,0.341533,-0.708914,0.512436,-0.206641,-0.528719,-0.991211,0.665865,-0.588549,-0.869625,0.037072,-0.272449,0.213233,0.861751,0.867183,-0.715354,0.000000
-0.979430,-0.498459,-0.162999,-0.650563,0.922239,0.110509,0.477035,0.859798,-0.694449,-0.783624,-0.782403,0.360515,0.340317,0.857479,-0.720450,-0.348064,-0.937559,-0.305277,0.807733,0.635975,0.048650,0.000000
0.913209,-0.420056,0.279824,-0.750840,-0.525791,-0.293559,0.776482,-0.084138,-0.190552,-0.170080,0.067276,0.912839,0.716485,0.506638,-0.091819,0.581041,0.644520,0.602832,-0.444624,-0.793207,-0.352007,0.000000
0.082589,0.069580,-0.801569,0.516271,-0.470658,0.154104,0.513169,0.284646,0.228921,-0.132176,0.435029,0.413248,-0.109956,-0.223901,-0.639454,0.648305,0.515793,0.659536,0.527329,0.154515,0.473517,0.000000
-0.220368,0.797357,0.661183,-0.167516,0.254904,0.530916,0.139012,-0.902707,0.433576,-0.460555,0.139310,0.501755,0.965474,-0.251117,0.293008,0.474744,-0.128319,0.629994,0.052470,-0.545274,0.191134,0.000000
-0.975217,-0.042845,-0.262734,-0.440678,0.512070,-0.954690,-0.470138,0.311502,0.659963,-0.093966,-0.969787,-0.717826,0.319702,0.114451,0.713553,0.127218,-0.551439,-0.153172,0.904538,-0.248085,0.156049,0.000000
-0.525864,-0.343669,0.755913,-0.658071,0.165986,-0.998718,-0.777093,0.484787,0.772088,-0.550035,0.022750,0.356548,0.417524,0.261452,-0.467818,-0.896542,-0.835078,-0.837458,0.834040,-0.617176,0.851741,0.000000
0.771416,0.349162,0.040071,0.091326,-0.456875,0.097828,-0.465743,-0.800043,-0.872555,-0.477340,-0.081032,0.225501,-0.883541,0.882138,0.635182,-0.625294,-0.468551,0.264809,0.284890,0.574206,0.319625,0.000000
0.184912,-0.079318,0.924558,-0.517502,0.424299,0.496139,0.466903,0.301492,-0.210486,0.283486,0.941710,0.325968,0.631947,0.472518,0.249794,0.981750,0.251381,0.965087,-0.904172,0.793451,0.419599,0.000000
-0.686207,0.168623,-0.210608,-0.354614,-0.314623,-0.424570,0.954955,-0.600818,0.206810,0.786187,0.780176,0.952025,0.485312,0.467903,0.833613,-0.150799,0.534532,0.377361,-0.472884,-0.381512,0.152600,0.000000
-0.961864,-0.172137,0.451399,-0.547493,0.436157,0.595119,-0.023520,-0.531297,-0.025193,0.757927,0.408904,-0.857784,0.945513,-0.226552,-0.795465,0.283753,-0.345967,-0.000708,-0.422712,-0.891659,-0.861550,0.000000
0.076104,0.844600,0.261208,0.319899,-0.956267,0.672005,-0.570177,0.464278,-0.097722,-0.101352,-0.508347,0.814814,0.670578,0.097610,-0.491623,0.442319,-0.490444,-0.631459,0.584948,0.504074,-0.415828,0.000000
0.846746,-0.758049,-0.251747,0.407932,0.414176,0.462646,0.602405,0.989074,0.523606,-0.176611,-0.788015,0.722648,-0.383348,0.958638,-0.004016,0.798852,-0.023911,0.134556,-0.483871,0.438581,-0.984111,0.000000
0.312856,0.329524,0.626820,0.346526,0.268600,-0.398833,0.225806,0.508225,0.157508,-0.535874,-0.463331,0.256986,-0.766522,0.254274,0.402264,0.685901,0.503769,-0.523240,-0.425947,0.116826,0.540742,0.000000
-0.550123,-0.702628,0.705130,0.289235,-0.746462,0.082868,-0.302957,0.786615,-0.328532,0.928831,-0.064464,0.778008,-0.589365,-0.345051,0.408246,0.830683,0.125491,0.723991,-0.296182,0.095825,0.993987,0.000000
-0.188826,-0.505234,-0.872127,-0.887936,0.439741,-0.188722,-0.034761,0.095309,0.166112,0.478744,0.213538,0.150304,-0.416425,-0.139927,-0.780816,-0.034314,-0.304178,-0.422163,0.828791,-0.262795,0.159046,0.000000
0.943846,-0.776849,0.487167,-0.330765,-0.226018,-0.782650,0.997009,0.783563,-0.279336,-0.316568,-0.898425,-0.695608,0.885555,0.248648,-0.256020,-0.047027,0.397997,0.979125,0.636952,-0.781182,-0.401955,0.000000
-0.791610,-0.795953,-0.275246,0.916129,0.061982,-0.205085,-0.252663,0.737724,0.499496,0.446089,-0.219093,0.797235,0.672757,0.384318,-0.034609,0.447497,0.935941,0.639882,-0.513230,-0.862239,-0.064255,1.000000

0.225196,-0.588183,0.685598,0.935911,0.811640,0.901364,-0.989319,-0.360271,-0.814814,-0.959166,0.879452,-0.766961,-0.709769,-0.154246,-0.172617,-0.958800,0.918149,0.504135,-0.277993,-0.425520,0.480392,0.000000
0.678762,-0.541551,0.823542,-0.884518,0.128574,0.124485,0.866573,0.868587,-0.221229,0.884518,0.383526,-0.428449,-0.305338,-0.846187,-0.712394,0.334391,-0.349162,0.078402,-0.240211,-0.037751,0.810907,0.000000
-0.422468,-0.641774,0.170568,-0.165380,0.624195,-0.457381,0.634999,0.194311,-0.365642,0.562426,-0.386700,0.093474,0.716849,-0.209424,-0.207355,0.957579,-0.897641,-0.347461,-0.680959,-0.648000,0.105258,0.000000
0.996094,-0.121255,-0.681387,-0.312296,0.597766,0.019708,-0.800348,0.128758,0.864559,0.553331,0.981811,-0.998413,0.556566,0.512070,-0.694937,-0.159390,0.316874,-0.992737,-0.279885,-0.061338,-0.210974,0.000000
0.715262,-0.359233,-0.107944,-0.282876,0.896481,-0.594714,-0.738334,0.745415,0.664663,0.552538,-0.149754,0.531358,0.481796,0.534104,-0.395428,-0.848628,-0.589587,0.822382,-0.009735,-0.348308,-0.237465,0.000000
-0.324381,-0.566454,0.364055,-0.996033,0.540330,0.751945,0.708975,0.169530,0.147008,0.501450,0.880612,-0.847224,0.883724,0.663320,-0.562853,-0.314066,0.585803,0.406354,-0.369854,-0.158686,0.591113,0.000000
-0.685415,0.669484,0.635670,-0.365886,-0.605762,-0.660268,-0.239683,-0.527207,-0.012783,0.228248,0.209394,0.835139,0.612842,0.384014,-0.895199,0.641713,0.690725,-0.456155,-0.250832,-0.957030,-0.611438,0.000000
-0.784600,0.567370,0.964110,-0.576891,0.259987,-0.701956,0.524644,-0.356792,-0.210608,-0.911924,-0.016584,0.612110,-0.782403,-0.184133,-0.470488,-0.783807,-0.514084,0.542039,0.106784,-0.099410,-0.444441,0.000000
0.925840,0.712271,0.930906,0.563707,0.029809,0.444197,-0.869503,-0.531846,0.839473,-0.894345,-0.668752,-0.582507,-0.763665,-0.000758,0.189356,0.807184,0.761650,-0.900937,0.396832,-0.399762,-0.851192,0.000000
0.957701,-0.203894,0.029332,-0.019387,0.686636,0.383038,-0.346904,0.253578,0.043698,0.108066,0.449202,-0.233133,-0.949217,0.281838,0.711905,0.172094,-0.023183,-0.577929,-0.082125,-0.335246,-0.230934,0.000000
0.168798,-0.113620,-0.824030,-0.877743,0.650258,0.113620,-0.967650,0.310831,-0.774773,0.395367,-0.902097,-0.105279,0.885128,-0.832942,-0.331889,0.420759,0.126011,-0.507309,-0.257179,-0.962096,-0.339640,0.000000
-0.772332,0.897519,-0.898556,0.778008,0.458357,0.244301,-0.849788,0.315653,0.721915,-0.729362,-0.353069,0.550035,-0.116360,-0.431745,0.162454,-0.626148,0.531724,0.098045,-0.581164,0.101588,-0.126072,0.000000
-0.863033,-0.904599,0.153722,-0.206633,0.381268,0.992920,-0.260852,0.520859,-0.164159,-0.427168,0.006862,0.748161,-0.594348,-0.635365,0.845210,0.228420,-0.958251,-0.948668,0.991577,0.692801,-0.860225,0.000000
-0.338115,0.576830,0.725028,0.135717,0.238293,0.999878,-0.987487,0.000279,0.505661,0.462874,-0.560839,0.830256,0.275042,-0.536729,0.471239,-0.914487,0.465865,-0.712210,-0.689688,0.537523,-0.085421,0.000000
-0.203528,-0.398785,0.185339,-0.109696,-0.206946,0.196387,-0.539781,0.023355,0.991455,-0.339824,-0.969115,0.076109,-0.604602,0.242470,-0.948790,-0.445906,-0.076083,0.076189,-0.273110,0.253822,-0.002716,0.000000
-0.138279,0.038072,0.206702,0.413129,0.756768,0.027020,0.146189,-0.648915,-0.542344,-0.304605,-0.685171,0.285989,-0.335378,-0.934629,0.578295,0.120282,-0.419721,-0.231276,-0.091891,0.096345,-0.843989,0.000000
0.468856,-0.558092,0.161046,0.135580,0.965575,0.049621,0.492638,-0.160253,-0.939634,0.018421,0.074675,-0.500290,0.521348,0.958068,0.270593,0.230703,-0.145909,-0.083753,-0.577441,0.348064,0.575243,0.000000
0.609119,0.337382,-0.434004,0.168207,0.067821,-0.908628,-0.291307,-0.056861,-0.070337,0.822932,-0.398297,0.221762,0.298392,-0.332560,-0.838557,0.265664,0.299112,0.694327,0.653188,0.954283,-0.717277,0.000000
0.193396,-0.420637,0.577258,0.212439,-0.494003,0.665273,-0.122532,0.968749,-0.763237,0.889279,0.697379,0.286965,0.908017,0.962035,-0.792840,0.677175,-0.820307,-0.957274,0.794488,-0.047543,0.310953,0.000000
0.756218,-0.655080,-0.225684,-0.608936,0.200110,0.785333,-0.770501,0.774041,-0.289102,0.849910,0.091891,0.427656,-0.692068,0.054957,0.049290,0.094943,0.846919,-0.178930,0.405316,0.856990,0.636647,0.000000
0.127354,0.744438,0.763237,-0.249550,0.361553,0.102206,0.653981,-0.955687,-0.319498,0.722648,-0.301309,0.907407,0.268227,-0.888607,0.199072,0.290200,-0.949889,-0.689138,-0.133702,0.379254,-0.158483,0.000000
0.814692,-0.056320,-0.760918,0.552049,0.281594,-0.486007,-0.213879,-0.853450,0.887936,0.140340,-0.997559,0.136124,-0.644704,0.144898,-0.132652,0.141721,-0.569201,0.481965,0.410260,0.304727,-0.558153,1.000000

0.150059,-0.511277,-0.967528,-0.733879,-0.923154,-0.203284,-0.452864,-0.113274,0.739433,-0.671316,-0.562304,0.311014,0.795770,-0.556505,0.331645,0.636219,0.723685,-0.010325,-0.906064,0.892392,-0.531297,0.000000
0.052392,0.073275,-0.343181,-0.666066,0.549486,0.465316,0.169103,-0.209708,0.061138,0.733573,0.256142,0.386517,0.384808,0.137303,0.433882,-0.194678,-0.886349,-0.282571,0.755730,0.162755,0.683218,0.000000
0.352641,-0.331584,-0.666189,-0.318155,0.934080,0.005106,0.151524,0.458052,0.056871,-0.680776,0.387982,-0.615467,-0.001395,-0.175451,0.299600,-0.468673,-0.076693,0.640675,-0.218970,-0.082858,0.699088,0.000000
0.929991,0.410016,0.983886,0.260659,-0.717460,0.478072,-0.103183,0.239919,-0.487289,0.047212,0.375164,0.305948,-0.265542,0.498886,0.235206,-0.101962,0.683218,-0.252113,-0.370586,-0.141453,-0.792352,0.000000
-0.734916,-0.115898,0.997681,0.827876,-0.997436,-0.406598,0.871639,-0.257973,-0.133960,0.750603,-0.165319,0.027997,0.628773,-0.858577,0.680349,-0.572069,0.453719,-0.799005,-0.556749,-0.283547,0.410871,0.000000
-0.415387,0.523362,0.044160,-0.297220,0.728385,0.211097,0.451155,-0.912717,0.472030,-0.049837,0.484420,-0.300638,-0.861446,0.595141,-0.962584,0.154393,-0.857173,0.301370,0.529099,0.208594,0.421674,0.000000
-0.927549,-0.057527,0.702445,-0.113559,0.345561,0.770501,-0.206519,-0.687307,-0.858577,-0.492782,0.574145,0.271401,0.546007,0.956420,0.543992,-0.591479,-0.380963,0.268654,0.875729,0.197729,-0.894833,0.000000
-0.993103,-0.890744,-0.850398,0.295755,-0.245827,-0.056185,-0.254616,-0.605457,0.215491,-0.886105,-0.183508,0.501083,0.969115,0.106906,0.325114,0.200232,-0.078341,0.619190,0.464095,-0.155065,-0.824702,0.000000
-0.202713,0.037938,0.095798,-0.970153,-0.182836,0.602832,0.287881,-0.751335,-0.902646,-0.774957,-0.328715,0.880306,0.395306,-0.251808,0.976928,0.599353,0.733451,-0.362590,0.493210,-0.973083,0.797418,0.000000
-0.719779,0.856258,0.732963,-0.587023,0.553514,0.888913,-0.539109,-0.734733,-0.912046,-0.196081,0.012933,0.821894,-0.865230,-0.841731,-0.656484,0.769768,-0.599719,0.892148,0.987182,-0.793695,0.850826,0.000000
-0.637806,-0.093295,0.377606,0.091769,-0.807489,-0.158116,0.554979,-0.155431,-0.637684,-0.787774,0.318644,-0.093356,-0.451765,0.089084,-0.645436,0.084140,0.310831,-0.355754,-0.130345,0.202124,-0.319254,0.000000
0.245643,0.285440,-0.174841,0.816218,0.859554,0.747490,-0.610645,-0.879086,0.334697,0.907102,-0.726005,0.481490,0.352702,0.324076,0.757012,-0.122227,-0.807489,0.505844,0.804010,-0.516709,-0.025949,0.000000
-0.959960,-0.567064,0.188513,0.625538,-0.277749,0.142430,-0.332072,0.545335,-0.571032,0.999817,0.198218,0.596728,0.984069,0.004511,0.937559,0.644704,-0.332560,-0.434187,0.231117,-0.776666,0.488998,0.000000
0.816523,-0.482894,0.428694,-0.544053,0.694388,0.406476,0.091159,0.624256,0.919797,-0.619251,0.815485,-0.249611,-0.580187,0.400861,0.149937,0.825556,0.002945,-0.545152,-0.667348,-0.916807,0.537950,0.000000
0.526658,0.550462,0.372967,0.571032,0.643056,0.915097,-0.768731,-0.005136,0.703482,0.688955,-0.488021,-0.264260,-0.268838,0.107211,-0.500595,-0.936033,-0.644093,-0.427778,0.659108,-0.229225,-0.724845,0.000000
0.734123,0.994446,-0.419843,0.261391,0.564440,0.545091,-0.977966,0.075127,-0.147130,-0.875057,0.624195,0.607288,-0.884213,-0.322855,0.743767,0.328654,0.299783,-0.106967,-0.554369,-0.613697,0.398236,0.000000
-0.270058,-0.173376,0.735893,-0.479843,-0.588733,0.014802,-0.305094,-0.766106,0.097705,0.593982,0.142491,-0.991089,-0.518601,-0.210364,-0.626453,0.625050,-0.784112,-0.167455,-0.188635,-0.933592,0.062716,0.000000
-0.008242,-0.549974,0.244117,-0.555467,0.298074,0.044771,-0.495102,0.655507,-0.297891,-0.719718,0.643056,-0.741874,-0.600940,-0.684194,0.671987,0.374004,-0.046419,-0.454695,0.470931,0.761162,-0.145909,0.000000
0.143712,-0.617542,-0.129490,-0.501938,0.573290,-0.918577,-0.302103,-0.605640,0.621693,0.666982,0.114475,-0.360881,-0.116855,-0.846675,-0.615955,-0.514512,0.093905,0.101108,0.424116,-0.474288,-0.532151,0.000000
-0.183935,0.687735,0.306742,0.071383,0.287759,0.258583,-0.075655,0.038525,-0.583972,0.993286,-0.638234,-0.363506,0.878903,-0.627857,-0.086764,-0.741508,-0.821345,-0.512558,0.162389,0.524644,0.634632,0.000000
0.594531,-0.067660,0.746086,0.507920,0.484054,-0.135044,0.804315,0.920286,-0.885067,-0.914243,-0.108310,-0.355510,0.070589,-0.417035,-0.132420,-0.931211,0.710807,0.759941,0.973388,0.133396,-0.804559,0.000000
-0.663869,0.314005,0.100986,0.653554,-0.005180,0.635304,0.560289,0.668142,0.548326,-0.996765,0.716300,0.357524,0.391339,-0.835505,-0.235389,-0.106800,0.843989,-0.130345,-0.995422,-0.959349,0.075009,1.000000

0.100620,-0.114231,0.343120,0.731498,0.762139,-0.716788,-0.826044,0.220191,0.296670,0.948180,-0.298379,-0.602771,-0.246132,-0.473617,0.228187,-0.277444,-0.711966,0.282083,-0.483993,-0.838801,0.681753,0.000000
-0.007991,0.501083,-0.319681,0.931272,-0.939573,0.530747,0.397259,0.108799,0.704031,0.622608,0.636464,0.535020,-0.577441,0.050081,-0.235267,0.666067,-0.348308,-0.518662,-0.981445,0.692679,0.192236,0.000000
0.825617,-0.967650,0.995056,0.851558,-0.763604,-0.387127,0.614063,-0.651051,-0.412519,0.663381,-0.921079,0.409223,-0.565539,0.730766,-0.531724,0.155980,0.775628,0.427534,-0.497238,-0.240883,0.762627,0.000000
-0.336406,-0.135655,0.012550,-0.957396,-0.735893,0.106296,-0.349712,0.577563,0.295145,-0.781121,0.763481,-0.252602,0.925718,0.459822,0.576952,-0.295389,-0.752983,0.139866,-0.360027,-0.286843,-0.860469,0.000000
-0.451765,0.418134,0.253700,-0.919126,-0.791681,-0.234962,0.441877,0.043306,0.073275,0.908567,-0.585070,-0.619678,-0.872005,-0.619923,0.115574,-0.935545,-0.158605,-0.197790,-0.237098,0.983642,0.564013,0.000000
0.458846,-0.373882,0.113132,0.728141,-0.789178,-0.703360,0.486435,-0.805475,0.109287,0.602100,-0.878536,0.948302,-0.277566,-0.966124,-0.661061,-0.217139,0.417951,0.060640,0.879452,0.995972,-0.833125,0.000000
-0.248878,0.338298,0.394696,0.710440,0.946837,0.403851,-0.265358,-0.913266,-0.329569,-0.259194,-0.310343,-0.383160,-0.353557,-0.383404,-0.146947,-0.212500,-0.547960,-0.381695,0.807489,0.823115,0.103244,0.000000
-0.350871,-0.639515,0.144993,0.361858,-0.238746,-0.700491,0.925535,0.398480,-0.361614,-0.853694,-0.091159,0.176244,-0.181738,-0.128025,-0.348735,0.633229,-0.469955,0.738762,0.990539,0.744621,-0.063143,0.000000
0.090121,-0.683157,-0.415387,0.502609,0.492355,0.991089,0.302896,-0.580859,-0.197424,-0.974120,-0.481613,-0.245094,-0.724723,0.188269,-0.445479,0.500778,0.340007,0.620838,0.140294,0.785699,0.874569,0.000000
0.981933,-0.118442,0.767388,0.126560,0.052339,0.690237,-0.949583,0.727287,0.038484,0.414106,0.774590,-0.608081,0.575549,-0.285989,0.992981,-0.266274,0.023530,0.372234,-0.207556,0.201941,0.647023,0.000000
0.802240,-0.622303,0.994507,0.122837,-0.716727,0.543809,-0.019684,0.980285,-0.652394,0.222388,-0.905454,-0.068697,-0.105747,-0.451949,-0.893124,0.378582,-0.102206,0.541368,-0.063021,-0.533677,0.869198,0.000000
-0.564379,0.844966,-0.853328,-0.491012,-0.655385,-0.687674,-0.761711,0.824824,-0.236854,0.718070,-0.159276,-0.746269,0.579638,0.306864,0.855342,-0.138890,0.706351,-0.084445,-0.014870,-0.262246,0.696341,0.000000
-0.490768,0.997070,0.711600,0.287027,0.435896,-0.528977,-0.375103,-0.926695,-0.692862,0.952757,-0.431501,-0.411176,0.699515,-0.237709,0.205542,0.817499,0.368511,0.694021,0.046520,-0.083712,-0.603015,0.000000
-0.403790,0.616504,-0.615467,0.958922,0.722037,0.245338,0.072482,-0.796869,-0.154576,-0.366314,0.231300,-0.695914,0.510239,-0.343364,0.770135,-0.229225,-0.026765,-0.982360,-0.692801,-0.157079,0.759209,0.000000
0.723258,-0.681143,-0.034944,-0.521104,0.026887,-0.759331,0.641041,0.522385,-0.906186,0.786615,0.469100,0.113193,-0.527512,-0.176611,-0.973449,0.341533,-0.178137,0.982971,0.013928,-0.644765,-0.752495,0.000000
-0.756157,0.165380,-0.681082,0.650624,0.094333,0.092135,0.001324,-0.566393,0.636647,0.688833,0.783380,0.472335,-0.313639,0.878414,0.018875,0.644765,-0.022431,0.539048,0.944884,-0.094516,0.154393,0.000000
0.780511,0.857662,0.290506,0.924009,-0.469283,-0.350627,-0.676565,-0.892087,-0.489547,-0.945494,0.639760,0.081759,-0.110202,0.734062,-0.080050,-0.234046,0.334269,-0.267067,0.445540,-0.898495,-0.971801,0.000000
-0.535936,-0.192846,0.318094,-0.211951,0.550523,0.770745,0.346233,0.816950,-0.716117,0.274270,0.027436,-0.944700,-0.697928,0.045686,0.093539,-0.921873,0.006955,0.911069,-0.276284,-0.352092,0.493759,0.000000
0.766533,0.714774,0.282754,-0.006317,-0.231300,0.643422,-0.284158,0.626087,-0.925596,-0.938108,-0.069918,0.141758,0.324808,0.653432,-0.590075,-0.191565,0.119114,-0.942625,-0.452620,0.580676,0.225868,0.000000
0.099338,-0.781365,0.624500,0.431623,-0.512131,0.466597,-0.922666,-0.005341,0.482589,0.166051,0.215308,-0.378094,0.496261,0.666067,0.545946,0.533738,-0.683218,0.696768,-0.895627,0.139988,0.474654,0.000000
-0.519089,-0.458785,0.758110,0.608814,0.591052,0.219398,-0.771050,-0.312601,0.581896,-0.970458,-0.191137,-0.319071,0.207617,-0.270608,-0.907773,-0.141697,-0.653493,-0.817072,0.340861,-0.830683,0.899594,0.000000
0.894223,-0.473434,0.282144,0.638661,0.354228,-0.343974,-0.876766,-0.345683,0.323466,-0.820368,-0.605518,0.852168,-0.436811,0.410688,0.960814,-0.363628,0.712027,-0.407514,0.935362,-0.381451,0.590197,1.000000

-0.063814,0.894345,-0.881039,0.240761,-0.133335,-0.720084,0.209021,-0.912351,-0.658864,-0.935789,0.259377,-0.178137,0.947142,-0.157994,-0.200354,0.088839,-0.025483,-0.231910,0.354839,-0.582263,-0.185888,0.000000
0.058504,0.407575,0.890378,0.705130,-0.226417,-0.677786,-0.432966,0.737663,-0.663503,-0.965514,-0.802179,-0.011750,-0.491806,-0.154515,-0.657582,0.231910,0.192114,-0.373150,-0.175451,0.841426,0.239479,0.000000
-0.119358,-0.167028,-0.338115,-0.621326,-0.136021,0.084994,0.065218,0.397565,0.114475,0.214087,-0.649342,0.371563,0.779412,0.058992,-0.606311,-0.156651,0.827570,0.996826,-0.471908,0.811640,0.635365,0.000000
0.818598,-0.046724,0.390240,-0.346904,0.537584,0.576098,-0.940245,0.739799,0.272683,-0.991577,0.099765,-0.617969,0.293008,-0.492477,0.219642,0.350688,-0.347026,0.965392,-0.995666,-0.702200,0.434614,0.000000
0.876400,0.526719,0.177099,-0.540819,-0.451277,-0.580126,0.990906,-0.707144,0.969726,-0.187597,0.893063,0.446577,0.199316,-0.387432,0.746940,-0.587817,0.191565,-0.926389,-0.959838,0.288369,-0.932554,0.000000
0.833369,0.631336,0.599170,0.609180,0.820856,0.971557,0.307352,-0.743522,0.421125,0.279763,0.402264,0.233985,0.852473,0.792108,-0.683035,-0.348186,0.901608,0.959655,-0.138035,0.050264,-0.896420,0.000000
-0.663930,-0.040986,-0.109470,-0.913877,0.883480,-0.034883,0.465316,0.410260,-0.733634,-0.081088,0.175085,-0.876949,-0.364910,-0.770501,0.650319,0.136082,0.683828,0.910581,0.639393,-0.679006,0.111911,0.000000
-0.586962,0.702689,-0.372234,-0.020966,-0.328837,-0.653554,0.360149,-0.924436,0.650319,-0.158483,-0.948363,-0.881405,0.486007,-0.390606,0.022614,-0.353008,-0.068758,0.507370,-0.511887,0.569018,-0.026154,0.000000
-0.691580,0.337260,0.728874,-0.984741,-0.455733,-0.806879,0.498276,-0.082492,-0.816157,0.661672,-0.453352,-0.107395,-0.937437,-0.467208,-0.719657,-0.496323,0.413495,-0.460860,-0.328654,0.455672,0.015717,0.000000
-0.402264,0.699332,0.044832,-0.297830,0.726737,-0.550951,0.829707,0.224708,-0.805658,0.112217,0.557909,0.041536,0.768242,-0.845332,-0.090854,-0.075594,-0.727531,-0.535447,-0.884091,0.469466,-0.856990,0.000000
0.739860,0.228675,0.566698,0.433332,-0.757866,0.987976,-0.043245,-0.236061,0.328104,0.003388,-0.574816,0.922971,-0.124973,-0.630726,0.237831,0.212256,-0.160009,0.163793,-0.748527,0.710624,0.595080,0.000000
0.473800,-0.445174,-0.389264,0.328532,-0.895810,-0.631459,0.136082,-0.116123,0.434431,0.674917,-0.048982,-0.929380,-0.707327,0.714042,-0.655873,-0.868709,-0.480575,-0.974670,-0.919431,0.228309,0.959105,0.000000
-0.779717,-0.448592,-0.406171,-0.014802,-0.497421,0.483932,0.141942,-0.049104,-0.415632,-0.594226,-0.502915,0.922788,-0.402264,0.025788,0.536119,0.728446,0.888852,-0.594409,0.955382,0.685049,-0.958556,0.000000
-0.150121,-0.516892,0.465377,-0.837031,0.724052,-0.380840,-0.183874,-0.449263,0.753777,0.636036,0.967834,-0.532090,-0.308878,-0.881832,0.063265,0.767815,0.896115,0.841792,0.036653,0.084872,0.265664,0.000000
0.211829,-0.616321,-0.112461,-0.338054,-0.300394,0.010834,0.748222,-0.894589,-0.691214,0.698904,0.790460,-0.433882,-0.662343,0.561571,-0.734794,-0.523118,-0.488510,-0.612171,-0.700186,-0.823969,0.193579,0.000000
0.798456,-0.784967,-0.986267,-0.358745,0.184240,0.720023,-0.002716,-0.891903,0.691580,0.182165,-0.066378,0.955992,0.761284,-0.341411,0.030488,-0.090121,-0.196448,0.431196,-0.883114,0.228553,0.564562,0.000000
-0.252968,0.261391,-0.051729,-0.445296,-0.497116,0.110874,-0.613269,0.911252,0.687613,0.919065,-0.275124,0.076205,-0.029756,0.319437,0.456648,0.803888,-0.637074,0.520981,0.462020,0.498215,-0.880734,0.000000
0.599536,-0.917966,-0.268777,0.419477,-0.790887,0.870357,0.991089,-0.366314,-0.597461,-0.458480,0.527573,0.818232,-0.804071,0.781182,0.507370,0.921201,-0.173559,-0.201697,0.189306,-0.808039,-0.943236,0.000000
0.477645,0.998108,-0.956298,0.532456,0.165502,0.334025,0.312357,-0.625233,0.740898,0.993957,-0.926450,-0.630970,0.084994,0.163732,0.881954,-0.962340,0.666128,0.708304,0.265969,0.250099,-0.374249,0.000000
-0.054415,0.345073,0.859798,-0.495468,0.886410,0.102390,0.589038,0.514695,0.497909,0.219153,-0.876827,-0.869076,-0.652577,0.410932,-0.365825,-0.315714,-0.509140,0.606555,-0.377483,-0.285012,0.214881,0.000000
0.007151,-0.669423,-0.061006,-0.642506,-0.492538,-0.838435,0.106540,0.738823,0.246132,0.170446,-0.738090,-0.633595,-0.111911,-0.610096,0.381390,0.552110,-0.117161,-0.536607,-0.293985,0.229835,0.237770,0.000000
0.109348,-0.640309,0.754631,0.384197,-0.368267,-0.637501,0.303629,-0.064974,-0.061434,-0.686453,0.931272,-0.197241,-0.066744,-0.424726,0.232276,-0.861812,0.415693,0.928587,-0.743156,0.475143,-0.237770,1.000000

0.468612,-0.191870,0.606006,-0.501205,0.976928,-0.434797,-0.862239,-0.689566,-0.468612,0.386029,-0.006439,0.456282,0.372845,-0.304483,-0.048433,-0.695853,-0.645497,0.232276,-0.366558,-0.702628,0.215674,0.000000
0.661367,-0.970397,-0.496445,0.393597,0.243507,0.341716,-0.855342,0.279763,-0.235511,-0.602771,0.184484,0.422468,-0.099521,0.882565,0.311075,0.303995,-0.259865,0.792779,0.933409,-0.569750,-0.036042,0.000000
0.756706,0.004913,-0.177526,0.491806,-0.787591,-0.594958,0.337932,-0.419233,0.869564,0.020234,0.796136,0.373089,-0.496017,0.908872,0.062532,0.664113,-0.095126,-0.547166,0.089999,0.428022,0.335063,0.000000
0.281167,0.936277,0.239723,0.079318,-0.263100,-0.530747,0.932066,0.436934,0.785272,-0.729667,-0.370525,0.515732,0.684011,-0.187231,-0.053621,0.203284,0.901852,0.849483,-0.514634,0.100253,-0.263894,0.000000
-0.216712,0.241310,0.638844,-0.018036,-0.342204,0.215796,0.181616,0.434065,0.414777,0.896176,-0.540819,0.478500,0.523423,-0.082980,0.996033,0.632496,0.069247,0.324625,-0.399029,-0.476180,0.902829,0.000000
-0.470687,0.016449,0.171606,0.343730,-0.952025,0.052034,-0.323710,-0.782342,-0.812067,0.690054,0.975829,-0.703848,-0.184729,0.862301,0.395184,0.488693,-0.803461,0.516404,0.656362,-0.377300,-0.446150,0.000000
-0.904599,0.658254,-0.665029,-0.146947,-0.488449,0.635304,-0.554552,0.126499,-0.492599,-0.105014,0.423810,0.091281,-0.335551,0.134373,-0.400739,-0.363689,-0.387493,0.252663,-0.638966,0.145970,-0.634693,0.000000
0.300211,0.716971,-0.296854,0.130161,0.940062,0.651967,0.427717,-0.134129,0.760186,-0.281533,0.042085,0.862789,-0.523362,-0.650746,-0.355632,0.602527,0.911313,0.619861,0.403119,-0.669423,0.983764,0.000000
-0.969359,-0.068880,0.593127,0.116855,-0.968139,0.176672,0.462447,-0.485031,0.984741,-0.661794,0.431990,-0.626087,-0.642018,-0.452437,-0.050203,-0.196570,0.553758,0.257912,0.502487,0.871700,0.930113,0.000000
0.643605,-0.910520,0.231910,-0.997620,0.119724,-0.743767,0.862239,0.171789,-0.486007,-0.007599,-0.867367,-0.524338,0.567797,-0.386151,0.472213,0.920652,0.473861,-0.278115,-0.555162,-0.111789,-0.193823,0.000000
0.875118,-0.703482,0.513596,0.909421,0.280496,0.922422,0.806146,-0.229347,-0.136631,0.137181,-0.393658,0.927854,0.954344,-0.139683,-0.693106,-0.646474,0.779595,-0.594897,-0.854610,0.144993,0.672109,0.000000
0.519700,0.374065,0.702445,-0.804376,-0.018220,0.610523,0.578845,0.120884,-0.634327,0.438765,0.898373,0.310160,-0.984191,-0.501083,0.443892,-0.131382,0.839290,-0.500351,0.713553,-0.221473,-0.327006,0.000000
0.919431,0.810114,0.150426,0.220557,-0.040925,0.282449,0.344829,-0.933775,-0.879818,-0.846553,0.561754,0.914792,0.361919,-0.692495,0.569445,0.380596,-0.794916,0.673391,0.241066,-0.303140,0.630909,0.000000
-0.331950,-0.797479,-0.585925,0.778985,0.888180,-0.330058,-0.897763,0.932737,0.332987,-0.330668,0.917600,-0.057344,-0.851375,-0.866756,-0.796625,-0.824213,-0.954161,-0.888485,-0.761040,0.394330,0.604724,0.000000
0.733818,-0.194250,0.846065,-0.647877,0.204566,-0.539354,-0.259255,0.154088,0.483688,0.586230,0.920408,0.044160,-0.937254,0.627125,0.409467,-0.712027,-0.010712,-0.074129,-0.325175,-0.783074,0.952452,0.000000
-0.864376,-0.991333,-0.256142,0.445051,0.885006,-0.260170,0.861568,0.241493,0.011078,0.109043,-0.624439,0.054170,-0.749687,0.055635,0.048738,-0.015595,0.921323,0.075655,0.565966,0.186743,-0.332926,0.000000
-0.469832,0.298624,-0.117283,-0.944029,-0.866573,0.416181,0.084933,-0.916990,0.450362,0.719291,0.594653,0.470199,-0.361064,0.569994,0.615467,0.217566,0.360759,-0.090609,0.834895,-0.583483,-0.446272,0.000000
-0.646352,0.923032,0.729972,-0.427046,-0.017548,-0.557787,0.574145,-0.828242,0.188574,0.354961,0.257057,0.715079,0.395856,0.036592,-0.309061,-0.711905,-0.231605,0.374187,-0.413068,0.953124,0.890744,0.000000
0.439070,0.996033,0.114414,-0.083224,0.260292,-0.590930,-0.122532,0.291177,0.445418,-0.960021,-0.908750,0.008271,-0.972167,-0.619678,-0.550890,-0.445845,0.069613,-0.364299,0.496872,0.734794,-0.377850,0.000000
-0.216041,-0.347880,0.029023,-0.631947,-0.872738,0.743461,0.907773,0.099399,0.340983,-0.765007,0.783074,-0.475326,-0.589160,0.800775,0.286294,0.958739,-0.513169,-0.777581,-0.259682,-0.992615,-0.999512,0.000000
0.140355,-0.083041,-0.458541,0.064608,-0.099582,0.925047,0.237342,0.205603,0.412824,-0.179418,-0.853145,-0.651173,-0.537461,-0.863765,-0.756645,-0.770135,-0.408307,-0.668203,0.674978,-0.039705,-0.252052,0.000000
0.315165,0.847591,-0.144505,0.326640,-0.968200,-0.843013,0.263649,-0.796258,0.651235,-0.210425,0.670583,0.071322,0.591479,0.483200,-0.444929,0.683828,-0.750359,0.444685,-0.878903,0.917356,-0.943724,1.000000

0.402142,-0.584277,0.105014,0.776299,0.510361,-0.113865,0.354167,0.602832,0.499374,-0.856136,0.500961,-0.783074,-0.152989,0.043489,-0.437056,-0.534959,0.866512,-0.680593,0.561022,-0.727287,-0.145482,0.000000
0.486129,-0.051790,0.274270,-0.384564,-0.015778,-0.487350,-0.925169,-0.257912,0.827570,0.403790,-0.599475,0.956236,0.855892,0.894162,-0.903073,-0.820185,0.653188,0.865963,-0.749809,0.347087,0.102573,0.000000
0.004242,-0.033479,0.242286,-0.957762,-0.559923,-0.692862,-0.780084,0.429792,-0.872555,0.851619,-0.781732,-0.546373,0.727042,-0.725761,0.005097,0.964782,-0.083651,0.670949,-0.123325,0.028046,0.725822,0.000000
-0.419965,-0.924986,-0.820429,-0.357158,-0.713248,0.068636,0.037874,0.420148,-0.372967,0.149266,-0.703726,-0.157750,0.079501,0.816950,-0.262490,-0.494919,-0.677480,0.558214,-0.191565,-0.387799,0.225868,0.000000
-0.859188,-0.773186,0.037874,0.056673,0.563524,-0.151830,0.300089,0.178747,-0.828181,-0.636830,0.225135,0.954405,-0.853328,0.701285,-0.792474,-0.849300,-0.679373,0.082247,-0.101169,-0.038301,0.201331,0.000000
0.557543,0.436323,0.869137,0.593005,0.903134,-0.179785,0.939024,-0.955199,0.683340,0.309671,-0.320414,0.021454,-0.496323,0.827143,-0.318949,0.557604,0.265114,-0.325907,-0.987732,-0.342937,0.093234,0.000000
0.118992,0.523240,-0.093478,-0.623951,0.514634,0.463546,-0.974181,-0.972411,0.882199,0.977905,0.404828,0.898129,-0.040620,0.166356,-0.047456,-0.124668,0.848506,0.241615,-0.607898,-0.809931,0.227210,0.000000
0.674673,-0.013764,-0.046297,-0.325724,-0.629871,0.381756,0.913327,-0.684500,-0.426984,-0.367351,0.528977,-0.829585,0.405988,0.836970,0.033845,0.598987,-0.851924,0.005097,0.469954,-0.818110,-0.397687,0.000000
0.263161,0.815790,0.074923,0.367534,-0.009613,-0.496750,-0.670644,0.804376,0.176122,-0.857540,-0.438887,-0.760979,-0.555345,0.243995,0.187963,-0.478439,0.200598,0.831111,-0.548997,-0.911008,-0.472396,0.000000
-0.195593,0.502731,0.699393,-0.066744,0.798883,-0.752251,-0.721305,-0.904172,-0.274514,0.834101,0.339457,0.598071,0.735160,0.316019,0.276894,-0.899045,-0.112766,-0.540513,0.265603,-0.245705,0.454268,0.000000
-0.959655,0.421918,-0.467513,0.072359,0.677236,0.475204,0.539964,-0.498825,-0.155858,0.165441,-0.886959,0.161473,0.017975,0.571032,0.121006,-0.563097,-0.799738,0.887020,0.344279,-0.504135,0.003204,0.000000
0.412641,0.203894,0.901242,0.828608,0.195898,-0.954588,0.322367,0.784417,-0.340251,0.745170,0.266335,0.545213,0.584521,-0.659169,-0.038179,-0.141942,0.426435,-0.228858,0.153294,-0.633290,0.059969,0.000000
0.077853,-0.199194,0.228980,0.991516,0.982605,0.670095,0.596240,-0.579455,-0.716788,0.908628,0.984985,-0.813288,-0.993835,0.582263,0.201514,-0.646352,-0.600269,-0.694876,0.754509,0.544908,-0.292459,0.000000
-0.330973,0.496994,-0.170507,0.351299,-0.816584,0.511826,0.953185,-0.895566,-0.553148,0.838374,-0.507981,-0.160253,0.278664,0.739494,-0.449263,0.452132,-0.917722,0.083834,-0.623402,-0.593066,0.525193,0.000000
0.337138,0.001377,-0.380718,0.295694,0.131382,-0.325602,-0.779229,-0.874020,0.118137,0.404889,-0.612781,-0.720267,-0.855708,0.021210,0.234718,-0.185705,-0.445967,0.784722,-0.299112,0.325541,0.149815,0.000000
-0.598621,-0.451704,-0.552721,0.683401,-0.064119,0.618580,0.780633,-0.710074,0.823847,0.789178,0.236549,0.367168,0.610462,-0.276772,0.177892,0.515976,0.599109,-0.964538,0.752800,-0.027802,-0.031648,0.000000
-0.177709,-0.789727,0.456038,0.981933,-0.322184,0.005097,0.879086,0.767632,0.930357,-0.069002,0.731376,-0.930723,0.686209,0.552904,0.791803,0.763970,0.027558,-0.168493,0.732963,0.073641,0.660939,0.000000
0.260109,0.866146,0.697073,0.329264,0.683828,-0.355571,-0.348857,-0.539476,-0.205298,-0.016266,-0.823908,-0.489914,0.047212,-0.474715,-0.666128,-0.192358,-0.781915,-0.027009,0.754936,0.898190,0.461653,0.000000
-0.780755,0.323954,0.937376,0.674856,0.875790,0.961913,0.928587,-0.098666,-0.913877,-0.696219,-0.118686,0.225013,-0.832942,-0.581896,0.414533,-0.226356,0.717399,-0.564745,-0.308817,-0.720450,-0.545518,0.000000
0.402142,0.622852,0.032075,0.126499,-0.045503,0.407575,0.927488,0.327799,0.248451,0.169469,-0.834101,-0.067904,-0.704520,0.726554,0.476852,0.204627,-0.490280,-0.038728,0.206885,-0.153417,0.199927,0.000000
-0.961669,0.863948,0.182958,0.351848,0.902219,0.562731,0.600635,0.879147,0.580432,0.312601,-0.444136,0.363689,0.155919,0.589404,-0.897275,0.064363,0.753655,0.925047,0.693167,-0.817499,-0.935789,0.000000
0.476852,0.261269,-0.220008,0.797174,-0.935057,-0.439070,0.082064,-0.498459,0.341838,-0.990661,-0.678457,0.085238,-0.292398,0.389752,-0.390362,-0.392193,0.685659,-0.432417,0.114231,0.551073,-0.647755,1.000000

0.292398
0.866634
-0.381146
-0.262551
-0.144017
0.275674
-0.903867
0.180273
-0.061495
-0.310282
0.185583
-0.031709
0.253517
-0.835505
0.130711
0.137059
0.394757
0.818171
0.879574
0.937559
0.324870
-0.385052
