-0.409406,0.795769,-0.101431,-0.431257,0.830866,-0.573046,-0.257912,-0.555773,0.576464,0.261922,-0.296799,-0.979860,0.928233,-0.441380,-0.881524,-0.175443,0.878353,-0.574450,-0.287564,-0.736395,0.115961,0.000000
-0.046052,-0.486996,-0.629861,-0.658071,0.779351,-0.935789,-0.266213,0.269507,-0.154584,-0.951663,-0.971007,0.948483,0.217666,0.121455,0.238404,0.849422,-0.464152,0.637074,0.430659,-0.941541,0.600513,0.000000
0.748711,-0.461287,0.788934,0.947508,-0.935667,0.542344,-0.930052,0.120151,0.636769,0.364849,-0.046907,0.730399,0.167943,0.748833,-0.486129,0.202124,0.886654,0.594409,-0.180395,-0.637135,0.790277,0.000000
-0.841426,-0.583972,0.246071,0.483627,0.546983,-0.543504,0.122593,0.248085,0.478927,0.938169,0.252968,-0.125156,-0.847102,-0.499863,-0.660329,-0.415693,0.437544,0.559313,-0.639149,0.636158,-0.854976,0.000000
-0.797648,-0.553326,0.110710,0.432619,-0.110141,0.114916,-0.201112,-0.160116,-0.735493,-0.014074,-0.201776,0.386681,-0.166874,-0.386464,-0.754071,-0.041700,-0.736495,0.306680,-0.392192,-0.521399,0.754837,0.000000
-0.713553,0.692312,0.823359,-0.938231,-0.984863,0.612781,-0.760430,-0.967040,0.033051,0.412763,-0.232765,-0.334086,-0.389386,0.454268,-0.537034,-0.196692,0.549791,-0.402509,-0.635792,0.141392,0.644826,0.000000
-0.713981,0.749687,0.045198,0.290078,-0.542772,0.704031,-0.350139,0.728263,-0.959838,-0.468123,-0.944762,0.204688,-0.002838,0.733207,-0.010224,0.902646,-0.054231,0.562853,0.489792,-0.306192,-0.223426,0.000000
0.835994,0.775381,0.461318,0.625416,-0.163072,-0.336772,0.798028,-0.720756,-0.986023,0.644696,-0.422354,-0.002932,-0.839884,-0.537827,0.919619,0.096727,-0.648183,0.843012,-0.730519,0.079816,0.097592,0.000000
-0.382550,0.689564,0.998670,0.471847,-0.686819,0.077853,-0.597034,-0.465197,0.496625,0.293232,0.193685,0.119206,0.749580,-0.618579,-0.901420,0.669851,-0.946654,0.684255,-0.883540,0.329780,0.343922,0.000000
-0.252358,0.218543,0.938658,0.636341,0.838069,0.983581,0.880367,-0.416059,-0.332255,0.194433,0.767754,-0.921995,-0.391461,-0.106418,-0.840754,0.588855,-0.916745,-0.514756,0.051241,0.741508,-0.098117,0.000000
0.627674,-0.918210,0.734855,-0.750725,0.003386,0.738701,-0.749870,0.363323,0.804254,-0.472762,-0.135655,-0.243568,0.563036,0.780694,-0.324686,0.603320,-0.090426,-0.002475,-0.282266,0.865047,-0.437239,0.000000
-0.906735,-0.652943,0.680410,0.437788,-0.514267,0.293741,0.698660,0.122898,-0.075472,0.688467,0.863094,-0.533921,0.865780,0.148656,-0.440535,0.185705,0.724601,-0.953978,0.613453,0.890561,0.898923,0.000000
0.628407,-0.632502,-0.706618,-0.249855,0.508957,-0.544542,0.787896,0.917661,0.535813,-0.079941,-0.234083,0.874682,0.176944,-0.942440,0.031167,0.740165,-0.727775,-0.848568,-0.682357,-0.789652,0.964294,0.000000
-0.520005,-0.288186,-0.251198,0.299661,0.813044,0.625599,-0.108860,0.214454,-0.898984,0.496323,0.066256,0.719047,-0.567553,0.990478,-0.018891,-0.363872,-0.971068,-0.938231,0.799738,-0.693533,0.456099,1.000000

0.009161
-0.540707
0.798344
-0.021525
-0.349393
0.077412
0.137059
-0.330466
-0.320179
-0.661659
-0.424221
-0.552469
0.841732
0.470311
0.596760
0.300034
0.356501
-0.452780
0.524572
-0.882860
0.460652
0.718131
