0.586256,0.739658,0.697565,0.710712,-0.450041,-0.696341,0.071092,-0.414011,-0.144411,-0.962937,-0.723183,-0.698176,-0.507051,0.182726,0.282656,0.307304,0.654672,-0.090491,0.160106,0.161972,-0.147396,0.000000
-0.075721,-0.766369,0.780636,-0.750696,0.353267,-0.906064,0.140182,0.728735,-0.660203,0.956799,0.268468,-0.087103,0.093463,0.836892,-0.930990,-0.178787,0.466630,-0.782680,0.380521,-0.608753,0.602960,0.000000
0.181249,0.451155,0.257424,-0.385052,0.677847,-0.981506,-0.892026,0.289834,-0.998291,0.295267,0.100803,0.423261,-0.014740,0.011079,0.112705,-0.144993,0.782281,0.738884,0.463118,0.920286,-0.077303,0.000000
0.178869,0.257851,-0.629078,0.146641,0.113315,-0.302835,-0.068453,0.493698,0.314921,-0.892697,0.966979,0.997497,0.904111,-0.021208,0.088961,-0.556749,0.286660,0.522752,0.831294,-0.619495,-0.010288,0.000000
0.087105,0.742683,0.197355,-0.029930,-0.244977,0.290557,-0.425253,0.639640,0.610287,0.796455,-0.105179,0.586970,0.383279,-0.045666,-0.128791,0.415902,0.320977,-0.948182,0.303001,-0.229091,0.439761,0.000000
0.632130,-0.633961,-0.470016,0.524094,0.559008,-0.313517,-0.146390,0.531236,-0.872555,0.274941,-0.570421,0.283303,0.530320,0.778680,-0.877255,-0.667104,0.028967,-0.166662,-0.402997,-0.392010,-0.522996,0.000000
0.345500,0.071139,-0.498703,-0.616260,-0.534959,-0.170873,0.726676,0.743828,-0.820368,-0.136570,-0.398602,0.242409,0.246742,0.880795,0.992065,-0.004913,0.467940,0.872249,0.617725,-0.758354,0.118809,0.000000
-0.312964,0.803923,0.464321,0.455597,0.276485,-0.166966,-0.026686,0.816627,-0.228517,-0.957938,0.564264,0.892273,-0.108383,-0.634032,-0.744525,0.015440,0.474385,-0.864534,-0.243718,-0.603687,-0.814631,0.000000
-0.979653,0.560083,0.576158,0.990081,-0.536662,-0.818659,-0.825020,0.825051,0.367927,-0.514867,-0.314987,0.376401,0.597602,-0.495953,0.201772,0.605576,0.914202,-0.670313,0.994933,-0.907529,0.843930,0.000000
-0.465377,0.930418,-0.658132,-0.969298,-0.590808,0.090365,0.131626,0.043916,0.615223,-0.216102,-0.038790,-0.420392,0.491073,-0.593982,-0.899289,-0.129856,-0.068331,-0.577441,0.545030,0.542344,0.787652,0.000000
-0.316874,-0.605274,0.427778,0.295267,0.942076,0.398541,0.418806,-0.119664,-0.691824,0.308023,0.216040,0.134313,0.977844,0.460983,-0.654408,-0.990966,-0.273476,-0.766167,-0.591174,0.522080,0.714042,0.000000
-0.535813,0.803095,-0.038118,0.383282,-0.436506,-0.324015,0.556932,-0.784722,-0.714286,0.563768,-0.794977,-0.419233,-0.590747,0.882260,0.320475,-0.321024,-0.775628,0.182226,-0.658864,0.762078,-0.880734,0.000000
0.541824,0.594650,-0.837173,-0.651647,-0.954202,0.315043,0.728679,-0.292039,-0.902794,-0.954462,0.968753,0.096648,0.259152,0.250422,-0.335210,-0.247914,0.809376,-0.763386,-0.223665,-0.996460,-0.018515,0.000000
-0.256508,0.906796,0.613086,-0.855770,0.538438,0.752495,0.701102,0.646107,-0.307718,0.652089,0.511643,0.424726,0.819636,-0.917295,-0.368084,-0.742851,0.642445,0.236549,-0.637562,-0.102756,0.264077,1.000000

0.821368
0.703120
0.580331
-0.386560
-0.194165
-0.053900
-0.866822
0.263386
-1.033862
0.487165
0.517653
-0.596027
-0.713079
-0.880488
0.348886
-0.958665
-0.328250
0.454501
0.576211
-0.112386
0.934192
0.271096
