-2.345188,-1.183576,1.386592,0.833781,0.642230,0.125721,-0.707206,-0.142751,0.004994,1.282889,-0.468702,-0.107452,0.467750,-0.152098,0.595641,-0.892454,-0.746995,1.776095,-0.222744,-0.146157,1.470636,0.000000
-9.342592,-8.104557,16.838701,1.547009,4.495522,-8.187906,-0.584344,-2.963815,-0.338126,11.082786,-0.156135,-1.905788,6.207687,-1.004117,0.718844,-3.193383,-21.378662,6.384445,-15.777346,2.605392,14.103078,0.000000
-0.589068,-0.802280,-0.732649,0.078636,0.675002,0.078238,-0.697645,-0.702573,-0.617935,-0.785635,0.693003,-0.944677,-0.381677,0.612002,0.388423,-0.642495,-0.099289,-0.643323,0.302155,-0.390752,-0.232814,0.000000
0.788754,-0.175535,-0.026459,-0.696016,-1.019532,-0.225390,-0.546205,0.928960,-0.659229,-0.462488,-0.357145,1.009483,0.800632,0.715457,-0.458741,0.997236,-0.174188,0.353677,0.700215,-0.679421,-0.676051,0.000000
0.062797,0.021096,-0.050497,0.010009,-0.021277,-0.117876,0.002681,-0.042539,0.004471,-0.084057,0.001340,0.004761,-0.004500,0.001647,0.011941,-0.064682,0.040219,-0.003834,0.054411,-0.001467,-0.070208,0.000000
0.136719,-0.578554,-0.750716,-0.560940,-0.896392,-0.340910,0.582312,0.960313,-0.142598,-1.118613,-0.456772,-0.816786,-0.373292,-0.900305,-0.655295,1.108968,0.900488,0.706122,-0.497050,0.564918,-0.349367,0.000000
-0.266079,1.000743,-0.949711,0.725858,0.340662,0.025742,0.033483,0.394871,-0.689441,-0.005085,0.965249,0.071390,-0.739130,0.107238,0.145776,-0.798644,-0.023174,-0.537350,0.215412,0.693627,-0.748677,0.000000
16.443787,10.493550,-28.935251,-1.238999,-7.706989,19.942442,0.925718,4.364400,0.357967,-17.861095,-0.598899,2.946231,-8.276986,-1.083790,-2.662391,2.662537,34.635796,-11.282105,25.495914,-3.911160,-23.196861,0.000000
-6.632760,-6.143023,10.712870,2.065296,2.864682,-15.976644,0.254181,-3.460002,0.595251,8.068220,0.122825,-1.775997,4.758385,-0.738617,1.966620,-2.991725,-11.943912,5.543021,-10.309556,2.572202,9.513617,0.000000
0.289659,-1.181225,0.820403,0.733246,0.978849,-0.822792,-0.315418,-0.970298,-0.197934,-0.605929,0.149313,0.182093,0.541739,-0.057863,-0.632905,-0.190839,0.097450,0.564445,0.016336,-0.242429,-0.153946,0.000000
-0.351519,-0.755082,-0.741266,1.027027,-0.497132,-0.035145,-0.661836,0.965089,-0.479693,0.545829,-0.620225,0.275503,0.075491,0.592126,-0.061058,0.864906,1.659011,-0.010680,0.960908,-0.839411,0.174908,0.000000
0.808403,-0.176144,-0.538748,0.983901,-0.490129,-0.094433,0.318811,0.398620,0.139529,0.748430,0.519057,-0.583848,0.441099,0.378071,0.893118,-0.877563,0.804376,-0.361461,-0.799590,-0.883924,0.800028,0.000000
3.942569,1.220531,-9.585767,0.359310,0.491611,15.813113,-0.366508,-0.907911,-0.492000,-4.571802,0.452540,0.057050,-1.045436,0.878223,0.044783,-0.063174,13.873135,-1.362164,9.197465,0.383826,-6.524185,0.000000
0.030949,0.143763,0.442213,-0.214969,0.382555,0.234175,-0.873232,0.754342,0.510874,-0.313113,-0.204951,-0.753984,-0.711752,-0.851406,0.849271,-0.420762,0.456527,-0.840786,0.962682,0.640059,0.442204,1.000000

0.001004
-0.000072
0.000008
-0.000037
-0.000122
-0.002209
-0.000048
-0.000724
-0.000329
-0.001190
-0.000178
0.000301
-0.000405
0.000066
-0.000489
-0.000440
-0.000147
-0.000449
0.000459
-0.000055
0.000214
0.277631
