-0.518512,0.348269,4.911633,-0.415875,-0.217620,-0.434823,0.074449,-1.414175,-0.124518,-0.020448,-1.326889,-1.200680,8.455793,0.263855,-0.933396,0.436755,1.795853,-1.265053,0.127522,-8.608253,0.956131,0.000000
-0.227973,-3.193435,-0.790251,-0.775568,-1.014611,-0.081981,0.832954,-1.316329,-1.692234,-4.519762,-2.780017,-1.966178,-4.228000,2.331612,3.479705,2.343659,1.166800,-1.497779,3.124659,3.942154,2.521743,0.000000
0.747774,-0.470699,0.964234,0.947388,-0.942412,0.544009,-0.928504,0.113571,0.631193,0.346207,-0.054462,0.720414,0.446767,0.757293,-0.473459,0.207025,0.893620,0.586303,-0.171031,-0.932284,0.798059,0.000000
-0.840717,-0.574101,-0.183390,0.480009,0.575371,-0.543790,0.123045,0.277882,0.505203,0.920684,0.286402,-0.120793,-1.652641,-0.522319,-0.649710,-0.444835,0.405979,0.583637,-0.648466,1.491561,-0.884305,0.000000
-0.001316,-0.075450,0.024231,-0.000037,-0.032828,0.004610,0.004622,-0.027168,-0.020861,-0.108850,-0.026438,-0.081537,-476.165771,0.069602,0.101012,0.014695,0.038792,-0.053594,0.082749,543.628113,0.040306,0.000000
-0.722135,1.216925,-1.360752,-0.936546,-0.776380,0.623022,-0.815019,-0.775915,0.205027,1.154201,0.093325,0.239248,-3.734520,0.041759,-1.190816,-0.370724,0.307876,-0.008655,-1.163267,3.686836,0.262624,0.000000
-0.713523,0.789521,0.070258,0.290178,-0.527432,0.705436,-0.350837,0.741146,-0.949041,-0.409868,-0.919589,0.248701,0.085815,0.701479,-0.063080,0.891349,-0.071757,0.592896,0.450096,-0.401104,-0.252281,0.000000
0.748938,-0.316377,-13.437257,0.648081,-1.701114,-0.355666,0.838741,-2.240794,-2.395704,0.554172,-1.981597,-0.997177,-25.345755,0.807556,1.573547,1.427551,0.893032,-0.592768,0.333856,26.348320,1.555006,0.000000
-0.654753,8.003279,-2.607115,0.598930,3.534719,-0.085892,-1.620538,3.547805,4.369874,10.022475,5.508114,7.974117,1.548713,-6.831300,-9.895748,-2.916969,-5.535720,6.549736,-8.209242,-0.651479,-5.350199,0.000000
-0.254773,0.425706,1.245503,0.643504,0.959574,0.977615,0.852121,-0.298863,-0.216907,0.413037,0.918787,-0.705348,0.270833,-0.283367,-1.069124,0.486364,-1.052974,-0.346924,-0.155903,0.028087,-0.261497,0.000000
0.628979,-1.000905,-1.634663,-0.729989,0.022045,0.746356,-0.792112,0.395235,0.856694,-0.608337,-0.161397,-0.347073,-3.742135,0.840946,-0.174497,0.549202,-0.101590,-0.062452,-0.202437,5.443434,-0.387802,0.000000
-0.905147,-0.717957,1.119699,0.436720,-0.568239,0.305258,0.719768,0.072000,-0.121649,0.597199,0.801567,-0.600545,1.522981,0.211239,-0.367588,0.231329,0.781133,-1.015002,0.677570,0.197909,0.959996,0.000000
0.501654,10.441050,-23.770962,-0.112134,5.453422,-0.564729,-0.042251,5.370997,4.557676,14.920309,7.004904,12.910733,-29.565248,-9.998943,-13.685093,-3.241248,-6.320047,7.645484,-11.778532,30.594429,-7.163966,0.000000
-0.520123,-0.277315,-0.272100,0.299793,0.817976,0.625541,-0.109722,0.218906,-0.894945,0.510840,0.073438,0.730836,-0.594062,0.981544,-0.032254,-0.367878,-0.976664,-0.929826,0.788848,-0.665523,0.448054,1.000000

-0.000130
-0.000395
0.052240
0.000232
0.000405
-0.000126
-0.000084
-0.000129
0.000319
-0.000130
-0.000306
-0.000018
0.285458
-0.000077
0.000095
0.000029
-0.000402
-0.000096
-0.000317
-0.301342
0.000242
0.693905
