51.478565,-62.608734,-35.694981,-11.996851,-10.912560,-85.818367,8.875484,3.205438,-20.839645,47.440544,-26.345158,-11.432423,-44.887970,-27.562878,13.298209,-15.141912,-65.309372,-5.260951,-7.541714,30.546099,-27.738306,0.000000
50.116673,-59.970032,-34.376888,-11.818783,-10.709280,-81.501587,8.100102,1.774246,-20.463850,44.574188,-25.556076,-10.490626,-41.395523,-26.333199,12.410363,-14.175314,-60.747177,-5.805986,-7.495541,29.645323,-26.811255,0.000000
-0.224887,-1.274752,-0.935158,-0.020790,0.601560,-0.665096,-0.632084,-0.681068,-0.779484,-0.407511,0.495746,-1.035176,-0.694808,0.414124,0.495990,-0.754671,-0.654052,-0.681954,0.177714,-0.159224,-0.389882,0.000000
1.888753,-1.780371,-0.539234,-1.030457,-1.199464,-2.687587,-0.343371,0.954272,-1.163719,0.879391,-1.006857,0.717046,-0.183071,0.060068,-0.092565,0.630228,-2.167195,0.322453,0.181165,0.094697,-1.079715,0.000000
8490.611328,-10216.378906,-5750.367676,-1918.525269,-1667.763428,-14234.276367,1416.147583,127.131996,-3336.440674,7659.101074,-4092.923828,-1570.217163,-7326.009766,-4240.433594,1964.148071,-2146.431885,-10647.814453,-299.657928,-1106.354736,5001.536621,-4445.837891,0.000000
2.663771,-3.986215,-2.077482,-1.066961,-1.298647,-4.713658,1.034782,0.712812,-1.042913,1.557388,-1.699028,-1.279354,-2.720940,-2.089651,0.010065,0.368953,-3.268352,0.855649,-1.003239,2.318182,-1.386773,0.000000
0.004258,0.618799,-1.093790,0.646372,0.294694,-0.581474,0.083609,0.401645,-0.815197,0.306356,0.810246,-0.006281,-0.971188,-0.048816,0.236951,-0.894063,-0.469340,-0.559333,0.101141,0.880956,-0.857683,0.000000
34.778870,-41.007969,-22.618099,-8.285259,-7.308471,-56.147861,6.510063,0.187341,-13.334167,31.151375,-16.897936,-6.869001,-28.693853,-17.951061,8.030997,-8.631033,-42.783276,-2.583974,-3.977464,20.421774,-18.172407,0.000000
12.531414,-15.851439,-6.877923,-1.322988,-2.701409,-20.848236,2.174038,-1.991537,-3.348906,11.221906,-4.612422,0.092992,-10.284412,-6.395223,2.079549,-3.259175,-15.731363,1.113740,-0.197723,6.127424,-5.506903,0.000000
2.322304,-3.145858,-0.656969,0.223286,0.462260,-3.774232,0.000218,-0.744928,-0.951662,0.837142,-0.793637,-0.171199,-1.109835,-1.023250,-0.196485,-0.639790,-1.970260,0.186469,-0.059971,0.734410,-1.348189,0.000000
1.419907,-3.546243,-1.305392,0.601160,-0.800259,-3.399499,-0.340618,0.831440,-1.184056,2.819910,-1.545895,0.065465,-1.649093,-0.501117,0.405592,0.388171,-1.981004,0.229442,0.233627,0.365395,-0.406144,0.000000
1.504829,-1.179402,-0.935070,0.807313,-0.611672,-1.530346,0.445124,0.390686,-0.181835,1.548983,0.130124,-0.770242,-0.170363,-0.025776,1.123731,-1.116828,-0.315565,-0.370208,-1.030620,-0.383300,0.500536,0.000000
89.797600,-106.019028,-60.329533,-21.779400,-17.552980,-147.006088,14.751359,3.002772,-36.148693,80.289665,-44.148827,-18.517908,-75.659546,-45.218128,23.174078,-23.997068,-110.159492,-9.343490,-13.393241,52.901703,-46.767750,0.000000
0.116579,0.036131,0.392182,-0.237163,0.364616,0.070243,-0.858133,0.758249,0.475129,-0.227715,-0.249585,-0.772587,-0.786322,-0.897603,0.872427,-0.444799,0.331246,-0.848592,0.939304,0.692703,0.402474,1.000000

-0.520539,0.518524,0.473431,-0.224902,-0.544548,-0.209403,0.175549,-0.941310,0.797761,0.711916,0.593384,-0.661458,0.511944,-0.400768,-0.231002,-0.929608,0.579081,0.530368,-0.376569,0.969303,-0.477863,0.000000
-0.444702,-0.030050,0.677797,-0.462861,0.728697,-0.127827,0.599864,0.740804,-0.109025,0.936999,-0.609864,0.823511,0.451523,0.409802,-0.247529,0.162251,-0.068326,0.960217,0.138158,-0.463736,-0.148557,0.000000
0.814676,-0.263638,-1.000777,-0.697183,-0.539592,0.898937,0.180907,0.292492,-0.832247,-0.549863,-0.862313,0.180972,0.457627,-0.699427,-0.924860,0.763649,0.188519,-0.575474,-0.062532,-0.981449,0.724519,0.000000
0.077042,0.546877,-0.777203,0.740117,-0.499369,0.680974,-0.687590,0.416580,0.571727,0.618142,-0.224050,-0.083806,-0.742603,-0.195075,0.594779,-0.189933,0.186138,0.832894,0.515614,0.511211,-0.028986,0.000000
0.300315,0.081769,0.385665,-0.837934,0.086347,0.075060,-0.527795,-0.825650,-0.648892,0.349943,0.178611,0.286749,-0.620895,-0.849090,-0.685655,-0.350644,0.145671,0.624636,-0.624740,-0.723568,-0.827286,0.000000
-0.796351,-0.309831,0.203945,-0.114569,0.971196,0.690835,-0.206355,0.107447,0.956376,0.372755,-0.861053,0.449412,-0.476230,0.366796,-0.903269,-0.394762,0.639455,0.936720,0.446980,-0.933473,0.129436,0.000000
0.010500,0.935456,-0.534526,0.116887,-0.893923,0.380424,-1.019096,0.892342,0.544158,0.759052,-0.601760,-0.933133,0.382294,0.434559,-0.353975,-0.983394,0.338177,0.667699,0.998618,-0.954097,0.420999,0.000000
-0.207383,0.285596,-0.843971,-0.418596,-0.837478,-0.212717,-0.182969,-0.885905,0.734170,-0.126933,-0.688122,-0.453904,0.836196,-0.602532,0.580294,0.196310,-0.329807,0.748338,-0.961825,-0.281766,0.560042,0.000000
-0.031802,-0.670861,-0.692501,0.125917,0.050884,-0.475031,-0.807877,-0.446584,-0.571136,0.901826,0.285773,-0.447222,-0.285734,0.403357,-0.599976,-0.180826,-0.972228,0.287350,0.286697,0.260347,0.726258,0.000000
0.612003,-0.227648,0.278357,-0.578613,-0.147934,-0.997939,0.292315,-0.713093,-0.094289,0.269522,-0.088461,-0.216800,0.056550,0.216194,-0.331408,-0.999313,-0.472646,-0.658877,0.391765,-0.286287,0.703259,0.000000
-0.006761,-0.760597,-0.348183,-0.347563,-0.809131,0.057787,0.737746,0.967007,-0.984961,-0.639648,0.205712,0.822718,-0.802480,0.325021,-0.055446,-0.901380,-0.309605,0.263665,-0.660203,-0.198101,-0.416146,0.000000
-0.270694,0.460471,-0.393072,-0.761080,-0.477439,0.917838,-0.854324,0.244321,0.509325,0.343060,0.391725,0.454793,0.792423,0.099733,-0.998686,-0.049631,-0.521888,-0.439050,-0.864616,-0.196091,0.726870,0.000000
0.351037,0.879590,-0.295020,0.645815,0.784606,-0.196005,0.649670,-0.412059,-0.764374,0.197900,-0.120286,0.488965,-0.615097,-0.788175,-0.145048,0.752418,0.549310,-0.468901,-0.458539,-0.845886,0.287672,0.000000
0.039017,0.200120,0.291851,-0.700845,-0.532939,-0.511201,0.351687,0.848412,-0.183063,-0.097092,0.366059,0.824183,0.014680,0.105960,-0.009058,0.910077,-0.249239,0.494202,0.344769,0.063136,0.491535,0.000000
0.237984,-0.920314,0.635126,-0.461318,-0.708432,0.164476,0.355348,-0.268404,-0.385310,0.826804,-0.204041,-0.245243,0.331084,-0.916065,0.236803,-0.233005,0.732413,0.546296,0.686414,0.425953,0.659466,0.000000
-0.234916,-0.364166,0.583617,0.605957,-0.748277,-0.483123,0.632946,0.392531,0.992760,0.139976,0.668557,-0.173104,-0.144200,0.964381,0.492298,0.491118,-0.759018,-0.628332,0.104832,-0.351245,0.529078,0.000000
-1.013647,-0.912201,0.022726,0.820276,0.864809,0.374665,0.087905,-0.559263,-0.915263,0.216379,0.181519,0.840112,0.353873,-0.056617,-0.222764,0.259983,0.458478,0.457704,-0.266116,0.287631,0.741639,0.000000
0.415909,0.286173,0.225750,0.583638,-0.842447,0.892340,0.366614,-0.689798,-0.497523,0.064332,-0.606355,-0.389753,-0.813831,0.925253,-0.285522,0.608704,0.254236,-0.018058,0.559614,0.758227,0.817313,0.000000
-0.824184,-0.760768,0.566021,0.517410,-0.904288,-0.122360,-0.686840,-0.515438,-0.613862,-0.430187,0.896019,-0.191416,-0.862287,0.471047,0.660377,0.787648,0.795221,-0.807107,-0.543526,0.043545,0.822879,0.000000
0.271556,0.718164,0.831543,0.200630,-0.884097,0.773809,0.351381,0.039407,-0.512210,-0.265331,0.754910,0.108772,-0.827034,0.046608,0.909556,0.128396,-0.641286,0.583162,0.285037,0.167460,0.046107,0.000000
0.701208,0.704780,-0.740520,-0.248011,-0.325653,-0.979050,0.483344,0.808006,-0.685453,-0.240651,-0.219472,-0.260814,-0.965632,0.375072,0.221846,0.226584,0.078407,0.740484,-0.545148,-0.919253,-0.121823,0.000000
0.017118,0.230248,0.300260,0.675877,0.827904,0.873875,0.518384,-0.792505,0.230356,-0.995354,0.980014,0.424169,-0.261687,0.365732,1.027944,-0.891432,0.790880,-0.794064,-0.579653,-0.031925,-0.781204,1.000000

-0.150994,-0.710194,0.598588,0.110574,-0.996068,-0.922263,-0.221380,0.124567,0.830887,-0.399228,0.671393,0.945630,0.003449,-0.206826,0.929927,-0.467534,-0.977671,0.751070,-0.481292,0.599831,0.312430,0.000000
-0.975520,-0.101057,0.492908,0.086391,-0.327378,-0.168304,-0.634961,-0.806845,0.753861,-0.033882,0.196471,0.480738,-0.514386,-0.763312,0.229416,0.645333,0.951047,-0.389707,-0.654695,0.181166,-0.407721,0.000000
-0.530955,0.410213,0.979011,-0.109752,-0.253970,0.871322,0.164335,0.851262,0.596527,0.760032,-0.939409,0.430725,0.509309,-0.352730,0.590259,0.293876,0.732734,0.564667,-0.762407,0.736031,0.558039,0.000000
-0.222498,0.990571,-0.587534,-0.878049,-0.745604,-0.863820,-0.607805,0.787003,-0.387593,-0.836346,-0.656286,-0.937175,0.809903,0.794843,-0.149081,0.194798,-0.123372,0.866660,-0.534267,-0.365568,0.838087,0.000000
0.333825,0.570720,0.250373,0.995406,0.666088,-0.662858,0.916466,0.705362,-0.213561,-0.815142,-0.608620,0.295758,-0.568043,-0.591137,0.614911,-0.473550,0.394767,0.174154,-0.017425,0.885017,0.693312,0.000000
0.575972,0.284188,0.807503,-0.743258,0.472436,-0.570940,-0.621285,-0.888429,-0.036641,-0.720101,-0.279790,0.631065,-0.928591,0.883660,0.468600,0.688354,-0.336724,-0.568725,0.916526,-0.456591,-0.509736,0.000000
-0.970890,0.230931,0.190284,0.200115,0.775061,-0.768447,-0.234100,-0.012792,-0.892365,-0.702739,-0.115131,0.469501,0.536792,-0.754493,-0.714445,-0.079313,0.208040,-0.439623,-0.895925,0.880253,-0.010438,0.000000
0.671291,0.906986,0.834006,-0.896499,0.293645,0.184305,-0.394849,0.255860,0.300969,0.822754,-0.606476,0.639537,-0.542826,0.702026,0.016670,0.495653,-0.005787,0.119504,-0.846880,0.442716,-0.948079,0.000000
-0.740032,0.362918,0.012590,-0.656918,0.295090,-0.764466,-0.755873,0.501999,-0.995568,-0.370784,0.766975,-0.753415,0.113347,0.785167,-0.945418,-0.296159,0.121702,0.750530,-0.319168,-0.749164,-0.853643,0.000000
0.275644,-0.417327,-0.024603,0.320479,0.032188,0.237138,-0.604751,0.509008,0.536490,-0.256841,0.250762,0.439378,0.615752,-0.107690,-0.992085,-0.971128,-0.923248,-0.500532,-0.442507,0.554129,-0.935393,0.000000
0.076372,0.114212,-0.092112,-0.339578,0.459478,0.150568,-0.903959,-0.478760,0.516558,0.644797,0.068519,-0.256334,0.701078,-0.562094,0.517579,-0.046183,-0.239683,-0.394693,0.040316,-0.059856,-0.294513,0.000000
0.984008,-0.405696,0.777113,-0.365549,0.480496,0.381828,0.539844,0.812223,-0.563284,-0.918606,0.845390,0.302389,-0.336887,0.272286,-0.346784,0.252331,-0.536416,0.452556,-0.024466,-0.643736,0.435766,0.000000
-0.089623,0.083597,0.882128,0.304723,0.908261,0.462167,0.524502,0.591445,-0.687871,0.639839,0.023502,0.828275,0.078102,0.117577,0.818306,-0.191616,0.877087,0.734858,-0.170153,-0.950993,-0.185303,0.000000
-0.580491,0.412048,-0.625345,-0.181347,-0.072550,0.822258,0.763509,-0.602964,-0.882569,-0.512220,0.461880,0.777089,0.977995,0.241684,-0.066703,-0.232401,0.721734,-0.536377,0.853967,-0.916396,-0.644226,0.000000
-0.414121,-0.519299,-0.494961,-0.147107,-0.279088,0.338754,-0.994180,0.113031,0.343747,0.806567,0.978414,-0.938125,0.738857,-0.154925,0.548968,-0.944203,0.930407,-0.617082,0.207285,-0.094917,-0.408792,0.000000
0.581299,0.106874,-0.595524,-0.554224,-0.769496,-0.401783,-0.105259,-0.905106,-0.937376,-0.498821,0.960676,0.549694,0.293606,-0.964277,-0.913485,-0.422982,0.215146,-0.108129,-0.421257,0.729038,-0.630682,0.000000
-0.331823,-0.027835,0.465379,0.354705,0.803008,0.615658,-0.144749,0.050229,-0.305577,-0.449544,0.717245,-0.104585,-0.546923,0.724386,0.276370,0.194297,0.170848,0.782473,-0.042915,-0.732594,0.483518,0.000000
-0.027893,0.914749,0.883083,-0.665140,0.645503,-0.243431,0.601495,0.576499,0.393461,-0.592163,0.695352,-0.983685,0.624091,-0.718850,-0.961068,0.767263,-0.848518,0.147497,-0.200976,-0.969228,-0.727775,0.000000
0.200010,0.326717,0.251274,-0.007268,-0.096142,0.994141,-0.074948,0.415464,0.598938,-0.530058,-0.727617,-0.545191,-0.257491,-0.467691,0.378467,-0.135035,-0.183644,-0.940836,0.907907,-0.578493,-0.888273,0.000000
-0.811912,0.516826,-0.915765,0.012768,-0.788759,0.543840,-0.007789,-0.944333,-0.124737,0.704130,-0.273160,-0.165761,-0.266064,-0.418815,0.952631,0.863722,-0.386911,0.992184,0.102266,0.632661,0.046147,0.000000
0.985528,0.259995,0.281076,0.607906,0.744857,-0.589733,0.496315,0.455867,0.960716,0.738091,-0.409920,-0.683990,-0.930134,0.366013,-0.013266,-0.234656,-0.005229,-0.883183,0.664284,0.598853,-0.277366,0.000000
0.488461,-0.125466,-0.926665,-0.133104,0.514611,-0.662347,-0.519538,0.116245,0.274425,0.791105,-0.684307,0.834115,0.121013,0.118801,0.432498,0.066945,-0.836469,0.240635,0.595900,0.552882,0.606637,1.000000

-0.216552,0.027357,-0.317036,-0.863546,-0.731145,-0.612926,0.917132,0.824417,-0.889142,-0.176617,-0.325615,-0.559243,0.472817,-0.870497,0.718986,-0.796754,0.369341,0.055827,0.220142,-0.561516,0.659943,0.000000
0.102127,-0.528186,-0.911312,-0.510284,-0.567604,0.956544,0.338574,0.660182,0.921449,-0.322394,-0.213555,-0.786138,-0.814645,0.002922,0.034919,-0.153806,0.580505,0.603769,0.569917,-0.845270,0.109718,0.000000
0.357496,0.796688,-0.032007,0.963299,0.115900,-0.539025,-0.577698,0.211737,-0.833112,0.237455,0.900803,0.035188,-0.832722,0.924570,0.415159,0.354918,0.857321,0.591626,-0.598265,-0.388174,-0.787067,0.000000
-0.098514,-0.031219,-0.958474,0.012644,-0.644054,-0.914873,-0.435153,-0.390242,0.130556,0.614130,0.018174,-0.471244,0.505576,0.618330,-0.487641,0.054635,0.853211,0.494001,-0.096027,-0.870455,0.018756,0.000000
-0.430920,-0.346868,0.676233,0.230948,0.260683,-0.523160,-0.279678,0.568433,0.923627,-0.995398,-0.163290,-0.986479,0.696735,-0.108371,0.842160,0.648223,0.697509,-0.026345,0.527252,-0.176721,0.894756,0.000000
0.889774,0.074595,0.237400,-0.857692,-0.779959,-0.487907,0.046368,-0.699695,0.150217,-0.782606,0.217448,0.154757,0.271891,0.828052,-0.017595,0.674744,-0.494663,0.654738,-0.139285,-0.734032,0.441999,0.000000
0.971178,0.141803,0.080983,-0.265077,-0.096681,-0.187805,-0.407858,0.085194,0.755852,-0.216558,0.553073,0.539968,-0.277751,-0.642835,-0.812860,-0.457213,-0.779422,0.118211,0.276876,-0.495902,-0.050630,0.000000
0.458999,-0.326792,0.207935,0.910966,0.515158,0.589451,-0.551313,0.378065,-0.183910,-0.451305,-0.832948,-0.786242,-0.048101,-0.037106,0.652006,-0.001088,-0.873252,-0.442342,0.611827,0.642152,-0.096300,0.000000
0.185279,-0.303840,0.137420,0.720118,-0.329798,-0.453826,-0.809573,-0.210699,-0.192807,-0.363028,-0.697365,0.939053,-0.813673,-0.054961,-0.846645,0.740973,0.799429,-0.305246,-0.653619,0.017246,0.836864,0.000000
-0.461739,-0.661756,0.554887,-0.324988,-0.881329,0.801505,-0.796404,0.986427,-0.171642,0.653543,-0.583744,-0.260084,-0.172325,0.399765,-0.434798,-0.701845,-0.712833,-0.891776,-0.358341,-0.463227,0.096279,0.000000
-0.735240,-0.419700,0.280068,-0.516120,-0.435085,-0.241296,0.418371,-0.796140,0.317116,0.705705,-0.825104,0.808224,-0.622596,-0.502873,-0.232276,0.941692,0.786272,0.821823,0.926594,0.975789,-0.270407,0.000000
-0.598923,-0.561217,0.393441,-0.421192,0.386399,0.454244,0.685656,-0.176815,0.646184,-0.375813,-0.366084,0.042994,-0.312806,0.872965,0.286548,0.076362,-0.273533,0.527084,0.420097,0.833430,0.769747,0.000000
0.186625,0.845037,0.520374,-0.897319,0.755968,-0.584686,0.325125,-0.945043,0.893525,-0.595392,-0.054967,-0.551950,0.822500,-0.442265,0.030034,-0.557718,0.896495,-0.266339,-0.613139,-0.758869,0.314519,0.000000
-0.021963,0.479428,0.735941,0.985505,0.133991,-0.895034,0.639745,0.374843,-0.433954,0.131252,0.258069,-0.394886,-0.540201,-0.401221,-0.136926,-0.866512,-0.229947,-0.435870,0.726617,-0.431317,-0.753362,0.000000
-0.296226,0.613784,-0.683841,-0.654994,0.741090,0.210569,-0.998540,-0.482173,-0.994098,-0.056482,-0.334013,-0.041917,-0.382360,0.646246,-0.718620,-0.590556,-0.346753,-0.577641,-0.909301,0.413198,0.013292,0.000000
-0.540674,0.300812,-0.153046,-0.862050,-0.837653,-0.292287,-0.011874,-0.661978,0.232610,0.990757,-0.841286,-0.378691,-0.691446,0.639156,0.949963,-0.604407,0.369928,-0.351453,0.486738,-0.058370,-0.773611,0.000000
-0.050476,0.373157,0.573113,-0.559574,0.595184,-0.276106,0.199817,-0.542672,-0.899626,-0.128347,0.229564,-0.169994,-0.319814,0.261214,-0.850835,-0.613921,0.765290,-0.900255,-0.931959,-0.411339,-0.442067,0.000000
0.376477,-0.460057,-0.956982,-0.398060,1.003475,0.337647,0.861452,-0.621956,0.313552,-0.257903,-0.713879,0.530601,-0.638357,0.591484,-0.989686,-0.600716,-0.249570,0.762961,-0.742219,-0.311451,0.091435,0.000000
0.903158,0.533978,-0.123302,0.573445,0.267190,0.951009,-0.422117,0.724396,-0.156642,-0.162037,-0.439214,0.682920,-0.454114,-0.986186,0.829603,0.913120,-0.124357,-0.500942,-0.833531,0.050581,0.583086,0.000000
0.346268,-0.870916,-0.915855,0.298963,0.234523,-0.553232,0.219606,0.526564,0.907507,-0.236074,0.649489,-0.223194,-0.586433,-0.479157,-0.176617,0.186700,0.352966,-0.191248,0.108510,0.623315,-0.260624,0.000000
0.955922,0.443182,0.012824,-0.832182,0.193934,0.792699,0.495535,-0.904746,0.209073,0.163065,-0.121171,-0.144183,-0.657060,-0.419841,0.510628,0.478175,-0.475329,-0.712128,0.134729,0.033382,0.715225,0.000000
-0.534377,0.717733,-0.461135,-0.474109,0.192122,-0.304409,0.735224,-0.033472,-0.596232,0.762689,0.989464,0.450028,-0.333005,0.907780,-0.624752,-0.410748,-0.045612,0.749453,0.060697,-0.866869,0.486231,1.000000

-0.563927,-0.200213,0.379124,-0.529317,-0.358050,0.728237,-0.805390,0.896062,0.231663,-0.837375,0.206434,-0.766103,0.147711,-0.500429,-0.019916,0.922207,0.515166,-0.196878,-0.196036,-0.355705,0.546259,0.000000
0.847131,0.018102,0.654480,0.641312,-0.383516,0.184649,0.337157,-0.559341,0.441922,-0.806752,0.245570,0.993403,-0.473324,-0.566778,0.338755,-0.804228,-0.232991,-0.455394,-0.346458,-0.537011,-0.945566,0.000000
-0.373792,-0.331090,-0.018568,0.568501,-0.674257,-0.009700,-0.675919,0.260174,0.463155,0.994408,0.789129,0.478025,-0.648877,0.732149,-0.462794,-0.091376,0.489577,0.778179,-0.203440,0.923054,-0.359751,0.000000
-0.713183,-0.349751,-0.094303,-0.455012,-0.264571,-0.939175,0.380699,0.151839,-0.698352,-0.912999,0.362214,-0.915187,0.249706,-0.139570,-0.792502,-0.811708,-0.451034,0.185459,0.304796,-0.512427,-0.383287,0.000000
0.214141,0.255687,0.308067,0.127634,-0.446385,0.344068,0.340889,-0.709066,0.513814,-0.205321,-0.526972,-0.993299,0.669282,-0.587706,-0.868460,0.040386,-0.274692,0.212821,0.869886,0.869379,-0.710105,0.000000
-0.978102,-0.500419,-0.163565,-0.651055,0.921229,0.106770,0.475024,0.860114,-0.694846,-0.783482,-0.782671,0.360450,0.340555,0.856990,-0.720803,-0.347777,-0.937061,-0.304722,0.807097,0.635017,0.051882,0.000000
0.910440,-0.422321,0.279712,-0.750291,-0.527584,-0.300906,0.777540,-0.084460,-0.189768,-0.169799,0.063659,0.911617,0.717334,0.506448,-0.091679,0.580672,0.644734,0.603177,-0.446937,-0.792396,-0.345587,0.000000
0.074031,0.061880,-0.802815,0.513007,-0.479136,0.144624,0.513938,0.284791,0.227595,-0.133541,0.429218,0.415331,-0.103617,-0.220898,-0.640641,0.649409,0.516307,0.659991,0.518723,0.152236,0.481457,0.000000
-0.226623,0.792215,0.659938,-0.173738,0.248967,0.527980,0.139819,-0.902529,0.432172,-0.461943,0.134084,0.503795,0.965276,-0.251456,0.291788,0.476770,-0.130132,0.630473,0.042736,-0.547579,0.197026,0.000000
-0.974785,-0.041127,-0.261854,-0.439639,0.512407,-0.954292,-0.470870,0.311314,0.660641,-0.093036,-0.968947,-0.718201,0.320555,0.116787,0.714295,0.127133,-0.551707,-0.153501,0.909583,-0.246296,0.159069,0.000000
-0.524736,-0.349070,0.754288,-0.660437,0.163947,-0.999377,-0.778929,0.485385,0.769742,-0.551486,0.019399,0.359718,0.416764,0.260357,-0.469611,-0.894902,-0.834273,-0.836840,0.826428,-0.620509,0.851813,0.000000
0.771202,0.355220,0.041548,0.090765,-0.457052,0.094652,-0.465981,-0.800486,-0.870708,-0.475627,-0.080806,0.223018,-0.882819,0.883390,0.636831,-0.626814,-0.469313,0.264057,0.294866,0.577130,0.320848,0.000000
0.183131,-0.076030,0.925460,-0.516644,0.426004,0.496447,0.470146,0.301125,-0.209565,0.283675,0.942588,0.325125,0.632125,0.473140,0.250545,0.981049,0.250562,0.964375,-0.902420,0.794875,0.419559,0.000000
-0.694311,0.170605,-0.209382,-0.361620,-0.323482,-0.434989,0.954113,-0.600940,0.208600,0.787542,0.781048,0.949988,0.494487,0.472965,0.834771,-0.146683,0.534032,0.376913,-0.464347,-0.379292,0.162545,0.000000
-0.967421,-0.179580,0.450174,-0.551005,0.427548,0.587522,-0.023364,-0.531175,-0.025185,0.756573,0.403006,-0.855746,0.947632,-0.223446,-0.796623,0.287925,-0.347189,-0.000983,-0.431251,-0.893882,-0.856407,0.000000
0.071763,0.837283,0.258855,0.312277,-0.959387,0.669578,-0.573273,0.465044,-0.100360,-0.103462,-0.511797,0.819107,0.669638,0.098767,-0.494218,0.445362,-0.489383,-0.630616,0.574139,0.499333,-0.410422,0.000000
0.832818,-0.759148,-0.252048,0.395828,0.401166,0.447436,0.603177,0.989095,0.522972,-0.177463,-0.793840,0.723962,-0.372063,0.960238,-0.006282,0.802121,-0.030011,0.134477,-0.487382,0.437958,-0.970759,0.000000
0.306047,0.323067,0.624913,0.337933,0.259579,-0.407822,0.224343,0.508725,0.155207,-0.537613,-0.469317,0.260240,-0.765591,0.254655,0.400316,0.687758,0.504666,-0.522559,-0.435574,0.113222,0.544422,0.000000
-0.551575,-0.707733,0.703906,0.285503,-0.747952,0.076760,-0.302123,0.786738,-0.329886,0.927475,-0.069180,0.780049,-0.589647,-0.345520,0.407089,0.831760,0.124380,0.724438,-0.304728,0.093632,0.994907,0.000000
-0.188825,-0.510974,-0.873636,-0.890373,0.438526,-0.189491,-0.035204,0.095639,0.164335,0.477026,0.211198,0.152890,-0.417181,-0.141109,-0.782466,-0.032390,-0.303373,-0.421528,0.819288,-0.265628,0.159137,0.000000
0.930114,-0.767961,0.488993,-0.337268,-0.235896,-0.795540,0.999965,0.783012,-0.276824,-0.314040,-0.898164,-0.699971,0.896553,0.256194,-0.253501,-0.042884,0.390804,0.977755,0.649661,-0.777849,-0.389577,0.000000
-0.805695,-0.790145,-0.273779,0.907047,0.049049,-0.220553,-0.252339,0.737462,0.501184,0.447916,-0.225224,0.794644,0.685756,0.392523,-0.034740,0.453299,0.933428,0.639262,-0.503323,-0.859627,-0.049814,1.000000

0.226208,-0.588857,0.687150,0.934116,0.809400,0.902172,-0.990503,-0.357092,-0.814902,-0.958573,0.879354,-0.767066,-0.709937,-0.154052,-0.173033,-0.958340,0.917483,0.501272,-0.279597,-0.425941,0.479029,0.000000
0.678025,-0.541074,0.822815,-0.883521,0.129655,0.124200,0.867255,0.867305,-0.221166,0.884110,0.383575,-0.428361,-0.305229,-0.846430,-0.711344,0.334186,-0.348349,0.079487,-0.239112,-0.037439,0.811506,0.000000
-0.422579,-0.641556,0.170220,-0.163666,0.624857,-0.457651,0.635147,0.193013,-0.365629,0.562341,-0.386679,0.097177,0.716879,-0.211011,-0.204029,0.957491,-0.897648,-0.347288,-0.680650,-0.647925,0.105802,0.000000
0.996701,-0.121617,-0.680196,-0.313457,0.596097,0.020976,-0.801108,0.131253,0.864500,0.553664,0.981747,-0.998477,0.556449,0.512246,-0.695824,-0.159026,0.316636,-0.994981,-0.280774,-0.059860,-0.212021,0.000000
0.715050,-0.358977,-0.107639,-0.282646,0.896518,-0.594643,-0.738122,0.744937,0.664664,0.552513,-0.149756,0.531383,0.481822,0.534099,-0.395210,-0.848634,-0.589551,0.822549,-0.009456,-0.348298,-0.237417,0.000000
-0.324781,-0.566079,0.363095,-0.995316,0.541593,0.751460,0.709500,0.167542,0.147056,0.501251,0.880659,-0.847178,0.883822,0.663158,-0.562193,-0.314280,0.585882,0.408160,-0.369175,-0.158472,0.591965,0.000000
-0.684442,0.668802,0.637223,-0.367507,-0.607971,-0.659521,-0.237841,-0.524358,-0.011717,0.228863,0.209298,0.835026,0.612682,0.384343,-0.896731,0.642108,0.689858,-0.459880,-0.252536,-0.957484,-0.612736,0.000000
-0.785201,0.567815,0.962948,-0.575754,0.261666,-0.702595,0.525379,-0.359368,-0.210558,-0.912282,-0.017852,0.612189,-0.782296,-0.186184,-0.468570,-0.784130,-0.513778,0.544301,0.107709,-0.096997,-0.443329,0.000000
0.925812,0.712460,0.931328,0.563735,0.027789,0.444338,-0.869502,-0.531778,0.839470,-0.894363,-0.668756,-0.582492,-0.763681,-0.003005,0.192735,0.807235,0.761682,-0.901220,0.397233,-0.399772,-0.851318,0.000000
0.957849,-0.203961,0.028481,-0.018525,0.686863,0.382848,-0.346940,0.253344,0.043919,0.108072,0.449225,-0.232787,-0.949211,0.281838,0.711928,0.172039,-0.023614,-0.577602,-0.082064,-0.335254,-0.230704,0.000000
0.168391,-0.113254,-0.825226,-0.876935,0.651811,0.113034,-0.967112,0.308603,-0.774708,0.395112,-0.902035,-0.104163,0.885235,-0.833130,-0.331137,0.420508,0.126144,-0.505294,-0.256390,-0.961867,-0.338631,0.000000
-0.772211,0.897470,-0.899202,0.778123,0.458963,0.243958,-0.849778,0.315051,0.721928,-0.729474,-0.353034,0.550025,-0.119363,-0.431752,0.166112,-0.626271,0.531567,0.095110,-0.580854,0.103905,-0.125662,0.000000
-0.862814,-0.904809,0.154527,-0.205287,0.380350,0.993259,-0.260656,0.521830,-0.164197,-0.426977,0.005476,0.748139,-0.594412,-0.635229,0.844607,0.229070,-0.958331,-0.949509,0.990883,0.692643,-0.860793,0.000000
-0.337831,0.576514,0.725523,0.136636,0.236569,1.000216,-0.987840,0.000878,0.505636,0.463010,-0.560865,0.830206,0.274946,-0.536648,0.471470,-0.914336,0.465864,-0.713535,-0.690184,0.537406,-0.086057,0.000000
-0.203215,-0.399143,0.186299,-0.110230,-0.208358,0.196956,-0.540206,0.025238,0.991410,-0.339579,-0.969174,0.077309,-0.604670,0.242586,-0.949407,-0.445672,-0.076153,0.073209,-0.273841,0.253639,-0.003714,0.000000
-0.138595,0.039336,0.205729,0.413831,0.758184,0.027296,0.149636,-0.651174,-0.542298,-0.304848,-0.685113,0.288482,-0.335662,-0.934753,0.578919,0.121755,-0.419654,-0.232875,-0.091151,0.098730,-0.842994,0.000000
0.470177,-0.558840,0.162883,0.135056,0.963045,0.051194,0.491584,-0.157223,-0.939748,0.020342,0.073480,-0.500434,0.521141,0.958485,0.269483,0.231539,-0.147295,-0.089819,-0.579317,0.347480,0.573827,0.000000
0.610621,0.336524,-0.432113,0.167869,0.063081,-0.907806,-0.292140,-0.054813,-0.069432,0.823772,-0.398402,0.225652,0.297717,-0.332104,-0.840638,0.266184,0.297606,0.691450,0.651068,0.953644,-0.718729,0.000000
0.192893,-0.420517,0.576664,0.213288,-0.493243,0.665056,-0.120699,0.968210,-0.763208,0.888922,0.697410,0.286996,0.908083,0.961922,-0.792219,0.676982,-0.819618,-0.956607,0.795101,-0.046332,0.311231,0.000000
0.756409,-0.655231,-0.225396,-0.609339,0.199440,0.785558,-0.770703,0.775049,-0.289113,0.850011,0.091878,0.427628,-0.692090,0.054879,0.049550,0.095029,0.846721,-0.179752,0.405036,0.856914,0.636299,0.000000
0.126802,0.744865,0.762184,-0.248509,0.363097,0.101615,0.654661,-0.958126,-0.319453,0.722331,-0.301255,0.907470,0.268327,-0.888760,0.199893,0.289910,-0.949639,-0.687015,-0.132852,0.379488,-0.157450,0.000000
0.815155,-0.055748,-0.759635,0.551141,0.279882,-0.485377,-0.211079,-0.851008,0.887866,0.140709,-0.997624,0.140473,-0.644818,0.142704,-0.129719,0.142940,-0.569386,0.477375,0.409359,0.304469,-0.559244,1.000000

0.150022,-0.511274,-0.968226,-0.733749,-0.923066,-0.203506,-0.452749,-0.114480,0.739379,-0.671871,-0.562631,0.311099,0.795790,-0.556322,0.331368,0.636429,0.723423,-0.010355,-0.906301,0.892322,-0.531024,0.000000
0.053531,0.073272,-0.342647,-0.666133,0.549499,0.465463,0.169040,-0.209900,0.060174,0.733775,0.256194,0.386467,0.384809,0.137250,0.434026,-0.194728,-0.886260,-0.282768,0.755823,0.162779,0.683006,0.000000
0.352686,-0.331587,-0.665843,-0.318295,0.933818,0.005465,0.151425,0.457751,0.055454,-0.680178,0.388686,-0.615773,-0.001363,-0.175713,0.299890,-0.469054,-0.076361,0.640489,-0.218665,-0.082789,0.698802,0.000000
0.929948,0.410019,0.983052,0.260819,-0.717341,0.477797,-0.103045,0.239839,-0.487365,0.046534,0.374659,0.306078,-0.265472,0.499189,0.234858,-0.101695,0.682761,-0.251879,-0.370992,-0.141528,-0.792006,0.000000
-0.734917,-0.115636,0.998115,0.827835,-0.997375,-0.406522,0.871603,-0.258016,-0.134541,0.750924,-0.165350,0.028756,0.628926,-0.858667,0.680436,-0.572054,0.453778,-0.798977,-0.556715,-0.283525,0.410800,0.000000
-0.415391,0.523363,0.043908,-0.297178,0.728341,0.211006,0.451190,-0.912671,0.472006,-0.050169,0.484333,-0.300723,-0.861544,0.595236,-0.962685,0.154395,-0.857246,0.301433,0.529052,0.208571,0.421705,0.000000
-0.927516,-0.057532,0.703158,-0.113685,0.345495,0.770727,-0.206628,-0.687522,-0.858522,-0.492204,0.574467,0.271330,0.545995,0.956227,0.544257,-0.591662,-0.380700,0.268469,0.875965,0.197794,-0.895101,0.000000
-0.993011,-0.890746,-0.849499,0.295533,-0.246232,-0.055707,-0.254786,-0.605889,0.215577,-0.885410,-0.182421,0.500422,0.968515,0.106529,0.325585,0.199638,-0.077768,0.618707,0.464655,-0.154967,-0.825348,0.000000
-0.202711,0.038427,0.095054,-0.970020,-0.182766,0.602608,0.288001,-0.751094,-0.902706,-0.775555,-0.329048,0.880370,0.395297,-0.251557,0.976651,0.599546,0.733093,-0.362434,0.492904,-0.973152,0.797715,0.000000
-0.719761,0.856257,0.733362,-0.587083,0.553431,0.889005,-0.539157,-0.734778,-0.912041,-0.195784,0.012678,0.821746,-0.865419,-0.841898,-0.656356,0.769625,-0.599515,0.892031,0.987366,-0.793685,0.850662,0.000000
-0.637837,-0.093292,0.377219,0.091853,-0.807465,-0.158319,0.555050,-0.155303,-0.637722,-0.788161,0.318363,-0.093282,-0.451728,0.089205,-0.645613,0.084245,0.310677,-0.355545,-0.130488,0.202084,-0.319084,0.000000
0.246101,0.285438,-0.174371,0.816108,0.859469,0.747639,-0.610733,-0.879330,0.334745,0.907447,-0.725772,0.481451,0.352687,0.323996,0.757266,-0.122428,-0.807293,0.505635,0.804208,-0.516648,-0.026749,0.000000
-0.959928,-0.567066,0.189122,0.625427,-0.277794,0.142620,-0.332167,0.545141,-0.570981,1.000293,0.198472,0.596699,0.984099,0.004853,0.937804,0.644557,-0.332306,-0.434327,0.231341,-0.776605,0.488774,0.000000
0.816492,-0.482893,0.427992,-0.543932,0.694449,0.406257,0.091263,0.624469,0.919745,-0.619818,0.815196,-0.249555,-0.580203,0.401072,0.149677,0.825728,0.002570,-0.545020,-0.667585,-0.916872,0.538221,0.000000
0.526686,0.550461,0.373615,0.570921,0.643013,0.915303,-0.768827,-0.005776,0.703531,0.689442,-0.487785,-0.264314,-0.268820,0.107046,-0.500365,-0.936168,-0.643880,-0.427921,0.659288,-0.229169,-0.725099,0.000000
0.734144,0.994445,-0.419434,0.261308,0.564412,0.545261,-0.978045,0.073562,-0.147090,-0.874639,0.624425,0.607263,-0.884195,-0.322988,0.743950,0.328541,0.299936,-0.107094,-0.554233,-0.613653,0.398085,0.000000
-0.270146,-0.173367,0.734792,-0.479570,-0.588336,0.014348,-0.304881,-0.765582,0.097403,0.592992,0.141449,-0.990608,-0.518139,-0.209978,-0.627029,0.625678,-0.784684,-0.166981,-0.189190,-0.933718,0.063318,0.000000
-0.008131,-0.549973,0.243999,-0.555377,0.298265,0.044629,-0.495053,0.655690,-0.297914,-0.719745,0.642726,-0.741565,-0.600652,-0.684195,0.671849,0.374253,-0.046504,-0.454484,0.470810,0.761131,-0.145680,0.000000
0.143692,-0.617544,-0.130105,-0.501874,0.573277,-0.918654,-0.302040,-0.605569,0.621674,0.666628,0.114394,-0.360903,-0.116882,-0.846509,-0.616101,-0.514458,0.093680,0.101199,0.423926,-0.474302,-0.531945,0.000000
-0.183978,0.687738,0.305984,0.071527,0.287863,0.258336,-0.075532,0.037359,-0.584042,0.992664,-0.638667,-0.363395,0.878933,-0.627577,-0.087075,-0.741267,-0.821749,-0.512374,0.162037,0.524574,0.634978,0.000000
0.594573,-0.067665,0.746705,0.507801,0.483802,-0.134828,0.804221,0.920095,-0.885044,-0.913837,-0.107724,-0.355913,0.070172,-0.417271,-0.132178,-0.931551,0.711128,0.759718,0.973697,0.133435,-0.804971,0.000000
-0.663906,0.314007,0.100205,0.653697,-0.003792,0.635063,0.560408,0.668406,0.548260,-0.997393,0.715905,0.357614,0.391343,-0.835234,-0.235698,-0.106631,0.843578,-0.130172,-0.995774,-0.959420,0.075190,1.000000

0.100041
-0.007741
0.825003
-0.335963
-0.450965
0.459405
-0.249456
-0.351169
0.089893
0.982164
0.801698
-0.563356
-0.489729
-0.403486
0.723907
-0.756689
0.780030
-0.534382
0.767089
0.099715
-0.520096
0.893665
