-0.316920,-0.684085,-0.265132,-0.832759,0.746422,-0.521841,0.952202,0.418819,0.211691,-0.542619,-0.193828,-0.171202,-0.062022,0.553529,-0.121804,-0.554714,0.693847,-0.455403,-0.502788,0.414968,-0.850706,0.000000
-0.911286,-0.153086,0.910943,-0.474609,0.135054,-0.489662,-0.552603,0.687735,-0.390370,-0.621906,-0.173136,-0.318857,0.990098,-0.832682,0.988864,-0.394810,0.275483,-0.588107,0.873414,-0.487709,-0.989565,0.000000
-0.031404,0.572924,0.720145,-0.727042,0.736992,-0.186377,0.791559,0.343730,0.568468,0.724418,0.317057,0.246254,-0.133518,-0.697623,-0.558092,-0.043062,-0.280740,-0.655080,-0.445112,0.842097,0.829585,0.000000
-0.958434,-0.957152,-0.325053,-0.564928,-0.837581,0.589892,-0.306070,0.638295,-0.699759,0.526597,0.646718,0.616810,-0.263039,-0.584155,-0.785333,-0.378765,-0.049961,-0.329447,-0.400922,-0.017488,-0.176672,0.000000
0.652431,-0.164441,-0.577675,0.064285,0.543152,-0.421817,0.965669,-0.928406,0.027800,-0.856869,0.836562,-0.972763,-0.228060,-0.810515,0.062175,-0.197982,-0.868601,-0.854239,0.656061,-0.839937,0.545203,0.000000
0.237036,-0.915708,-0.420947,-0.643483,0.999329,0.800104,0.330245,-0.017287,0.378089,-0.033528,-0.433763,-0.789483,-0.230274,-0.365459,-0.470809,0.529466,-0.169417,0.003819,0.639271,0.651967,-0.624683,0.000000
0.081149,0.012604,-0.898068,0.264565,0.269997,-0.241127,-0.596667,0.209265,-0.210730,-0.887692,-0.995544,-0.211158,0.160863,-0.056368,-0.985290,0.683218,-0.623280,0.927366,0.259804,-0.846614,-0.796564,0.000000
0.208050,-0.461564,0.985278,-0.786319,0.237591,0.455197,-0.435146,0.870793,0.986266,0.922581,0.232387,-0.446239,0.755340,0.258305,0.152557,-0.221841,-0.313897,0.618535,0.590143,-0.434794,-0.153639,0.000000
0.137310,-0.863537,-0.655210,-0.092712,0.189438,-0.586965,-0.288968,-0.418607,-0.796255,-0.829916,-0.901230,-0.366404,-0.325327,-0.334428,0.541159,-0.145115,0.826658,-0.107055,-0.985590,-0.232338,0.355950,0.000000
0.554735,-0.510300,-0.862178,0.517686,0.186254,-0.894101,0.063999,0.211646,-0.176794,0.130955,0.312113,0.648488,-0.213234,-0.841365,-0.784967,0.448347,-0.541368,0.825983,-0.478072,0.286538,0.054843,0.000000
0.280068,0.964110,-0.559740,-0.332380,-0.611499,0.209146,-0.418010,0.493823,-0.945128,0.925108,-0.156108,0.707022,0.902097,0.229041,0.938414,0.469832,-0.379378,-0.641469,-0.420942,0.030177,0.648427,0.000000
0.393475,0.012908,-0.398175,-0.885189,0.957762,-0.292032,-0.560045,0.747673,0.374859,0.147801,0.908994,-0.376934,0.018278,-0.714347,-0.261147,-0.817194,-0.691458,-0.036164,0.905942,-0.136937,0.674368,0.000000
0.519798,0.230857,0.573447,-0.435268,-0.537175,-0.277356,-0.800519,0.824722,-0.482494,0.757521,0.207660,-0.604610,-0.163138,-0.438525,0.808063,-0.836641,-0.317205,-0.055746,0.718943,-0.718656,-0.456859,0.000000
0.736015,-0.857967,0.299234,0.388592,-0.915403,0.336222,-0.786554,0.660207,-0.661977,-0.182592,-0.598254,0.129368,0.216590,0.649953,0.043428,0.506150,-0.635426,0.398480,0.034883,0.949950,-0.001007,1.000000

0.312249
0.582813
0.881290
0.850687
0.648172
-0.450503
-0.855531
-0.808466
0.803705
-0.640664
0.724063
-0.210744
0.927111
-0.178310
-0.341202
0.382791
0.834831
-0.178231
-0.180091
0.408575
-0.502995
-0.034333

*