0.006464,-0.248905,1.221430,-1.343530,-1.063010,0.777664,0.217701,0.095988,0.115013,0.201372,1.161651,-0.265494,-0.019712,0.671063,0.219354,-0.142063,-1.593526,0.747944,0.876621,1.163531,0.394442,0.000000
-0.578648,0.808792,1.112880,-1.431944,-0.603330,0.242889,0.693176,0.013434,-0.589655,0.564581,0.184039,0.245150,-0.216048,0.556813,-0.640670,0.722766,-1.750856,0.790343,-0.448470,1.132755,-1.206714,0.000000
0.973502,0.570841,-0.206116,0.346032,-0.114326,0.548877,1.328743,-1.087543,-0.333328,-0.496813,1.189885,1.162188,-0.075200,0.720814,0.848754,-0.722829,-1.187041,0.412900,-0.412342,1.273309,-1.433604,0.000000
-0.093744,-0.955433,0.504502,0.252702,0.810897,0.573651,-0.667007,-0.012612,-0.077683,-0.592991,-0.617117,-0.534038,0.982023,-0.193192,-0.646374,0.744193,-0.547929,-0.985459,0.371759,0.258425,-0.581248,0.000000
0.219459,0.603503,0.985534,-0.485397,0.695730,-0.641041,-0.068331,-0.506211,-0.942930,-0.693899,-0.063265,0.964293,-0.794794,0.814386,0.525071,-0.641591,0.269509,0.752373,0.069674,-0.239479,0.661733,0.000000
0.680846,-0.442614,0.124771,-1.176241,-1.194046,0.114555,-0.183769,0.199113,-0.346580,-1.017222,0.389711,0.021597,-0.290570,0.356858,0.601525,1.087383,-0.438921,0.750733,-0.451831,0.689930,-0.835661,0.000000
-0.660275,-0.274759,-0.400844,-1.384147,0.233178,0.963722,-0.118332,-0.936857,0.019932,0.446171,0.598353,0.109428,0.480556,1.258724,0.117176,-0.578961,-0.438594,-0.415165,0.517731,0.563659,-0.220710,0.000000
0.051352,0.836915,0.879874,-0.298425,-1.027873,0.373874,1.186141,0.566860,0.820507,-0.597564,1.230028,0.312953,0.271517,1.189011,-0.517035,1.102507,-0.802065,-0.722911,0.812946,0.779776,-0.781965,0.000000
-0.922379,-0.358004,0.806377,-1.094126,0.534254,0.389262,1.193878,0.162716,-0.504532,-0.092979,0.620822,0.861242,-0.286028,0.550425,0.473328,0.785847,-0.005981,0.226891,-0.481330,0.947353,0.546633,0.000000
-0.042811,-0.693966,-0.557097,-0.172761,-0.418134,-0.634498,0.118991,-0.211057,-0.313709,0.399541,-0.586726,-0.016291,-0.078247,0.290795,0.085384,0.661120,-1.702744,0.932276,0.549555,0.868238,-1.180165,0.000000
0.089493,-0.722268,1.221976,-0.317805,-0.061926,0.447818,0.459714,-0.647457,0.661526,-0.099271,0.042985,-0.229485,1.037221,-0.173536,0.163400,-0.374226,-0.985779,-0.043790,0.922039,-0.320574,-0.508062,0.000000
0.316288,-0.752661,1.022547,-1.153939,-0.617221,-0.633242,-0.329778,-1.165940,0.401517,-0.461219,0.972141,0.156996,-0.562855,1.124724,0.306936,-0.758559,-1.266419,0.373869,0.877504,-0.255540,-0.873849,0.000000
-0.047534,0.533500,1.074317,-0.110310,-1.074485,0.945924,0.191349,-0.185614,0.401800,-0.264137,1.554103,-0.242831,1.383222,0.504612,0.867205,1.207642,-2.479328,1.082169,0.516015,0.686086,-0.595875,0.000000
0.864393,-0.431274,0.447351,-0.180143,-0.237116,0.192009,-0.627579,-1.053574,-0.522479,-0.457200,-0.791727,-0.175872,-0.495280,0.454620,-0.571931,0.628298,0.336850,0.620467,0.170129,0.961075,0.358556,1.000000

-0.757707,1.000510,-0.009697,0.750823,0.561768,0.179561,-0.187888,0.594297,-0.739571,1.002180,0.696887,0.941394,-0.264930,-0.645613,0.182749,-0.585599,-0.409808,0.091559,-0.959973,0.023364,-0.274642,0.000000
-0.237091,0.360730,0.885628,-0.642552,-0.949698,0.668710,-0.507640,-0.084934,0.407148,0.368158,-0.203076,0.749028,0.823516,-0.068268,0.497814,0.157002,0.672159,0.197654,0.287693,-0.108346,-0.117440,0.000000
0.293726,0.972101,0.855186,-0.378728,0.811714,-0.253091,-0.069138,-0.072064,-0.265656,0.713788,-0.353323,0.545410,-0.074457,-0.025888,0.393283,0.669110,0.105798,0.829488,-0.762889,0.716182,0.773308,0.000000
-0.147736,0.516775,0.613235,-0.976263,0.393166,-0.782792,0.328799,0.905065,0.131864,0.620180,0.524356,-0.255696,-0.583045,-0.294524,0.729972,-0.333574,-0.175770,-0.827848,0.454516,-0.837438,-0.786065,0.000000
0.472457,0.490265,0.498198,-0.324854,0.310246,0.715446,0.056990,-0.786214,0.576447,0.378170,-0.227136,0.376833,-0.090888,0.528724,0.837452,-0.071975,-0.496329,-0.687064,0.780523,-0.252487,-0.039416,0.000000
-0.540045,-0.555124,-0.155473,-0.023360,-0.151036,-0.603997,-0.667874,0.626258,-0.861300,0.672975,0.041997,-0.996259,0.432113,0.125396,0.734923,-0.269047,0.256020,0.597929,0.676678,0.898504,0.297609,0.000000
0.695098,0.574514,0.134660,-0.491648,0.799998,-0.061082,-0.861952,-0.091843,0.899624,-0.228442,-0.180164,-0.233367,0.999391,-0.617820,-0.707580,0.181701,0.549815,0.443298,0.320637,0.611535,0.198807,0.000000
-0.825983,0.725615,-0.396409,0.067741,-0.426913,-0.560693,0.549505,-0.741641,0.148519,-0.125966,-0.963702,0.761735,-0.308958,0.254667,0.326449,-0.156048,-0.513242,-0.946279,0.705548,0.760268,0.810053,0.000000
-0.144701,0.355295,-0.569459,-0.124173,0.145623,0.068721,0.066646,-0.374901,0.667598,0.636497,-0.747038,0.478744,-0.846028,0.728038,-0.846841,-0.638101,-0.034987,0.552195,-0.637739,0.108311,-0.140604,0.000000
0.448093,-0.190492,0.231075,0.849277,-0.272282,0.068523,0.266380,-0.027654,0.285647,0.028040,0.078269,-0.558164,0.811836,-0.438866,0.367197,-0.717495,-0.779347,-0.802908,-0.916028,-0.400014,-0.408529,0.000000
0.801366,-0.602857,0.806814,-0.217530,0.382711,-0.589963,-0.129566,-0.759326,-0.530823,0.854888,-0.500528,-0.698881,0.584513,0.377098,0.747279,0.805050,0.561383,0.958763,-0.333621,-0.180094,0.195637,0.000000
0.226564,0.991746,-0.204757,-1.015512,-0.808494,-0.555455,-0.697151,-0.307308,-0.127969,0.401169,-0.704526,0.813549,-0.592502,0.940064,0.948722,-0.598788,0.758060,0.478741,0.571756,0.670078,0.640187,0.000000
0.847377,-0.249356,0.959214,-0.902594,0.275548,0.038515,-0.741069,-0.769692,-0.883163,-0.132440,0.933384,-0.740856,0.493910,0.698208,0.551086,0.367967,0.020324,-0.703458,0.027106,0.727690,0.531663,0.000000
0.273955,0.076589,-0.673299,-0.737120,-0.062888,0.580897,0.218399,0.031874,-0.070033,-0.306152,0.200871,-1.023494,-0.261132,0.751917,-0.710386,-0.405463,0.238187,0.508552,-0.621370,0.607572,0.198834,0.000000
-0.793656,0.473893,0.782122,-0.366684,-0.977746,-0.329919,-0.060045,-0.024138,-0.598229,0.780004,-0.592537,0.087228,-0.046627,0.395195,-0.733853,-0.793601,-0.178466,-0.782188,-0.848839,-0.358154,-0.845088,0.000000
0.523279,0.826777,-0.524609,-0.730683,-0.082298,0.306856,-0.423728,0.504520,-0.772851,-0.693419,0.674423,0.107025,0.198597,-0.040463,0.829772,0.716140,0.754428,-0.613450,-0.526089,-0.239145,-0.565356,0.000000
-0.021686,-0.789069,-0.906659,0.834194,0.610826,-0.432417,0.900575,0.717295,-0.075701,-0.991521,-0.743535,0.284562,-0.360171,-0.799507,0.234254,-0.417183,0.771200,-0.834937,0.778176,-0.634968,-0.911802,0.000000
-0.898515,0.338740,-0.598211,-0.083479,0.033356,0.555698,0.144415,0.900128,-0.099829,0.980898,0.531631,-0.427774,-0.819813,0.242361,-0.685815,0.322650,-0.424171,0.181037,0.141860,0.253700,-0.115605,0.000000
-0.851459,-0.879675,-0.897670,-0.870709,-0.534210,-0.672275,-1.051746,0.063396,-0.704988,-0.108063,0.442598,0.126612,0.656716,-0.097554,0.777620,0.316403,-0.418270,-0.829491,-0.298171,0.132371,-0.497549,0.000000
0.115814,0.285480,0.795156,-0.290342,0.446862,0.647196,-0.688259,-0.080193,-0.457562,-0.495985,0.073028,0.545180,-0.175188,0.340720,-0.499211,0.024377,0.373696,-0.158426,0.574792,0.958625,-0.247065,0.000000
0.840876,-0.347312,0.645604,0.535261,-0.843725,0.466188,-0.639763,0.260123,0.537445,0.590453,-0.481886,0.837943,-0.941868,-0.997479,0.450265,0.333770,0.619084,-0.586672,0.834233,-0.669139,-0.712027,0.000000
-0.011585,-0.344298,-0.731623,-0.004270,0.730488,0.556313,-0.851727,0.559624,0.478012,-0.446756,0.156298,-0.695160,-0.472338,-0.783900,0.135647,0.451409,-0.211422,-0.804657,0.410966,-0.520050,0.043720,1.000000

0.793853,-0.975287,-0.511093,0.318731,0.322814,-0.105098,-0.873071,-0.184131,0.232443,-0.672611,-0.501696,-0.029946,0.045844,0.635131,-0.901637,0.815241,0.837580,0.470263,0.117906,0.210627,-0.960530,0.000000
-0.911670,0.323605,0.280984,-0.208186,-0.604690,-0.279131,0.214153,0.196259,0.188166,-0.096887,-0.640830,0.573614,0.830579,-0.174051,0.035063,0.489364,-0.615162,-0.230725,0.212933,-0.824211,-0.965875,0.000000
0.091535,-0.353640,0.975402,0.853638,0.717789,-0.820078,0.434695,-0.315104,0.156518,0.776167,0.957220,0.026400,0.377117,0.344172,-0.831113,0.231979,-0.328528,0.114512,0.234870,-0.183735,-0.869060,0.000000
0.363450,0.588366,-0.965331,-0.906125,-0.298799,-0.092507,-0.122281,0.097140,-0.019450,0.682180,-0.718986,0.561876,0.904172,0.309977,-0.213326,0.290017,0.552415,0.524583,-0.759758,0.755470,-0.194485,0.000000
-0.063744,0.383922,-0.634144,-0.535681,-0.904106,-0.219729,0.633528,0.923887,0.531366,-0.543152,0.040005,-0.754978,0.171011,-0.460093,-0.771023,0.515427,-0.891964,-0.580577,-0.019679,0.033422,0.266038,0.000000
0.163190,-0.052311,-0.964660,-0.156036,0.901296,-0.544737,-0.293262,-0.829585,-0.267282,0.765078,0.556090,0.423995,-0.337237,0.249572,-0.572354,0.869747,-0.416791,-0.218801,0.305179,-0.698017,0.102588,0.000000
-0.626148,-0.977477,0.466292,0.966124,-0.422152,0.989107,-0.268591,0.499374,-0.073283,-0.506882,-0.446034,-0.026700,0.867061,0.638417,-0.816565,-0.973327,-0.480758,0.307170,-0.666982,0.900626,0.071769,0.000000
-0.984148,-0.267914,0.569201,-0.326017,0.327524,0.054340,-0.755972,0.559313,0.147532,-0.481577,-0.973327,0.724233,0.643537,-0.135240,0.390907,0.961364,-0.737602,0.753483,0.501049,0.489089,-0.538899,0.000000
0.210088,0.982788,0.932249,-0.225243,-0.789634,-0.621424,0.811945,0.480636,-0.929392,-0.410513,0.135137,-0.689871,0.680715,0.033350,-0.743759,0.744255,-0.528184,-0.366596,0.203773,0.188016,-0.999267,0.000000
-0.602335,0.529771,-0.747246,0.433634,-0.259461,0.310693,0.153491,0.689749,0.533656,-0.392511,0.423283,0.969101,0.803618,-0.100048,0.439836,-0.775933,-0.751274,0.403127,0.576650,-0.139870,-0.582434,0.000000
-0.770845,0.713199,0.787469,-0.287806,0.075417,0.122814,0.000778,0.314188,-0.316580,-0.306383,-0.980820,0.942397,-0.206469,0.512588,-0.920408,-0.467635,-0.462650,0.746315,0.844409,0.829973,-0.328162,0.000000
-0.513673,0.460782,-0.482589,0.721061,-0.029226,-0.198411,-0.100313,-0.827326,-0.026993,-0.531875,0.903102,-0.436803,-0.356249,-0.957751,-0.921462,0.664052,0.308573,0.189265,-0.576855,0.014927,-0.378570,0.000000
0.781618,-0.964005,-0.143762,0.385960,0.904707,-0.906588,-0.110401,0.939879,0.225377,-0.555782,0.908568,0.902678,0.080133,0.375709,-0.703087,0.200078,0.598804,0.254105,0.114372,0.671668,-0.877328,0.000000
-0.495211,0.629125,0.664602,0.533973,0.939363,0.723146,-0.344087,0.996216,-0.294237,0.746208,-0.828626,-0.182960,0.339941,0.365401,0.566430,0.497848,0.372749,0.286381,-0.235831,-0.040285,0.897749,0.000000
0.081508,0.578627,-0.461165,-0.012440,-0.780516,0.859345,-0.240573,0.596851,0.750076,0.776139,0.795663,-0.375317,-0.739326,-0.755973,0.273054,0.792535,0.749565,0.357752,-0.355033,-0.362053,0.706019,0.000000
-0.382930,-0.451676,-0.302042,0.999639,-0.111779,-0.767956,0.590842,-0.043722,-0.021373,0.661074,-0.339319,-0.607774,-0.657610,0.764884,0.295136,-0.372417,0.628040,0.260896,0.835357,0.634624,-0.837525,0.000000
-0.202307,0.249686,-0.172283,-0.334411,0.468516,-0.936936,-0.340481,-0.029429,-0.147933,0.666540,-0.153189,0.906414,-0.286871,0.597930,0.876733,-0.887204,0.650929,-0.631277,-0.147759,0.462211,-0.616059,0.000000
0.199237,0.226224,-0.235952,0.127976,0.675317,-0.210629,-0.198551,0.884213,0.664517,-0.119712,-0.091818,-0.148551,0.288587,0.259275,0.025184,0.243126,0.547777,-0.915145,0.792567,0.762502,-0.721741,0.000000
-0.809372,0.380528,-0.450117,-0.383938,-0.009260,0.897634,0.165182,0.546800,0.482498,0.992295,0.025368,-0.162586,-0.107063,-0.275789,0.244855,0.421552,-0.860836,-0.760697,-0.349251,0.928630,0.839112,0.000000
-0.588066,-0.395550,0.693350,0.801175,-0.345578,-0.792112,-0.884978,-0.433454,0.320375,-0.750954,-0.577479,0.515909,0.862966,-0.841239,0.252362,-0.803034,0.982910,0.423298,-0.109252,-0.747050,0.491561,0.000000
0.656004,-0.031930,0.884030,0.383258,0.405931,0.177805,-0.180858,-0.133545,-0.460880,-0.674596,-0.852268,0.245094,0.201881,0.804544,0.010399,-0.116879,0.206963,0.182943,0.024856,0.986481,-0.789973,0.000000
-0.193174,0.557536,-0.922788,0.931300,0.468976,-0.184592,-0.872584,-0.256569,-0.842676,0.525111,-0.380386,-0.238946,-0.258310,0.753767,-0.635881,0.957518,0.448069,-0.596266,0.385515,0.872487,-0.835220,1.000000

0.088036,0.456648,-0.477950,-0.465560,0.488876,-0.074374,-0.034832,-0.025422,0.708792,0.216040,0.416608,-0.603137,-0.716910,0.362102,0.136570,0.490524,0.345866,0.369915,-0.315104,-0.603137,-0.659169,0.000000
-0.491796,0.071444,0.803717,-0.320942,0.906082,-0.724052,0.661595,0.837336,0.719847,0.698903,0.675496,0.277133,-0.771905,-0.851741,0.507920,0.476069,-0.901711,-0.252695,-0.803644,0.742058,0.337077,0.000000
-0.796926,0.263466,0.419844,0.549791,-0.699004,0.838862,0.838435,-0.739677,-0.423637,-0.066493,-0.439677,0.682119,-0.167763,-0.526292,-0.828181,-0.120277,0.757317,0.614978,0.441939,-0.523667,-0.669301,0.000000
-0.660678,0.971618,-0.972541,0.015231,0.512318,-0.394506,0.985494,0.335551,0.772049,-0.648439,0.077611,0.088026,-0.692984,-0.442677,-0.346110,0.825221,-0.202769,-0.949833,-0.166771,0.560900,0.319742,0.000000
0.883272,0.813654,0.324462,0.465018,0.796967,-0.973144,-0.974667,0.943602,-0.468568,-0.898066,-0.414724,-0.334171,0.205669,-0.212222,0.363201,-0.060175,0.373017,-0.452487,-0.092310,-0.344899,0.691885,0.000000
0.525193,0.930540,-0.360027,0.362468,-0.099672,0.288675,0.872738,0.019929,0.207533,0.678518,-0.721549,-0.450301,0.972411,-0.344096,0.037584,-0.509629,-0.562914,0.849483,-0.856929,-0.301004,0.810724,0.000000
-0.796197,0.025056,-0.569384,0.652821,0.757744,0.854854,0.118963,-0.114475,0.241066,-0.045725,0.426130,0.925291,0.958068,-0.662343,-0.198157,0.961303,-0.705741,-0.953124,-0.490219,-0.523240,-0.010018,0.000000
0.432964,0.283364,-0.227624,-0.493491,0.265327,0.383485,-0.850782,0.616810,0.308858,-0.177818,0.533188,0.282229,-0.876644,0.543199,0.563463,0.545894,-0.833685,-0.392360,-0.262967,-0.253776,-0.878475,0.000000
-0.115139,0.249001,-0.209615,-0.314051,0.607798,0.249755,-0.606605,-0.398297,-0.364389,-0.987166,-0.213917,-0.833191,0.368755,0.884396,-0.135303,-0.425495,0.363609,0.990542,-0.629505,-0.864254,0.889645,0.000000
-0.036572,-0.967772,-0.825556,0.320147,0.934885,-0.162397,0.558530,-0.378399,-0.221492,0.233937,-0.326018,0.281216,0.081767,0.857906,0.956725,-0.974661,-0.069826,-0.805353,-0.305551,0.352519,-0.416120,0.000000
-0.397780,0.937803,0.071563,-0.190085,-0.750481,0.850642,0.600513,0.106052,-0.300943,-0.408370,-0.953429,0.672109,-0.438215,0.335490,0.435041,0.549547,0.034249,-0.112161,-0.455611,-0.390667,0.043917,0.000000
0.719425,0.567370,-0.991818,-0.669781,-0.865776,-0.500229,-0.656453,-0.383160,-0.166122,-0.620358,0.912165,0.288368,-0.667592,-0.460846,-0.488327,0.709740,-0.464501,-0.364241,0.963805,0.932737,0.420881,0.000000
-0.540326,0.303201,-0.101940,-0.790173,-0.277722,0.452317,-0.911037,-0.598010,-0.009778,0.670519,0.990254,0.063859,0.182740,0.525132,-0.582141,-0.167791,-0.097675,0.732690,0.497015,-0.765313,0.861507,0.000000
-0.707411,0.232887,-0.581269,-0.025291,0.181298,0.050415,-0.953418,0.464095,0.029420,-0.893801,-0.181158,0.832000,-0.208272,0.255530,0.278298,-0.590540,0.289799,0.082079,-0.570910,-0.150330,-0.702933,0.000000
-0.662064,-0.999817,-0.508896,0.342938,0.571708,-0.633595,-0.907468,0.914792,0.643178,0.928709,0.919187,-0.803461,-0.508957,0.561876,0.998169,-0.222718,-0.544176,0.181808,0.363872,-0.583361,0.302835,0.000000
0.593512,0.125645,0.747469,0.686176,-0.336244,-0.406902,-0.201406,0.983093,0.921155,-0.993045,-0.394184,0.379400,0.759392,-0.534349,0.820795,0.477812,-0.464309,0.174631,0.389534,-0.475722,0.593249,0.000000
-0.209978,0.176794,-0.692128,0.001265,-0.291033,-0.104414,0.426628,0.524216,-0.067845,0.410215,0.382067,0.272540,-0.924070,-0.660634,0.749016,0.534025,-0.210944,0.142041,0.711722,0.641713,0.064529,0.000000
0.883863,-0.388653,-0.608020,-0.124929,0.283395,0.545213,-0.598763,-0.358013,-0.195772,-0.584100,0.142562,0.348938,-0.844417,0.801874,-0.252235,0.223963,0.882687,0.936420,0.934812,0.416852,0.832331,0.000000
-0.442559,-0.066744,0.583307,-0.647268,-0.338889,-0.642689,-0.535130,-0.873470,-0.999190,-0.771646,-0.113421,-0.537305,0.647633,-0.353275,0.486312,-0.321654,-0.886850,-0.056709,0.535813,0.365321,-0.632252,0.000000
0.738965,-0.078463,-0.543691,-0.992971,-0.536097,-0.598010,0.756997,0.974731,-0.630118,0.962327,0.675367,-0.675762,-0.479611,0.964721,-0.187956,0.401606,-0.443137,-0.802191,0.326605,-0.268511,-0.906369,0.000000
-0.664663,-0.398297,0.169103,0.528489,-0.418256,0.612903,0.092624,-0.921812,0.238868,0.276406,-0.033601,-0.527696,0.228797,-0.196570,-0.020234,0.102573,0.748466,0.271889,-0.016387,-0.105075,-0.644704,0.000000
0.851076,-0.894406,-0.979059,-0.811258,-0.346406,-0.421771,0.379117,-0.837519,-0.802013,-0.389894,0.876802,0.848457,-0.999451,0.858211,-0.248272,0.995120,0.901492,0.592980,0.545548,-0.075533,0.942991,1.000000

0.254982,-0.891598,-0.017526,0.745598,0.260292,0.116733,0.467391,-0.803766,-0.829951,0.311014,0.934141,-0.528855,0.595569,0.128254,0.175190,-0.962340,0.624921,0.944090,-0.406325,-0.274386,-0.586962,0.000000
-0.878475,-0.849788,-0.613269,-0.107642,0.254128,0.491684,0.494491,-0.249672,0.647023,0.621937,-0.670522,0.961608,-0.822382,-0.991943,0.850520,0.523972,0.539095,-0.469474,-0.577555,-0.403636,0.487472,0.000000
0.345988,0.272134,-0.532151,-0.380169,-0.660939,-0.952513,-0.080599,0.947508,-0.120518,-0.334330,-0.580370,0.979125,0.202185,-0.595019,-0.915159,0.529893,-0.658010,0.545152,0.061983,0.177831,-0.592517,0.000000
-0.679495,0.167699,-0.582934,-0.239235,-0.338847,-0.253029,0.355693,-0.485031,-0.375347,-0.579760,-0.293863,-0.896298,-0.095187,0.313334,0.142857,0.667592,0.045249,-0.201880,-0.501450,0.308206,-0.380902,0.000000
-0.907041,0.688284,0.771844,-0.113609,0.634632,-0.680105,0.224614,0.124300,-0.237037,0.053207,-0.981445,0.267739,0.201392,0.626331,-0.940245,0.139110,-0.626364,0.291064,-0.970397,-0.074187,0.865047,0.000000
0.767937,-0.468978,0.759514,-0.660756,0.882199,0.269753,0.149144,-0.002697,-0.879757,-0.193762,0.037019,0.954039,0.898129,-0.431074,0.914426,0.021007,-0.219825,-0.296793,0.198401,-0.839961,0.097018,0.000000
0.523240,-0.289651,0.663503,0.050178,0.674062,-0.633412,-0.415082,0.368694,-0.948790,0.576952,0.699454,0.984313,-0.350566,-0.889035,-0.099460,0.642750,0.267128,0.837092,0.553697,-0.112208,0.655080,0.000000
0.646779,0.286660,0.283486,0.030765,0.580615,0.380657,-0.760125,-0.995727,0.291360,0.219581,0.804071,-0.245888,-0.930967,0.330912,-0.806452,-0.494430,0.035796,0.191646,-0.539665,-0.661855,-0.270180,0.000000
-0.080721,0.502731,-0.370159,0.795343,-0.642384,0.994079,0.621448,-0.317423,-0.654042,0.278054,-0.520432,0.479049,0.194494,-0.735527,-0.144139,-0.869564,0.948912,0.253151,-0.850826,0.265114,0.726493,0.000000
0.737419,-0.844661,-0.634754,0.217505,-0.491928,-0.520920,-0.262551,-0.612720,-0.764641,-0.408002,-0.309122,-0.648122,0.449873,-0.711844,-0.643300,-0.576891,0.725150,-0.558153,0.874325,0.113926,0.670339,0.000000
0.679922,0.887814,0.654714,0.299661,0.696768,0.172216,0.707938,-0.430647,-0.726249,0.837275,-0.275185,0.136387,0.436506,-0.067007,0.052506,0.620472,-0.672302,-0.495302,0.264137,0.287127,0.247169,0.000000
-0.249245,0.841365,0.841365,-0.442793,-0.044588,-0.723868,-0.460982,0.590564,0.439985,-0.425825,0.473983,0.936094,0.275857,-0.696646,0.373882,-0.929075,0.417763,0.251325,0.539140,0.785150,-0.338176,0.000000
0.576464,-0.136876,0.490341,0.622791,-0.529954,0.530686,0.723380,-0.543260,0.893490,0.843013,0.110263,-0.008942,0.186865,-0.036348,-0.852901,-0.213721,-0.726188,0.637623,0.862728,0.715079,0.872127,0.000000
0.784417,0.145177,0.794305,-0.140853,0.760369,-0.280557,0.421552,0.173193,-0.711112,0.905515,-0.759148,0.725150,0.685171,0.611011,-0.275369,-0.141873,0.763407,0.245786,-0.006871,0.225822,0.209388,0.000000
0.706168,0.271645,-0.504074,-0.994812,-0.731193,0.341838,-0.279031,-0.234779,0.998047,-0.811762,-0.340922,-0.956725,-0.059640,0.892636,0.008996,0.745170,-0.112678,0.265008,0.766553,0.084574,0.299966,0.000000
0.502243,0.930784,-0.547960,-0.465072,-0.039949,-0.229163,-0.801263,-0.294412,-0.305216,-0.302530,0.187410,0.874020,0.588916,0.053908,-0.032489,0.534166,-0.479682,-0.771684,-0.538038,-0.487247,-0.299844,0.000000
-0.164891,0.969665,-0.303568,-0.558458,0.172826,-0.991516,-0.035513,0.913450,-0.400189,0.791742,0.608081,0.986389,0.398785,-0.460738,0.036225,-0.454939,-0.904477,-0.443464,0.788324,0.727592,-0.454512,0.000000
0.457320,0.408857,0.737297,0.041577,0.865597,-0.517930,-0.911618,-0.333293,0.495346,0.560106,0.251808,0.956236,-0.290139,0.255959,-0.163976,-0.845332,-0.607776,-0.822993,0.309053,-0.002054,-0.312662,0.000000
-0.624195,-0.389630,0.956114,-0.144999,-0.777215,0.219092,-0.602466,0.885006,-0.813166,0.350932,0.835994,-0.234535,0.545335,-0.653615,-0.063112,0.071415,-0.735552,0.812799,-0.958564,0.150069,-0.218177,0.000000
-0.677175,-0.111301,-0.713736,0.838313,0.558397,0.381756,0.594653,-0.028596,0.348308,-0.056346,0.860347,-0.737480,-0.241188,-0.987487,-0.393231,0.083371,-0.965636,0.478827,0.594226,0.712149,0.276894,0.000000
-0.799066,-0.916745,-0.696707,-0.183437,-0.811823,-0.767144,0.127913,-0.031822,0.045869,0.513718,-0.512864,-0.246559,-0.120274,0.225572,0.236956,0.812067,-0.494506,0.562914,0.777893,0.286863,0.439619,0.000000
-0.072298,-0.625172,-0.673818,0.516587,0.813959,0.281899,0.651906,0.789178,-0.261452,-0.963195,0.416486,0.063692,0.470382,-0.103764,-0.247087,0.206171,-0.127010,-0.352717,0.418919,-0.195270,0.058569,1.000000

0.433637,0.000833,0.010102,0.966857,0.202124,0.488510,0.454695,0.741203,0.419172,0.746940,-0.893735,0.201697,-0.440962,-0.709647,-0.768120,-0.822138,-0.734733,0.863155,0.841731,-0.915647,-0.188452,0.000000
-0.815546,0.679617,-0.676504,-0.804926,0.665944,-0.953673,-0.354595,0.921445,-0.345439,0.420759,0.335795,-0.673330,0.313395,0.907895,0.804804,-0.803949,0.547777,-0.826350,-0.517747,-0.191260,-0.377300,0.000000
0.426862,0.725028,-0.896176,-0.581957,-0.667348,0.908139,0.506882,0.489608,0.408490,0.359783,-0.914060,-0.438643,0.407575,-0.180944,0.978027,-0.541795,-0.893979,0.593005,-0.489670,-0.228248,0.451033,0.000000
0.069265,0.705619,-0.341166,0.466292,0.168798,-0.014989,0.335734,0.305094,-0.066622,0.835994,0.889706,0.281106,-0.623585,-0.124424,-0.191076,0.380779,0.693472,-0.730461,-0.740287,-0.459700,0.816340,0.000000
0.469954,0.326090,0.132908,-0.150922,-0.880917,-0.040772,-0.531968,-0.241615,-0.501999,0.003541,0.205521,0.092257,0.745842,0.092624,0.184594,-0.491745,-0.293924,-0.525498,0.462813,0.065520,-0.737236,0.000000
-0.026044,0.038545,-0.188025,0.081745,0.988647,-0.166295,-0.361064,0.319254,0.889157,-0.712455,0.409040,-0.975707,0.719169,-0.988464,0.688040,0.372845,-0.340983,0.042027,0.643544,-0.413984,0.017864,0.000000
0.269875,0.397321,-0.084933,-0.651235,0.928648,-0.430891,-0.851985,0.013953,-0.047791,0.356792,-0.647328,-0.697806,0.827326,0.355998,0.573840,0.240272,0.881466,0.140211,0.300882,0.969543,0.303629,0.000000
-0.829463,0.179418,-0.147984,-0.672170,0.333354,-0.953185,-0.621326,-0.621326,-0.418500,-0.459639,0.837275,-0.266457,0.600757,0.584277,0.866695,0.647938,0.809564,-0.580554,-0.977905,0.283792,0.288553,0.000000
-0.533311,-0.782159,-0.697989,0.025669,-0.165319,-0.696890,0.943663,-0.805170,-0.340373,0.338542,-0.501266,0.182470,-0.560961,0.418439,0.730277,0.214515,0.722526,0.937071,-0.097873,-0.952818,-0.677664,0.000000
-0.491928,-0.931394,0.172277,-0.901120,-0.985046,-0.757805,0.887326,-0.755303,-0.738334,-0.669912,0.984008,-0.007465,0.091464,0.448103,0.134699,-0.312052,-0.558275,-0.938475,0.758965,0.336344,-0.288919,0.000000
-0.179601,-0.742546,-0.108066,0.158544,0.927793,-0.028549,-0.087057,-0.088229,-0.265908,-0.100925,0.672475,0.936033,0.701468,-0.504074,0.269509,0.122227,0.259987,-0.579089,0.814509,-0.364055,-0.293802,0.000000
0.897580,0.548448,0.768181,-0.197069,0.308206,-0.872188,0.947752,0.526231,-0.882809,-0.545396,0.513474,0.457137,-0.037679,0.741508,-0.184750,-0.866207,0.825434,0.849971,0.421491,-0.479598,0.341594,0.000000
0.653981,0.859920,-0.045442,0.422040,-0.627674,-0.337809,0.460128,0.639821,-0.340495,0.320353,-0.745354,-0.577929,-0.466659,-0.561876,-0.657826,-0.478011,-0.775994,-0.074409,0.325297,-0.335734,-0.740410,0.000000
0.330424,-0.898068,0.187475,0.840205,-0.121128,0.940733,0.217750,0.017243,-0.320841,0.168310,0.288430,-0.812738,-0.111484,0.246437,-0.776238,-0.010094,-0.722343,0.975036,-0.698416,-0.601245,0.973144,0.000000
-0.263527,0.657826,-0.599536,0.962035,0.316385,0.803156,0.629688,0.963622,0.515976,-0.837031,0.265358,-0.824030,-0.769280,-0.468001,0.326640,0.985168,-0.234230,0.940245,0.722648,0.024225,0.608875,0.000000
-0.605701,0.709952,-0.838191,0.861446,0.971313,0.093917,-0.368755,-0.812006,0.813410,-0.059004,-0.451460,0.563158,0.132481,0.328288,-0.620411,-0.085177,0.162084,0.876522,-0.829340,0.679250,-0.162816,0.000000
0.244606,0.698355,-0.730827,0.188147,0.587512,0.672170,-0.961547,-0.574938,0.012321,-0.813044,-0.287698,-0.276162,-0.812128,-0.372112,0.322733,-0.957701,0.968566,-0.999756,-0.589160,0.064241,-0.646168,0.000000
0.866085,0.387310,0.994507,0.675039,-0.454268,-0.669362,-0.790948,0.681020,-0.401654,-0.889035,-0.784845,-0.870296,0.102390,0.721732,0.627491,-0.079012,0.831843,-0.454939,-0.216285,0.026488,-0.626576,0.000000
0.554308,-0.908811,0.011750,0.187048,0.601062,-0.059552,-0.363384,-0.082858,-0.076083,0.148412,-0.378399,0.684378,0.029756,-0.710807,0.989746,-0.530747,0.588183,0.022041,0.845210,0.284951,0.081454,0.000000
0.623890,0.467147,0.375713,0.610889,0.593005,0.059620,0.187231,-0.518662,0.799554,0.219764,-0.034625,0.394024,0.496689,0.558275,-0.962889,0.368084,-0.302286,0.687613,-0.259316,0.575487,-0.769463,0.000000
0.636158,0.476791,0.051180,-0.174108,-0.701041,-0.264626,0.081403,-0.881893,0.302591,0.618030,0.326151,0.073214,0.567003,-0.718925,-0.398968,-0.249489,0.982238,0.131321,-0.045958,-0.998535,0.243995,0.000000
0.062994,-0.766228,0.678640,-0.377178,-0.330180,-0.037711,-0.377544,-0.222816,-0.656056,0.097079,-0.160491,-0.174902,0.287759,0.189612,0.465743,0.237098,-0.957823,-0.702872,0.195227,-0.643239,-0.019885,1.000000

-0.224464,0.069674,0.812555,-0.387677,0.038739,-0.586047,-0.815119,0.386761,-0.613819,-0.821650,0.358379,0.683157,0.162511,-0.897275,0.736442,-0.754021,-0.616260,0.754326,-0.592578,0.940123,0.075411,0.000000
0.560167,-0.506821,0.030422,-0.662771,0.984558,0.431562,-0.394452,0.488083,-0.302347,-0.285440,-0.103732,0.032187,-0.869442,0.645924,0.777520,0.887326,0.944823,0.297159,-0.679800,0.855098,0.024873,0.000000
0.974548,-0.803644,0.959288,-0.334452,-0.350444,-0.884823,-0.634571,0.064547,0.075594,0.436140,-0.479049,-0.349528,0.577075,-0.322550,0.541795,0.232398,0.036173,0.304178,0.207373,-0.797357,-0.082980,0.000000
-0.234169,0.637257,0.218177,0.971191,-0.861507,-0.266823,-0.031607,-0.600208,-0.344035,-0.434431,-0.963744,-0.590564,-0.506760,-0.709708,-0.152623,-0.091159,0.401776,0.473434,0.086642,0.307047,-0.361126,0.000000
-0.727897,0.248146,-0.074007,0.783563,-0.765984,-0.761223,0.667959,-0.918271,-0.181677,0.442122,-0.991089,0.461592,-0.945189,0.257912,0.353374,-0.811212,0.494064,0.104953,0.575671,0.278359,-0.581896,0.000000
0.162084,-0.140233,0.476547,-0.643055,-0.783502,-0.455428,-0.420881,0.326823,0.482955,-0.424726,-0.524522,0.828547,0.208045,-0.849483,-0.086520,-0.911863,-0.673757,-0.337443,0.480941,0.334086,0.827082,0.000000
-0.883724,-0.043306,0.418989,-0.989746,-0.406110,0.454939,-0.787774,0.655568,0.447432,0.214637,0.100864,0.625538,-0.070956,0.444624,-0.041353,-0.828547,0.477645,0.022639,0.389203,-0.211890,0.617176,0.000000
0.829951,-0.923276,0.960631,0.714164,-0.908261,0.353435,0.020570,-0.331584,-0.560228,-0.801752,-0.386761,-0.861873,0.141209,-0.428755,0.766778,-0.419721,0.152745,-0.325419,-0.431379,0.971740,-0.574267,0.000000
0.615528,-0.134190,-0.224952,0.258583,0.894650,-0.567186,-0.948363,-0.938658,0.522813,-0.513230,-0.480880,-0.900693,-0.371746,-0.609668,-0.848994,-0.631336,0.520188,0.028840,0.988647,0.556200,0.774651,0.000000
-0.486435,0.905271,0.376385,0.714591,-0.963012,0.880428,0.860103,-0.698477,-0.059664,0.069979,-0.352580,0.088351,-0.950377,0.659230,-0.346416,0.985107,-0.101535,-0.484542,-0.159093,0.079806,-0.530381,0.000000
-0.047761,-0.996460,-0.648549,-0.094333,-0.364544,0.447676,-0.079440,-0.817560,0.148106,-0.526536,-0.799921,-0.606861,-0.621204,0.704642,-0.063326,0.112217,-0.655568,0.969176,0.985717,0.630055,-0.036409,0.000000
0.545213,-0.250771,-0.650380,0.173864,0.727165,-0.887020,0.698721,-0.839778,-0.236122,0.306986,-0.697378,0.994629,0.887814,-0.078707,0.444746,-0.960509,0.196692,-0.817072,0.332316,0.759453,-0.666433,0.000000
0.116611,-0.680776,-0.197668,0.289041,-0.100497,0.725944,-0.765679,-0.909543,0.338847,0.165563,-0.006015,-0.350749,-0.957701,0.485153,-0.339579,-0.380474,-0.728874,0.870785,-0.707999,0.600147,-0.098972,0.000000
-0.879940,-0.598254,0.449141,0.851680,0.715262,0.930174,-0.229774,0.532273,0.928037,0.038948,0.083163,0.287881,-0.978576,0.334635,0.359050,-0.070711,0.547960,-0.341472,0.385723,0.683584,-0.533738,0.000000
0.650746,-0.865047,-0.546007,0.438398,-0.754936,0.577929,0.475204,-0.960143,-0.524827,-0.506088,0.849361,0.625843,-0.706046,0.614917,0.530137,-0.556749,0.036003,0.224708,-0.728751,-0.259438,0.068636,0.000000
0.353008,-0.082186,-0.276101,0.857479,-0.202673,-0.315714,0.199194,0.427045,0.119053,0.642201,-0.119724,-0.334147,0.232582,-0.068209,0.304849,0.793390,0.155919,-0.712821,0.860164,-0.724662,0.065706,0.000000
-0.387249,0.847591,-0.299722,0.053617,-0.504562,0.723075,0.181799,0.308023,0.642689,-0.557421,0.501022,0.937925,-0.008814,-0.422407,-0.149937,0.401959,-0.583911,0.167455,0.121494,-0.330058,0.567553,0.000000
-0.013459,-0.452986,0.494003,0.131260,-0.003826,0.012543,-0.242775,-0.779595,0.771477,0.941404,-0.608570,-0.715934,0.464156,0.642689,0.406171,-0.405499,-0.341105,-0.728568,0.959777,-0.859310,0.866878,0.000000
-0.353008,0.012424,-0.298502,0.820795,-0.267617,-0.511643,0.499069,-0.230567,-0.909909,-0.161962,-0.218238,0.741997,0.384014,0.063936,0.762993,-0.023006,-0.773614,-0.119419,-0.540086,0.810663,-0.298379,0.000000
-0.403424,0.832820,-0.957579,-0.778008,-0.258339,0.343730,0.754936,0.407392,-0.391888,0.690909,0.468062,0.928587,-0.147252,-0.921506,-0.184606,-0.093295,-0.462935,-0.175817,-0.731315,0.416425,-0.443220,0.000000
0.125767,0.993530,-0.059786,-0.103122,0.259987,0.982910,0.886349,0.207739,-0.134678,-0.661428,0.711539,-0.461226,-0.974303,-0.184545,0.694815,-0.981384,0.861446,-0.922117,-0.149449,0.165685,-0.759819,0.000000
0.892087,-0.169164,0.050838,-0.627552,-0.539903,-0.711417,-0.233314,0.956298,-0.039848,-0.728263,0.452132,0.646718,-0.024591,0.413984,-0.268899,-0.418561,-0.768365,-0.129307,-0.728935,0.978698,0.461715,1.000000

-0.894528,0.773919,-0.142125,0.285867,0.421430,-0.826716,0.782525,-0.726737,-0.736564,0.504746,0.417585,-0.750237,-0.431196,0.848811,0.183935,0.896115,-0.736259,-0.976379,0.941404,-0.138951,-0.524705,0.000000
0.908078,0.559130,0.720450,-0.036958,0.604541,-0.379681,-0.661733,0.452193,0.770501,-0.912168,0.884884,-0.530442,0.930845,0.118259,0.058016,0.996277,-0.107883,0.905637,0.489730,-0.640919,0.109531,0.000000
-0.391034,-0.252358,-0.462447,-0.928404,-0.952025,0.309122,0.594531,0.398358,-0.815546,-0.705435,0.935972,0.904294,-0.564440,-0.961180,-0.414777,0.575976,-0.376019,-0.985534,-0.986145,0.612293,0.876217,0.000000
0.753960,-0.119480,0.148045,-0.765435,0.468368,-0.609607,0.987915,-0.573351,0.023225,0.949644,0.012320,0.039582,-0.809381,0.139988,0.800531,-0.675771,-0.224097,0.379681,-0.164647,-0.854915,0.922849,0.000000
-0.143956,-0.606922,0.301920,-0.447737,-0.233436,-0.008148,-0.476241,0.794977,-0.392804,-0.271889,-0.673391,0.150487,-0.008515,0.098361,-0.971313,0.233192,-0.317240,-0.659536,-0.515183,-0.933226,-0.320231,0.000000
-0.901975,-0.898556,-0.628224,-0.637928,0.759514,-0.212867,-0.838679,-0.830622,0.526414,-0.545885,0.053011,0.762322,0.768975,0.886410,-0.072298,0.196448,0.658376,-0.106418,-0.692679,0.549120,-0.091159,0.000000
0.249123,0.299539,0.105441,-0.903806,-0.578234,-0.804926,0.332255,0.091891,-0.159398,-0.784722,-0.032136,0.607898,-0.237648,0.187963,-0.138462,0.782098,-0.709098,-0.886227,-0.810053,-0.062777,-0.849666,0.000000
-0.402875,-0.448897,-0.539537,-0.953429,0.600757,0.811457,0.110935,-0.263344,-0.572253,0.741997,0.639760,-0.515793,-0.794000,-0.679617,-0.977660,0.961486,0.772637,0.255287,-0.497604,0.536180,0.353618,0.000000
-0.148350,0.812677,-0.429670,0.806574,0.299478,0.776666,-0.725211,0.916013,-0.158300,-0.152440,0.280252,0.247841,-0.600452,-0.290750,-0.910581,-0.472457,-0.983642,-0.896603,-0.348308,0.643971,0.818964,0.000000
-0.914243,0.318277,-0.812311,0.485336,0.296487,0.433515,0.161107,-0.014924,0.779656,0.125706,0.674245,0.883358,0.857906,-0.508286,-0.070284,0.777154,0.736992,0.704825,0.040620,-0.976623,-0.377239,0.000000
-0.290384,-0.085788,0.079684,0.197302,-0.373516,-0.179846,-0.265236,-0.887997,-0.691946,-0.447798,-0.307169,-0.115818,0.528855,-0.625660,0.213050,0.402509,-0.336161,-0.428388,-0.926389,-0.474410,0.337504,0.000000
0.901486,-0.162145,0.416364,0.944456,0.871761,0.544420,-0.782647,-0.737175,-0.949278,0.352153,0.593188,0.100192,-0.110996,0.804621,0.164464,-0.248878,-0.715445,0.633106,0.245216,0.850398,0.637623,0.000000
-0.989929,-0.217200,0.633106,-0.329814,0.835627,0.850826,0.454756,-0.387249,0.775323,0.127354,-0.649037,0.975402,0.157384,-0.026154,-0.735282,0.991272,0.217444,-0.561510,0.308329,0.123264,-0.065279,0.000000
0.009849,0.248817,0.509079,-0.257424,0.629200,0.098727,-0.200354,0.963744,0.934629,-0.962767,-0.280496,-0.755852,0.902402,-0.996521,0.025422,0.532945,0.036470,-0.873959,-0.783563,0.339640,-0.139439,0.000000
0.899899,0.603381,-0.315348,0.322123,0.840144,0.040132,-0.743339,0.285989,0.886410,0.318705,0.632557,0.363079,-0.773003,0.551622,-0.215796,-0.238685,-0.282632,0.532395,0.706534,-0.743644,0.403729,0.000000
-0.036836,-0.683828,-0.398419,0.555895,0.490036,-0.399091,-0.578845,-0.537767,-0.544237,-0.712577,-0.995605,0.405194,-0.055818,0.248878,0.708609,0.596728,-0.712882,-0.434492,0.072787,-0.204016,-0.505417,0.000000
0.369121,-0.253945,0.956114,-0.149571,0.519333,0.442305,-0.711173,-0.301492,0.331462,0.402081,0.055330,-0.441816,-0.390728,0.373394,-0.636341,-0.714469,-0.338481,-0.267556,0.026093,-0.654530,0.013092,0.000000
0.976379,0.058809,0.267128,-0.760186,-0.986816,-0.689077,-0.300760,-0.888485,-0.622181,0.615711,0.905515,0.834346,-0.504807,0.627247,0.022797,0.363323,-0.475265,-0.634754,0.324992,-0.922300,0.227882,0.000000
0.842280,-0.609241,-0.860836,0.470077,0.230384,-0.365215,0.137486,-0.743950,-0.055940,-0.557970,-0.162755,0.080905,-0.799371,0.154576,0.444807,0.508774,-0.736198,-0.732109,-0.994507,0.081759,-0.158300,0.000000
-0.307413,0.352885,0.321451,-0.069185,0.149144,-0.451094,-0.315775,0.424360,-0.047517,-0.857662,-0.878353,0.275368,0.973937,-0.806940,0.163244,0.501999,0.196020,0.550462,-0.928953,-0.561205,0.517869,0.000000
0.264870,0.286782,-0.262185,-0.945616,-0.318888,-0.874630,-0.150548,0.855220,-0.663625,0.760430,0.450240,-0.588183,-0.953246,0.754082,0.506516,0.537400,-0.456099,0.551012,-0.963561,0.344768,0.060457,0.000000
0.775017,-0.058626,0.523850,-0.713553,0.223304,-0.487655,-0.231361,0.532151,0.366192,0.978820,-0.343486,-0.724845,-0.534104,0.426923,0.624622,-0.525010,0.288797,-0.453291,0.203955,-0.559130,-0.652577,1.000000

-0.175695,-0.340007,0.991821,0.716666,0.327555,-0.176916,-0.026276,0.269692,-0.357280,-0.706229,0.915036,0.520310,-0.756340,-0.922605,0.853694,-0.924070,0.722892,0.139378,0.833003,0.672231,0.877010,0.000000
0.237709,0.535813,0.304178,-0.957884,-0.471847,-0.290811,0.330119,-0.166723,0.747490,-0.927793,0.291726,0.874813,0.684744,-0.117405,-0.089145,0.242653,-0.976318,0.767205,0.143834,-0.121433,-0.914792,0.000000
0.665700,-0.489853,-0.228675,-0.744316,-0.270424,0.400555,-0.260842,0.554674,-0.836665,-0.365764,-0.291238,-0.676504,0.966979,0.618213,0.006989,0.638844,0.706229,0.901059,-0.493210,0.230445,-0.714225,0.000000
-0.065462,0.722465,0.667714,0.813227,-0.070467,0.624378,-0.255531,-0.171117,0.595508,-0.990966,-0.360698,0.021699,0.830744,0.116977,0.895260,0.248573,0.086581,-0.986999,-0.333171,0.655507,-0.952940,0.000000
0.796930,0.857784,0.553087,-0.759819,-0.724784,0.019074,-0.969665,-0.333171,-0.350688,0.443281,-0.166906,-0.949522,0.528672,0.026154,0.761773,0.562853,-0.886105,0.440107,-0.967772,-0.242225,-0.842219,0.000000
0.221778,-0.400922,0.770257,0.577624,-0.673879,-0.243812,0.269875,0.243934,-0.731986,0.241066,0.704764,-0.176183,0.304605,-0.485214,0.384136,0.575365,0.169958,-0.041292,0.621082,-0.139622,0.191992,0.000000
0.855647,-0.458296,0.708670,-0.040559,0.135289,-0.579211,-0.749016,0.019807,0.578417,-0.782769,0.503220,-0.763665,-0.844478,-0.897641,0.405255,-0.485580,0.656972,-0.262978,0.134617,0.698172,-0.659169,0.000000
0.395856,-0.611072,-0.506455,0.885006,0.145726,0.880184,-0.764641,-0.169958,-0.372784,0.167455,0.550035,0.866390,0.701895,0.072726,-0.984130,-0.761162,-0.977355,-0.800653,-0.251076,-0.373882,-0.911679,0.000000
-0.051302,-0.702384,-0.772088,0.136143,-0.169225,0.899411,0.419477,-0.991638,0.102329,-0.281411,-0.964415,0.177343,0.858211,-0.718192,0.145299,-0.974364,-0.930601,0.021088,0.455672,0.884396,-0.580798,0.000000
0.272500,0.793878,-0.911374,-0.424543,-0.464217,-0.620411,0.692557,0.578845,-0.872188,0.745720,-0.155675,-0.769768,-0.274819,0.336100,-0.077303,0.030427,0.625599,0.128086,0.642628,0.884579,-0.759575,0.000000
0.844905,0.918332,-0.678030,0.850215,-0.587207,0.136937,-0.314493,0.753471,-0.247536,0.965819,-0.809137,-0.652516,0.951659,-0.997131,-0.055940,-0.814936,0.483932,0.495895,-0.707755,0.855281,-0.267617,0.000000
0.022980,0.864986,-0.844905,-0.264626,-0.011933,0.836482,0.405927,-0.034883,0.613636,0.373028,-0.875179,-0.532578,-0.714957,0.891537,0.267739,0.420087,-0.520127,-0.890011,0.316141,0.141758,0.197241,0.000000
0.224219,0.587573,-0.882504,-0.510117,-0.904294,0.126804,0.739616,0.942869,-0.691580,-0.966308,0.525926,-0.206580,0.760735,0.424604,-0.211463,0.000212,-0.675283,-0.237404,-0.487289,0.349223,0.557787,0.000000
0.151341,0.164403,0.660268,0.381878,-0.084323,0.177709,0.475326,-0.286843,-0.060945,0.149632,0.341899,-0.543565,0.362224,0.629994,-0.215369,0.259255,0.654164,0.377667,0.558946,-0.463179,0.479659,0.000000
0.565355,-0.097629,-0.703665,0.082003,0.096225,0.992981,-0.607044,0.665883,-0.747368,-0.727775,0.952574,-0.550401,0.104648,-0.604236,-0.981872,0.920469,0.987060,-0.358745,0.191076,-0.488083,-0.102023,0.000000
0.372723,0.176489,-0.065889,0.325053,-0.574694,0.443098,0.260781,-0.105319,0.643544,0.199499,-0.403546,0.807306,0.340800,0.565172,-0.040071,0.312357,-0.714042,-0.957396,-0.053621,-0.930235,0.508042,0.000000
-0.104709,-0.790338,0.365886,-0.849483,-0.549974,-0.994507,-0.190344,-0.686270,0.631397,0.414289,-0.716910,0.870296,0.928404,0.819758,-0.715262,-0.061251,0.714286,0.706290,0.833796,0.656606,-0.168004,0.000000
-0.784783,0.585498,-0.915097,0.255226,-0.532090,-0.221961,0.662404,0.641102,0.721000,0.134983,-0.769829,0.830805,-0.781976,-0.721427,-0.371319,0.866817,-0.199377,0.778863,0.386212,-0.014924,0.150426,0.000000
0.427412,-0.094211,0.735466,0.462752,-0.245582,-0.513840,0.737663,0.201697,-0.310038,0.814020,-0.219153,-0.171911,-0.629688,-0.298074,0.335978,0.019440,0.388043,0.369915,0.060518,0.122349,0.065340,0.000000
-0.230323,-0.020478,-0.190649,-0.518601,-0.974487,-0.931394,0.216102,-0.995300,-0.123020,-0.556078,-0.286111,-0.781671,-0.686392,-0.371441,-0.086337,-0.324137,0.206275,0.173376,0.116001,-0.826716,-0.513474,0.000000
0.321390,-0.479415,-0.833674,-0.116611,0.366314,0.848445,0.854671,0.804193,0.611133,-0.018036,-0.122715,-0.154393,0.891598,-0.531114,0.331401,-0.410810,-0.350078,0.024079,-0.505234,-0.861019,-0.603870,0.000000
-0.613086,-0.988403,0.393231,0.158239,-0.755791,0.985229,0.157994,-0.209021,-0.208045,0.798578,0.346538,0.736747,-0.890805,0.457259,-0.121189,-0.475448,0.704886,0.715201,-0.618030,0.365520,-0.865169,1.000000

0.612049,0.946348,0.043062,-0.097934,0.627125,-0.539415,-0.315775,0.920713,-0.797540,-0.024262,-0.774163,0.400372,-0.988891,-0.025483,0.141575,-0.665822,0.785943,-0.565111,-0.711295,0.316080,0.280496,0.000000
-0.951170,0.269265,0.819330,-0.307657,-0.096713,-0.623768,0.047151,0.076022,-0.429609,-0.184240,-0.046480,-0.420392,-0.883053,0.288125,0.829096,0.997375,0.680410,-0.742363,0.062105,-0.429060,0.585620,0.000000
0.025666,0.442793,-0.026826,-0.467086,-0.025788,-0.554247,0.671682,0.961913,-0.745659,-0.304361,-0.556017,0.771722,-0.591968,-0.353984,-0.714164,-0.740837,-0.984558,0.708731,0.149083,-0.371197,0.343669,0.000000
0.525010,0.795160,0.558580,0.754875,-0.488510,-0.006256,0.809503,0.032502,-0.556261,-0.031465,0.760002,-0.803644,-0.530442,-0.305338,-0.178442,-0.683401,0.871700,0.522629,-0.213111,-0.009125,-0.877499,0.000000
0.861812,0.219764,0.175817,0.724357,0.304605,0.461959,-0.092502,0.283486,-0.661977,0.075228,0.027131,0.348003,-0.801447,-0.873959,-0.895383,-0.174963,0.967650,0.805353,0.816828,0.288797,-0.592700,0.000000
0.975280,0.199194,-0.340068,-0.688955,0.744682,0.575304,0.441328,0.200049,0.708182,-0.010102,-0.150731,-0.670217,-0.882565,-0.733146,-0.240455,-0.372417,-0.060640,-0.892941,-0.021943,-0.730827,-0.652150,0.000000
0.379925,-0.593799,-0.168249,0.861507,0.863948,-0.882015,-0.730644,0.268960,-0.882504,-0.490707,0.706473,0.933164,0.502792,-0.961547,-0.242225,-0.873592,-0.513474,0.782342,0.498093,-0.373577,0.163732,0.000000
0.582202,-0.366985,-0.451643,0.890866,-0.504807,-0.467635,0.757622,0.124546,0.294107,0.257607,0.580798,-0.098117,0.541063,-0.355449,0.447432,0.241493,-0.265908,0.924070,-0.343547,0.896664,-0.263405,0.000000
0.772515,0.556566,0.388897,-0.076022,-0.288553,-0.909543,-0.406354,0.815302,0.659108,-0.196570,0.368877,0.384625,-0.016633,-0.445357,-0.394269,0.068209,0.495224,-0.730644,0.837336,0.348430,0.158788,0.000000
0.672475,0.532029,0.836909,0.971862,0.501083,0.226173,0.529893,-0.362346,-0.444868,-0.335978,-0.475570,-0.407270,-0.433882,-0.834284,-0.392010,0.051973,0.187780,0.104648,-0.107700,0.341838,0.863094,0.000000
-0.027253,0.694449,0.763054,-0.146031,-0.488937,-0.252785,0.348003,0.486068,0.869442,-0.022492,-0.760674,0.529954,0.345439,-0.270913,0.692251,-0.229408,0.720267,0.437178,0.238319,-0.091708,-0.342998,0.000000
0.831843,-0.040681,-0.362224,0.727409,0.261696,0.324747,-0.866878,0.997070,-0.007843,0.182409,-0.674062,-0.557238,0.654286,0.586535,0.599170,0.420515,0.677969,0.567858,-0.244118,-0.209693,-0.903134,0.000000
-0.307413,-0.147618,0.662526,-0.242347,-0.082553,0.395856,0.698599,0.286721,-0.792718,0.638417,0.043062,0.303385,-0.900937,-0.840022,-0.898251,-0.392865,-0.017365,0.860286,-0.730155,-0.265114,0.686392,0.000000
0.643056,-0.722953,0.816157,0.085299,0.480270,0.095004,-0.679189,0.976501,-0.528794,-0.462447,-0.051729,-0.393170,0.716117,0.638356,0.817194,-0.023041,0.006562,0.721976,0.327921,0.124546,-0.931761,0.000000
0.653554,0.190283,-0.852596,0.736564,-0.557299,0.290078,-0.744377,-0.848079,0.973998,0.600208,0.101291,0.992431,0.814203,-0.300211,-0.679617,0.061312,0.705374,-0.455672,-0.045686,0.300150,0.837886,0.000000
0.657033,-0.607959,-0.649586,-0.788263,-0.121128,-0.263588,-0.223853,-0.871517,0.514512,-0.552843,0.922239,-0.908444,-0.738456,-0.252358,-0.095614,0.276711,-0.457381,0.982605,0.871883,0.695669,0.684744,0.000000
-0.318827,0.453597,-0.569323,-0.494247,-0.229530,0.575060,-0.948851,0.977782,-0.051118,-0.144444,0.962096,0.596118,-0.072054,-0.257912,-0.254250,-0.924131,-0.505234,0.567675,-0.865780,0.873959,0.972839,0.000000
-0.914243,0.795038,-0.718680,-0.555834,-0.017304,-0.291238,0.281655,-0.771172,-0.128513,-0.378643,-0.693533,-0.031587,0.203162,0.840144,0.819697,0.790704,-0.547533,0.264321,-0.913938,0.848994,-0.264992,0.000000
-0.302652,-0.386395,-0.022248,0.229408,0.222938,0.811090,-0.272744,0.671804,-0.754204,0.834590,-0.033906,-0.682058,0.655141,0.816828,0.669851,0.964415,-0.481307,0.364544,0.661000,0.580615,0.232154,0.000000
-0.384136,-0.633656,0.576403,-0.112461,0.257363,0.637379,0.068087,-0.023957,-0.761773,0.212744,0.653737,0.497482,0.164830,0.530198,0.304910,0.523301,0.356426,-0.144322,-0.297586,-0.144261,0.400311,0.000000
0.912290,-0.729545,-0.581164,0.425520,0.731376,0.828364,-0.254006,-0.501450,-0.711661,0.375530,0.356120,-0.609485,-0.055818,-0.908689,-0.361003,0.503891,-0.829707,0.920103,0.106906,-0.700858,-0.115146,0.000000
-0.067293,-0.292886,-0.130345,0.613514,0.049348,-0.961852,-0.589038,0.620228,0.934019,-0.056490,-0.340678,0.068148,-0.035188,-0.591479,0.531175,0.897885,0.438154,-0.626026,0.825922,0.126438,-0.439192,1.000000

-0.505173,0.189184,0.480209,0.520310,-0.606677,-0.055635,-0.937132,-0.960936,0.509384,-0.131321,-0.889889,-0.895932,-0.403974,-0.056368,-0.932066,0.521775,0.220069,-0.506149,-0.042207,0.484420,-0.402264,0.000000
0.381207,-0.955626,0.712760,-0.807001,0.347087,-0.031404,0.113865,0.524216,-0.905026,0.255837,0.880367,0.192602,-0.673086,-0.015168,0.260170,-0.572680,0.553575,0.455245,-0.975158,0.549730,0.586596,0.000000
0.215430,-0.171545,-0.755242,-0.874874,0.419660,-0.364727,0.304666,0.242286,0.223304,0.991760,-0.758782,0.670278,0.637806,-0.408551,0.552965,0.776299,0.498093,-0.284585,0.417158,-0.098666,-0.013825,0.000000
-0.990600,-0.163488,0.189001,-0.784906,0.833125,-0.767022,-0.913022,-0.788507,0.272012,-0.686270,0.686209,0.557726,0.940123,-0.791253,0.764824,-0.011750,0.230811,-0.463668,-0.686026,0.565966,0.746940,0.000000
-0.591968,0.504196,0.046968,-0.925840,0.401166,0.200171,-0.481613,-0.997253,0.558641,-0.906552,-0.857723,0.284463,-0.906735,-0.838496,-0.236122,-0.792108,0.129368,0.166356,-0.160863,-0.673208,0.413373,0.000000
-0.142430,0.108310,0.466536,0.745598,0.165380,0.356365,0.360576,-0.676138,-0.799860,-0.488144,-0.721122,-0.114841,-0.840754,-0.459212,0.146703,0.086703,0.756035,0.305521,0.307108,-0.958983,0.086642,0.000000
0.610950,0.426740,0.030976,0.078524,-0.213172,0.697928,-0.990112,0.899838,-0.628040,-0.001373,-0.279275,0.895627,-0.733696,0.736198,-0.994507,-0.476363,0.072359,-0.122105,0.701651,0.125889,0.493332,0.000000
-0.069246,-0.777581,-0.542772,-0.239784,0.222083,0.292947,-0.220496,0.681997,-0.234413,-0.731620,0.741447,0.960509,-0.615467,0.012604,0.965209,0.933226,-0.954894,-0.040437,-0.663015,0.535447,-0.339091,0.000000
0.574389,-0.847957,0.053011,0.508286,-0.108554,-0.500900,-0.417890,0.421918,-0.737175,0.400983,0.936766,0.874813,0.648305,-0.991150,0.804804,0.721854,0.829157,0.012421,-0.667470,0.274392,-0.005829,0.000000
-0.194189,0.705008,0.941527,-0.620289,0.335917,-0.644765,0.046175,-0.905637,-0.479232,-0.218177,0.691153,-0.387310,0.192053,0.304361,-0.851497,0.767937,-0.033357,-0.122471,0.565661,-0.725333,-0.510971,0.000000
0.709525,0.144566,-0.650502,0.933653,0.511093,0.017975,-0.579577,0.945860,-0.854793,-0.509568,-0.930052,0.533921,-0.015412,0.282571,0.473922,-0.997742,0.295450,0.460250,-0.567431,-0.737968,0.511521,0.000000
0.949156,0.158666,0.603381,0.222999,0.861507,0.370525,0.852718,0.147252,0.134678,-0.748466,0.017975,-0.365947,-0.950560,-0.399640,0.594897,0.356182,-0.544908,0.430586,-0.543748,0.416242,0.949217,0.000000
0.143040,0.234413,-0.686636,0.133396,-0.021699,0.188025,-0.672658,0.189245,-0.595019,0.985961,0.888607,-0.063448,0.385846,0.349528,-0.560289,-0.400739,0.427534,-0.394879,-0.458052,0.361675,0.042024,0.000000
-0.470687,-0.695669,-0.947325,-0.828669,0.736259,-0.582080,0.279763,0.385113,0.396588,0.693350,0.229591,-0.362835,0.208350,-0.385479,-0.214942,0.528916,0.487228,-0.898556,-0.276223,-0.968993,-0.216712,0.000000
-0.651662,0.249001,-0.625843,0.436506,-0.699698,0.758049,-0.778069,0.049471,-0.541246,-0.051912,0.057772,-0.540086,-0.028413,-0.578478,-0.399640,-0.956542,-0.615711,-0.276406,0.134251,0.317484,-0.211402,0.000000
0.312052,-0.186315,-0.650807,0.444502,0.605090,-0.583483,-0.788751,-0.352702,-0.171300,0.727714,0.889767,-0.029450,-0.187231,-0.224403,0.126743,0.748466,0.444014,-0.989196,0.217444,-0.860286,0.220863,0.000000
0.095126,0.336772,0.932859,-0.811274,0.167577,-0.900754,-0.846248,0.041231,0.048189,0.733207,0.833979,-0.756584,-0.572985,0.645314,0.051668,-0.589953,0.073397,-0.773797,0.476302,-0.067904,0.172033,0.000000
-0.086154,0.877071,-0.325602,-0.885128,0.646412,0.993652,-0.480392,-0.582629,0.404889,0.757012,0.511887,-0.213172,0.580187,-0.529954,0.502182,0.528245,-0.425031,0.734611,-0.181677,0.866512,-0.203589,0.000000
0.382488,0.645253,-0.083407,0.467879,-0.079012,-0.268105,-0.932493,0.254677,0.280435,0.344951,-0.546739,-0.259011,-0.094638,0.005829,-0.736992,-0.433027,0.454634,-0.411420,-0.494125,-0.137730,-0.175634,0.000000
-0.083956,-0.980102,-0.043855,-0.810419,0.334208,-0.493881,-0.189123,-0.073519,0.843501,0.261818,0.183325,0.112827,0.258461,0.434004,-0.721183,-0.835810,-0.998474,0.361248,0.094089,-0.722282,0.032319,0.000000
-0.644826,0.318155,0.038301,-0.841670,0.273476,-0.542711,0.449629,0.116733,0.506455,0.491379,-0.108005,0.332682,-0.835017,0.846614,-0.570910,-0.448653,0.786920,0.624317,0.000699,-0.576342,0.547960,0.000000
-0.656911,-0.223121,0.692251,0.423627,0.249977,-0.941771,-0.163549,-0.341899,0.698233,0.794916,0.384686,0.552843,0.691397,0.106357,0.107089,-0.104465,-0.798028,-0.663015,0.395306,0.007233,0.538743,1.000000

-0.162572
0.087008
0.838740
0.092868
0.770501
-0.486190
-0.334696
0.936583
0.335368
0.332255
-0.731254
0.156957
-0.039338
-0.539781
0.282937
0.689505
-0.670827
-0.618091
-0.341289
-0.528428
-0.741386
-0.245643
