0.032592,0.979598,2.286200,0.064629,-0.062906,-0.646018,1.843425,-0.243823,6.022313,0.547667,0.714503,-2.020906,-0.791162,1.775731,0.710240,3.071781,0.192915,0.857792,1.642742,0.369892,-4.622527,0.000000
-1.015529,-1.492545,-0.213460,0.376350,-0.092973,-0.732853,1.031114,0.621502,8.030625,-0.551895,-1.239258,1.406701,0.988370,1.712066,-1.859915,1.186204,0.768547,-1.673229,-0.788518,-0.644529,-1.913863,0.000000
0.208761,0.481114,0.290551,-0.410687,0.666077,-0.981998,-0.916001,0.309950,-1.001795,0.325122,0.129667,0.392267,-0.042490,-0.012717,0.136877,-0.163357,0.761794,0.765916,0.495128,0.916918,-0.064284,0.000000
-0.088250,0.032042,-0.760582,0.203198,0.133045,-0.297173,0.238144,0.452823,0.757229,-1.002020,0.864077,1.119595,1.104919,0.283601,0.045082,-0.214213,0.321744,0.459471,0.699090,-0.610343,-0.380917,0.000000
-0.064934,-0.062803,-0.050124,0.025279,0.014559,0.003455,0.074371,-0.021406,-0.010351,-0.029833,-0.033342,0.036354,0.047270,0.075192,-0.008651,0.066411,0.012225,-0.015422,-0.048554,0.008867,-0.052775,0.000000
0.630551,-0.645677,-0.428381,0.506343,0.535726,-0.286697,-0.109074,0.520014,-0.605905,0.321182,-0.534617,0.256343,0.547821,0.817396,-0.831402,-0.616199,0.014224,-0.098567,-0.371355,-0.383766,-0.613210,0.000000
0.330152,0.055507,-0.510832,-0.608193,-0.531832,-0.171314,0.742727,0.737848,-0.783316,-0.147022,-0.409388,0.253597,0.260996,0.898091,0.986656,0.013187,0.473478,0.865319,0.605168,-0.755591,0.098783,0.000000
16.170549,15.077193,10.598940,-5.280402,-2.104141,0.063451,-18.519241,4.805212,-20.514610,7.711163,8.945357,-8.654083,-13.180156,-18.743370,4.479147,-19.486069,-4.291100,5.448029,9.935369,-0.980469,18.503941,0.000000
5.261758,5.644358,3.815281,0.063290,-0.016927,-0.588044,-7.939871,1.058953,-5.758768,1.714319,1.834471,-2.497634,-4.098141,-7.309152,0.877641,-6.676136,0.337230,0.354750,4.349238,-0.147353,7.953374,0.000000
-0.602462,0.807740,-0.739897,-0.921529,-0.569500,0.105688,0.283632,0.010362,0.924857,-0.294682,-0.117090,-0.333849,0.601246,-0.441889,-0.951537,0.050440,-0.046377,-0.622388,0.457372,0.562616,0.568485,0.000000
-1.133468,-1.296505,0.026501,0.411193,1.007347,0.429510,1.381142,-0.232747,0.834317,-0.003125,-0.086930,0.506555,1.613458,1.413152,-0.754516,0.087583,-0.200956,-0.909862,-1.010374,0.594471,-0.449524,0.000000
-0.576627,0.772433,-0.047271,0.397523,-0.433479,-0.319022,0.610136,-0.798152,-0.553066,0.550750,-0.809797,-0.406302,-0.561076,0.936719,0.313243,-0.249101,-0.766524,0.170117,-0.668412,0.773953,-0.972691,0.000000
-1.762206,-1.218123,-0.875755,-1.105194,-1.203881,0.484907,3.856304,0.203039,9.472950,-1.191793,0.722827,0.449773,1.851006,3.455800,0.319158,3.987701,-0.098283,-0.232749,-0.465802,-0.560890,-5.456453,0.000000
-0.259802,0.904102,0.612395,-0.855888,0.538320,0.752689,0.705285,0.646391,-0.296188,0.651296,0.510852,0.425672,0.822050,-0.913051,-0.367693,-0.737514,0.641751,0.236735,-0.638469,-0.102258,0.257531,1.000000

-0.000729
0.000125
-0.000477
0.000566
0.000138
0.000624
-0.000110
0.000001
-0.000104
0.000317
0.000104
-0.000200
0.000011
-0.000047
0.000863
0.000275
-0.000234
0.000499
-0.000123
-0.000403
0.000355
0.105636
