0.687093,-0.651134,-1.604735,-0.484500,-1.938180,0.944915,-0.586764,-2.434037,0.701376,1.357649,-1.235795,0.824901,0.304763,0.184385,1.072754,0.216020,-0.461895,-1.287813,-0.244626,1.253911,-2.154644,0.000000
-0.093332,-0.323180,-2.088152,0.148387,-2.099196,-0.137482,0.882186,-2.623229,0.070967,2.455984,-0.531300,0.478825,0.769927,-0.607262,0.472945,0.072300,0.006441,-0.245468,-0.497214,0.334680,-2.361986,0.000000
0.250323,0.320158,-2.374045,-0.561229,-1.771015,0.328900,-0.713795,-2.637630,1.015339,2.035079,-0.834991,0.802949,0.304910,-0.335943,1.175027,-0.091901,-0.945260,-0.316292,0.179272,1.153915,-2.336409,0.000000
-0.362316,-0.636113,0.108750,0.421739,0.567906,0.359682,0.485231,-0.970921,-0.869522,-0.612699,0.205528,0.558755,0.838088,0.011957,-0.097157,-0.239277,-0.584363,0.261978,0.593770,-0.312118,0.101357,0.000000
0.707450,-0.940611,0.767266,0.862239,-0.510178,-0.695730,0.695914,0.649709,-0.040925,0.538804,0.943480,-0.844050,0.510849,0.510666,0.534959,0.269021,-0.639882,-0.425825,0.842341,-0.707999,-0.091037,0.000000
0.320277,0.944377,-0.476953,0.688336,-0.772873,-0.702361,0.651790,-1.606188,1.316118,1.228952,-1.349703,0.486787,0.697114,0.671781,-0.387311,0.686261,0.406179,-1.509351,-1.042099,0.352464,-0.579711,0.000000
-0.615366,0.835540,-0.740127,-1.035400,-1.407705,1.109311,0.116047,-1.992981,1.364137,2.274407,-1.089053,0.074471,0.569301,-0.341303,1.019350,-0.228086,-0.776915,-0.753099,-0.534705,1.419246,-1.216389,0.000000
0.148460,0.877883,-1.906687,0.082660,-2.899656,1.328926,-0.174296,-0.916607,0.167812,2.418394,-0.664150,-0.123691,-0.013590,0.229543,0.006318,0.341778,-0.677894,-0.954736,-0.618461,0.574944,-2.150054,0.000000
0.741924,0.451950,-2.110198,-0.840945,-2.219605,-0.405423,0.737633,-2.601320,1.308669,2.315217,-1.589806,1.203105,0.783088,0.552440,0.571871,0.116568,-0.592520,-0.886046,-0.115121,-0.133314,-1.252495,0.000000
-0.163420,-0.365512,-0.882069,-0.607358,-0.785608,1.045293,-1.047227,-1.655983,0.185567,1.444236,-1.788634,-0.310089,0.588747,-0.347073,-0.173570,0.619537,-1.227935,-0.169868,0.144614,0.506756,-1.072361,0.000000
0.565806,-0.126187,-1.263903,-0.364495,-2.924063,1.195705,-0.595588,-1.251482,1.442254,1.854627,-0.779684,0.869275,-0.588293,0.840533,0.210437,-0.245483,0.006293,-0.375567,-1.181282,0.884776,-1.862108,0.000000
0.028480,1.037845,-1.390751,0.607980,-1.184866,0.661842,0.333006,-2.673339,1.089413,0.866930,-1.241700,-0.192821,0.349785,-0.836550,0.590523,0.957577,-1.321465,-0.291956,-1.422836,-0.292236,-1.275286,0.000000
0.515078,1.356097,-3.143152,-0.057677,-4.329560,1.484358,-1.127838,-2.653521,2.168695,2.597388,-2.915642,1.781220,-0.010706,-0.630124,0.584413,0.902140,-1.111079,-2.425771,-2.062866,0.034648,-2.227069,0.000000
0.341050,0.988295,0.434278,-0.156145,0.115652,0.343810,0.615310,-1.192622,0.552211,0.923500,0.364941,0.388012,-0.272445,0.472417,-0.517742,-0.502750,-0.062886,-0.577300,-0.155022,0.775757,-1.335466,1.000000

0.233542,0.387292,-0.641700,0.649894,0.662551,-0.654625,-0.904018,-0.045318,-0.154366,-0.420921,-0.074779,-0.480450,0.586611,0.443752,-0.157691,0.151775,0.548262,0.800550,-0.991015,-0.151237,1.020544,0.000000
-1.014542,-0.573309,-0.568431,-0.269628,-0.540678,1.002189,-0.101478,-0.257969,-0.695870,0.202789,-1.104397,-0.511356,-0.576348,-0.632638,0.407956,0.157619,0.479729,0.686207,-0.925945,-0.071563,-0.436679,0.000000
-0.681123,-0.950442,-0.744568,0.839392,-0.338915,0.143310,-0.488695,0.523233,-0.737982,0.237148,0.931933,-0.693996,-0.169543,-0.301036,0.116151,-0.687432,-0.623089,-0.553941,0.413980,0.446944,-0.575574,0.000000
-0.210648,-0.914003,-0.785770,-0.595963,0.756543,-0.332042,-0.983033,0.083461,0.228020,-0.761960,0.668049,0.684040,0.532244,0.162451,-0.551685,-0.922893,0.244525,0.111797,-0.562362,0.589271,0.467979,0.000000
0.574112,-0.096639,-0.508391,-0.123926,-0.561979,-0.693230,-0.727180,0.128223,0.709514,0.869446,0.549745,-0.334595,-0.237086,-0.480566,0.958679,-0.509184,-0.820586,-0.402630,-0.626031,-0.921692,-0.364973,0.000000
-0.182201,0.741182,0.408441,0.244074,0.117415,-0.056847,-0.136321,-0.162721,0.711969,-0.777316,-0.396949,-0.413938,-0.166931,0.584358,-0.298116,-0.658027,1.089218,0.207149,-0.817094,-0.545378,0.488576,0.000000
-0.765445,-0.875627,-0.526742,0.558458,-0.417824,0.576909,-0.047437,-0.045542,0.444180,0.933635,0.063313,0.618483,-0.051482,0.962360,0.546614,0.123867,-0.332550,0.921366,-0.054202,-0.832322,0.677840,0.000000
0.282583,0.013856,-0.691595,0.827442,-0.815241,-0.801968,-0.767403,0.403303,0.700302,-0.141391,0.399713,-0.946007,0.731554,-0.986244,0.504333,0.104684,0.042033,0.261939,0.939336,0.452564,-0.003840,0.000000
-0.052756,0.051094,0.396265,0.779656,-0.043984,0.432417,0.351640,0.030804,0.543766,0.945077,-0.717168,0.261180,-0.329263,0.894967,0.905722,0.390826,0.734771,-0.653627,-0.450274,-0.344765,-0.933504,0.000000
0.412924,0.380269,-0.094466,-0.779736,0.076186,0.874670,0.393266,-0.570349,-0.419759,1.058354,-0.409913,0.721269,0.102164,1.171242,0.058928,-0.298441,0.873500,0.538278,-0.323131,0.578440,0.586160,0.000000
0.638192,-0.639229,0.285003,0.576564,-0.596016,-0.095568,0.169578,-0.658338,0.139070,-0.655921,-0.797060,0.593322,0.544104,-0.868609,-0.934934,-0.935821,-0.305472,-0.590243,0.090046,-0.796801,0.958547,0.000000
-1.041054,-0.398479,-0.670360,-0.370476,-0.345670,0.133855,-0.226519,-0.947781,-0.028111,-0.425115,0.413778,-0.484087,0.393595,1.018682,-0.602200,-0.463665,0.127192,-0.511272,-0.665239,-0.205355,-0.044094,0.000000
-0.798622,-0.937971,0.797243,0.834811,0.407633,0.048378,-0.716653,-0.472656,-0.387865,0.160582,-1.110916,0.821741,-0.749364,-0.648369,0.201886,0.079969,0.951491,-0.785263,0.632154,-0.178499,-0.060047,0.000000
-0.677447,-0.059321,0.062131,0.083893,-0.039669,-0.259224,-0.560817,0.457751,-0.709393,-0.160632,-0.482917,0.712935,0.701815,-0.735409,-0.111410,0.516941,0.528315,-0.910152,-0.740552,-0.379675,0.038628,0.000000
-0.731941,-0.871619,0.962879,0.731568,0.767311,0.882107,0.991512,-0.178514,-0.778914,-0.779742,-0.826050,-1.009813,-0.462288,0.291763,-0.039071,0.139997,-0.261912,-0.643184,-0.026429,-0.445621,0.610895,0.000000
-0.136007,0.308096,0.820479,0.130876,-0.765602,0.814113,-0.857127,0.900080,-0.436114,0.908273,-0.031983,-1.042243,0.838645,-0.376034,0.354348,-0.224438,0.404633,0.023146,0.634910,-0.229556,-0.796098,0.000000
0.145763,0.949969,0.049933,0.526819,-0.156938,-0.714022,0.673095,0.399303,0.236886,-0.694259,-0.701477,0.517037,0.445080,-0.590292,-1.021521,-0.622711,0.997852,-0.208239,-0.524367,-0.936246,0.310468,0.000000
-0.734047,0.235924,0.494901,0.751508,-0.248010,0.168381,-0.115203,-0.276940,-0.454619,-0.764995,0.194507,-0.537568,-0.802492,-0.400688,0.778648,-0.227975,0.056341,0.650722,-0.289622,0.002512,0.686133,0.000000
0.995485,0.395429,-0.679106,0.727727,-0.099845,-0.646397,0.565281,-0.624647,-0.619194,-0.574632,-0.677062,-0.143911,0.902802,0.530268,0.769047,0.372510,-0.264043,0.989846,0.070891,0.490686,-0.343038,0.000000
-0.032915,-0.061767,-0.279223,-0.966902,0.032447,0.933622,-0.573671,-0.262449,0.804564,-0.821173,-0.093407,0.420017,-0.996438,-0.018437,0.392460,0.549418,0.967310,-0.006459,0.871355,-0.385672,0.294403,0.000000
-0.723431,0.078734,0.866774,-0.199805,0.337731,-0.018843,-0.402959,-0.874773,0.165252,-0.748837,0.903170,0.107762,0.797048,-0.308500,0.467783,-0.818609,-0.872377,-0.435267,0.622342,0.061895,-0.694026,0.000000
0.765676,-0.127705,-0.399415,0.072809,-0.075492,0.175335,-0.557945,-1.011538,0.715746,0.704431,0.471041,0.478775,0.848538,0.318061,0.098425,-0.452843,0.477994,-1.001117,0.494918,-0.616462,0.746580,1.000000

0.084493,0.934268,0.408835,-0.429076,-0.896237,-0.132057,0.734916,0.073458,-0.574716,0.481490,0.634616,0.884999,-0.769792,-0.552259,-0.468452,-0.644032,0.063816,0.353665,0.747150,-0.686453,0.895520,0.000000
-0.092482,0.253128,0.587279,-0.725050,-0.424018,-0.192356,0.670278,0.889663,-0.267638,0.922544,0.090199,0.277674,-0.950854,-0.815822,0.372595,0.648915,0.915948,0.648900,0.151589,0.978576,0.207047,0.000000
0.771439,-0.701049,-0.511062,-0.885748,-0.207752,-0.737151,0.697317,0.338457,-0.966068,-0.008247,0.904301,-0.782024,-0.134641,0.002651,0.896570,0.546047,0.743956,0.557554,-0.521365,0.035972,1.014344,0.000000
-0.727823,0.065445,-0.046621,0.829834,-0.162660,-0.901103,-0.614734,-0.897464,0.125703,-0.215256,0.899138,-0.529331,0.008885,0.884434,-0.520332,0.555253,-0.359800,0.023232,-0.191776,-0.610096,-0.389729,0.000000
-0.530345,0.553104,0.122743,0.887558,0.467208,-0.029349,-0.791559,0.476784,-0.886347,-0.077004,-0.146038,-0.554665,-0.775323,-0.615223,-0.693812,-0.648103,-0.345789,0.747968,-0.131370,0.701773,0.777080,0.000000
0.138347,0.462300,-0.729864,-0.344466,-0.667746,0.352892,0.495261,-0.156103,-0.127319,0.461768,-0.372643,0.697279,0.001482,0.404596,0.976777,-0.266645,0.341110,0.594103,-0.627326,0.787713,0.111501,0.000000
0.379398,0.507248,-0.994551,-0.059521,0.497685,0.924986,0.118931,0.934388,-0.328657,0.464766,0.787082,0.380965,-0.520690,0.997009,0.181623,-0.417890,0.384369,-0.016792,0.181265,-0.965026,-0.268235,0.000000
-0.330833,0.266715,0.563816,-0.002183,0.349257,0.910520,0.551378,-0.126835,-0.319960,-0.882992,0.092678,0.986511,-0.944159,-0.576515,-0.582886,0.208777,0.383122,0.849936,-0.215339,0.069552,0.250552,0.000000
0.256347,0.512761,-0.787364,-0.028622,-0.644182,0.160234,-0.922544,-0.316925,0.149237,-0.418863,0.832934,-0.891512,0.434844,0.742430,0.837991,-0.646840,0.204228,0.352958,0.110500,0.760674,0.209331,0.000000
0.126461,0.183561,0.557856,-0.334615,0.879976,0.652081,-0.193414,0.910287,-0.704823,0.662954,-0.152850,0.800701,-0.472972,-0.265488,-0.475062,-0.931087,0.669305,0.187075,-0.587685,0.931150,0.677575,0.000000
-0.018567,0.249575,0.473963,0.787227,-0.347388,-0.014352,0.372478,-0.835267,0.271591,-0.217017,-0.442632,-0.821883,-0.373140,-0.886931,-0.304787,0.810419,-0.340636,-0.837011,0.364388,-0.195532,-0.626564,0.000000
0.210262,-0.902934,0.836387,0.788041,-0.170312,0.001377,0.405246,0.171417,0.322506,0.962401,-0.769759,-0.027576,-0.464475,-0.379959,-0.924604,0.915281,-0.453879,-0.354099,0.699916,-0.318339,-0.896693,0.000000
0.355579,-0.586540,0.122118,-0.422241,0.783368,-0.515264,0.146765,-0.246043,0.100227,-0.099811,0.194387,-0.220155,0.710991,-0.242667,-0.224041,-0.372066,0.734347,0.075497,0.019709,-0.395856,0.540603,0.000000
-0.175024,0.883448,0.099335,-0.851432,-0.347882,0.785887,-0.704825,0.541251,-0.743727,0.391853,-0.936236,0.944533,0.987807,0.669434,0.769171,0.378609,-0.736420,-0.113840,0.342396,-0.962951,-0.773287,0.000000
-0.098041,-0.478606,-0.467160,0.938773,-0.885667,-0.327274,0.078722,-0.816583,-0.516064,-0.148211,-0.031899,-0.440534,-0.927054,0.610840,0.001058,0.621365,-0.365879,0.595070,-0.573875,0.550035,-0.431839,0.000000
0.718076,0.665243,-0.264216,0.200011,-0.053154,-0.485622,0.014852,0.556370,0.974522,-0.839778,-0.947509,0.843990,0.310779,-0.077678,0.503267,0.015127,0.730133,0.874159,0.202655,-0.663320,0.398035,0.000000
0.588716,0.458037,0.802839,-0.922686,0.485802,0.950369,-0.559008,0.564233,-0.755079,-0.318642,0.449407,0.200640,0.365391,0.049686,0.836619,-0.370022,-0.380584,-0.706342,0.267010,-0.281716,0.133773,0.000000
0.376364,-0.977454,-0.376485,-0.325206,0.259000,-0.708365,0.184055,0.750776,-0.037837,-0.776543,-0.229709,-0.490837,0.704673,-0.181592,-0.698452,-0.136026,-0.520631,-0.504759,0.620196,-0.804987,-0.635476,0.000000
0.755445,-0.366477,0.968481,-0.424473,0.298874,0.694449,-0.348918,0.798532,0.927341,0.918455,-0.151272,-0.573043,-0.222602,0.072864,-0.390426,-0.381329,0.110317,-0.170644,-0.261116,-0.640004,0.053760,0.000000
-0.347204,-0.487533,0.960083,-0.342753,0.599848,-0.929563,0.867916,0.184847,0.442722,0.956420,0.606774,-0.713492,0.582456,-0.349869,0.455350,0.896176,-0.925669,-0.858638,-0.567370,0.699881,0.880471,0.000000
-0.606242,-0.638877,0.426303,0.052135,0.717570,-0.650610,-0.755669,-0.570062,-0.084319,0.163419,0.625560,-0.088226,0.946282,-0.937980,0.924172,0.537460,-0.598185,0.962495,-0.069922,-0.684500,-0.889615,0.000000
0.243143,0.576540,0.105072,-0.017634,-0.591478,-0.136702,0.390359,0.524432,0.727209,-0.465540,-1.064654,-0.708132,-0.059855,-0.132370,0.514950,0.874803,0.424101,-0.869330,0.436488,0.143895,1.061208,1.000000

0.202326,0.194730,-0.912778,0.948253,0.032164,-0.758049,0.952391,-0.203468,-0.264809,-0.635426,-0.696341,0.127091,0.295793,-0.292033,0.378039,0.994687,-0.133213,-0.168112,0.046918,-0.054325,0.421631,0.000000
0.038443,0.771543,-0.630193,-0.111496,0.913663,0.925957,-0.371319,0.056421,-0.897458,-0.739799,-0.215324,0.757193,-0.635365,-0.274714,-0.396542,-0.264258,0.495271,0.243443,-0.564761,0.731071,0.870428,0.000000
0.833613,0.134136,0.528306,0.462272,-0.087730,0.917783,-0.162978,0.827106,-0.008884,0.644459,0.643422,0.347649,0.902402,1.000000,0.024636,0.366521,0.927359,-0.018862,-0.186016,0.672842,-0.370923,0.000000
-0.554064,0.099976,0.506516,-0.639659,-0.208554,0.806329,-0.622181,-0.162494,-0.941343,0.929624,0.449324,-0.771561,0.663259,0.486464,-0.835144,-0.823458,0.191350,-0.181181,0.139132,-0.653798,0.451918,0.000000
-0.039815,0.929635,0.795526,-0.624289,-0.813174,-0.436569,0.623951,0.028345,-0.462447,0.806940,-0.975890,0.267411,-0.578234,-0.877702,-0.476012,-0.197716,-0.881520,0.255226,0.445794,0.578906,-0.601062,0.000000
0.399090,0.178806,0.502731,0.255920,0.191055,0.979980,-0.817988,-0.691397,-0.587573,-0.160683,0.879879,0.979971,0.533738,-0.345462,-0.608780,0.046134,-0.223121,0.755486,-0.516643,-0.122822,-0.925564,0.000000
-0.992248,0.090532,0.923154,0.481111,0.006816,-0.201974,-0.085554,0.319419,-0.209998,-0.837764,0.899533,-0.438594,-0.497299,0.433175,-0.718081,-0.041199,-0.526892,-0.197912,-0.108898,-0.256142,-0.984675,0.000000
0.795343,-0.149570,0.245549,-0.608998,-0.180892,0.743338,-0.390790,0.560602,-0.159154,-0.306619,0.100307,0.120225,-0.722343,0.924031,-0.927176,0.416357,0.404185,0.095044,0.944320,-0.358258,-0.290570,0.000000
-0.542161,-0.248735,-0.070554,0.441122,0.245336,0.893735,0.511826,-0.411808,-0.433760,0.317362,-0.328532,-0.832093,0.117553,0.214653,0.527706,-0.903163,-0.466327,0.707694,-0.523756,0.112291,0.880071,0.000000
-0.206094,0.601206,0.794732,-0.665782,-0.600429,0.928282,-0.145668,-0.486955,-0.529771,-0.359539,-0.390484,0.049280,-0.523606,-0.666002,0.962744,-0.015859,-0.545777,0.062112,0.299104,-0.800531,0.321774,0.000000
-0.402076,-0.788830,0.851558,-0.592278,-0.485137,0.043094,0.643849,0.896838,-0.623829,-0.453536,0.324259,-0.230814,-0.344317,0.217677,0.327578,0.256940,-0.354661,0.435774,-0.909644,0.475308,0.060281,0.000000
-0.647328,0.340407,0.406294,-0.783914,0.878350,-0.011921,-0.079451,-0.325293,-0.770745,0.822443,0.096602,-0.838780,-0.321696,0.161556,0.055897,0.434344,0.510191,0.942259,0.340578,-0.080229,0.848537,0.000000
0.772088,0.087229,0.497763,-0.106830,-0.849149,0.370510,-0.135663,0.332002,0.682974,-0.847835,-0.476424,-0.435209,0.936827,-0.289548,0.693224,0.698332,0.850252,0.726737,0.735046,0.122836,1.000000,0.000000
0.976806,0.207323,-0.819025,-0.080742,-0.078054,-0.742058,-0.418928,-0.882412,-0.893918,-0.729118,0.538499,0.756917,-0.840754,0.406423,0.503388,-0.928349,0.144456,-0.144339,0.956736,-0.106242,0.241289,0.000000
0.439417,0.578078,-0.372735,-0.295767,-0.247153,-0.521871,0.176140,0.212476,-0.985595,-0.150709,0.024763,0.567669,-0.437972,0.868323,-0.679047,0.793039,0.993116,0.845210,-0.382511,0.534532,0.598386,0.000000
0.403193,0.254814,-0.264652,-0.099740,-0.210260,0.254923,0.983398,0.345537,0.165319,-0.451338,-0.277322,0.425230,0.973022,-0.760204,0.739552,-0.779291,0.506409,0.292227,0.241361,0.481698,0.986432,0.000000
0.650075,-0.807475,-0.667776,0.325759,0.030939,0.366777,0.289590,-0.685976,-0.142308,0.464034,-0.044716,-0.269116,0.445044,-0.276262,-0.104230,-0.059508,0.156255,-0.929685,-0.050148,0.781426,-0.426713,0.000000
0.883114,0.622406,-0.930760,0.055623,0.340747,-0.646684,-0.327860,0.333494,-0.971923,-0.272927,0.899350,0.035881,-0.772576,-0.086204,0.024170,0.537027,0.591848,-0.743522,0.979777,-0.830866,-0.816796,0.000000
0.166813,-0.234650,0.268110,0.575157,-0.721588,-0.513048,-0.817927,0.569530,0.725944,0.714225,-0.761650,0.742196,-0.731742,-0.021135,0.501938,-0.952042,0.110778,0.502915,-0.461463,0.016264,-0.739200,0.000000
0.689383,0.340174,0.356786,0.605882,-0.909373,-0.253267,-0.006097,-0.156316,-0.851009,0.014032,-0.582629,-0.201839,-0.968871,0.132955,0.612683,-0.197585,-0.962121,0.250465,-0.539978,0.809198,0.148790,0.000000
-0.000495,0.693633,-0.687674,0.498476,0.121455,0.182080,-0.416608,-0.554236,0.899594,0.569628,0.127199,-0.059859,-0.060633,0.856489,0.320122,0.052871,0.892630,0.843257,0.253036,-0.629505,-0.475602,0.000000
0.414829,-0.089418,0.957728,-0.542455,-0.255374,0.605282,-0.423261,-0.678563,0.880367,0.840876,0.754875,-0.004091,0.090087,-0.669452,0.207759,0.579329,-0.982119,-0.328415,1.016938,-0.962951,0.081791,1.000000

-0.962645,-0.085781,-0.137364,-0.782098,-0.173315,-0.547135,-0.745170,0.025070,0.354211,0.127659,-0.644361,0.697395,-0.776543,-0.649342,0.356963,-0.052777,0.128773,0.242741,0.973815,-0.283762,-0.492831,0.000000
-0.179770,0.561693,0.484054,-0.580615,-0.183203,0.454153,-0.940448,-0.952851,-0.915815,-0.343852,0.502360,-0.039478,0.540330,-0.616199,-0.443007,0.887509,-0.863657,0.852716,0.777764,0.248386,0.947548,0.000000
-0.997009,0.134238,0.149327,0.853572,-0.168554,0.554654,0.636206,0.770157,0.675588,-0.157384,0.936275,-0.314432,0.466231,0.430891,0.578356,0.501938,0.254187,0.898230,-0.018712,-0.676929,0.081049,0.000000
-0.643117,-0.535386,0.895993,0.711600,0.741997,-0.371147,-0.801019,-0.776605,0.827204,0.853328,-0.864009,0.537889,-0.218848,-0.108515,0.703055,0.585315,0.644032,0.275855,0.482223,0.950560,0.819208,0.000000
0.099826,0.607410,-0.564684,0.826899,-0.580554,-0.974487,-0.057545,0.259438,-0.353130,0.453658,-0.414472,-0.830927,-0.606861,0.575610,0.614978,-0.180334,0.905515,0.974914,-0.222266,-0.238990,-0.409772,0.000000
0.983947,0.943480,0.458968,-0.102346,-0.657704,-0.463758,0.545785,-0.629495,0.208044,0.727103,-0.616544,-0.980590,0.381634,-0.297891,-0.530808,-0.130715,-0.972389,-0.833345,-0.902829,0.368351,-0.907312,0.000000
0.413739,0.164940,-0.475326,-0.040520,0.160253,-0.765482,0.810419,0.157578,-0.026257,0.768670,0.683523,-0.663259,-0.542344,0.657155,-0.208128,0.844539,-0.548880,0.387290,-0.293191,0.120898,-0.279604,0.000000
0.615223,0.243820,0.733024,0.324870,-0.409406,-0.431414,-0.981994,-0.068221,-0.094077,0.803461,-0.664724,0.477838,0.561510,0.189400,-0.798395,0.401349,0.146685,0.413724,0.614612,-0.823237,-0.295012,0.000000
-0.673635,0.478500,0.445479,-0.561144,-0.283670,-0.048343,0.749443,-0.388592,0.746696,0.984863,0.824152,0.680471,-0.114109,-0.804071,-0.263771,-0.281045,0.117115,-0.926817,-0.639699,0.996582,-0.662526,0.000000
-0.119125,0.253883,0.634388,0.947081,0.880795,0.463187,-0.512497,0.458630,0.250668,0.289590,-0.323258,0.479329,0.109638,-0.022715,-0.851314,0.492233,-0.718978,0.397860,0.680044,-0.347579,-0.901120,0.000000
-0.758660,0.809687,-0.927915,0.456648,-0.613269,-0.464731,-0.509713,0.649004,0.792840,-0.289407,-0.789616,-0.989380,-0.465499,-0.611133,0.939329,0.922910,-0.186204,0.947357,-0.841548,-0.949828,0.581103,0.000000
-0.194864,0.538682,0.795709,-0.929502,0.998840,0.742847,-0.222486,-0.251932,-0.457454,-0.204016,-0.798494,-0.809809,-0.085970,-0.605518,-0.747856,-0.406720,-0.551450,-0.590400,0.085238,0.632014,0.588507,0.000000
0.010551,-0.963256,-0.634938,-0.934202,0.388653,0.281816,0.126145,0.708792,0.580798,0.430830,-0.132059,-0.341655,0.997558,-0.866329,0.954100,0.053176,-0.247369,-0.303791,0.194128,-0.048123,-0.050249,0.000000
-0.810846,-0.135439,0.884640,0.775017,-0.307474,-0.071186,0.030459,0.166122,-0.577441,-0.955992,-0.280737,-0.747856,-0.451399,0.244082,-0.156903,-0.814386,-0.630263,0.817405,0.272988,0.635853,0.501450,0.000000
0.799371,-0.721732,0.298379,-0.057876,-0.093478,-0.174589,0.684273,0.478039,0.570299,-0.919797,0.342239,0.418264,0.088384,0.135587,0.437788,-0.521897,-0.396597,-0.522586,0.600269,-0.838096,-0.384432,0.000000
-0.008834,-0.254311,0.174230,0.400739,0.249794,-0.259976,-0.946871,-0.559063,0.379529,0.057649,-0.179631,-0.765130,0.071439,-0.844050,0.117401,0.853145,0.702704,0.467155,-0.413739,-0.684349,0.958877,0.000000
0.970397,0.015996,-0.907407,-0.425027,-0.822260,0.023476,-0.339091,-0.174548,-0.596980,0.725883,0.818974,0.330362,-0.199965,-0.101852,-0.077925,-0.998840,-0.276346,0.545703,0.747063,0.225177,0.922885,0.000000
-0.532640,-0.213657,-0.992981,0.108557,0.781243,-0.384546,-0.374511,0.952063,-0.595854,0.344829,0.129294,-0.091510,-0.851680,-0.407575,-0.764580,-0.352886,-0.561462,0.430199,-0.159215,0.725877,-0.092630,0.000000
-0.622303,0.877377,-0.668142,0.254394,-0.973571,0.968094,0.427299,-0.589104,-0.084752,0.342692,0.415175,-0.959532,-0.227260,-0.252483,0.295412,-0.288858,-0.261618,-0.295972,-0.966491,0.608720,0.697338,0.000000
-0.617298,0.923032,0.921812,-0.216494,-0.529588,-0.824068,0.614612,-0.591511,0.615345,-0.392132,0.523850,-0.414196,0.050977,-0.432539,-0.376446,0.695975,0.076867,0.266829,0.427168,0.602649,-0.915464,0.000000
-0.661794,0.316630,-0.847041,0.675832,0.559374,0.701088,-0.710711,-0.280670,-0.426896,-0.433699,-0.477933,0.585620,-0.710624,0.313639,0.652821,-0.336955,-0.344209,0.992067,-0.849849,-0.827081,0.687659,0.000000
-0.975768,0.138344,0.373699,0.484505,-0.849727,-0.344954,-0.326593,-0.278995,-0.724940,0.838374,0.758794,-0.583986,0.786981,-0.727470,-0.092680,-0.358989,-0.759746,-0.238717,-0.188574,0.356938,-0.675782,1.000000

0.663869,-0.054109,-0.666066,0.685354,-0.825983,0.717582,-0.574755,0.341838,-0.691458,-0.462874,0.726310,0.510117,0.952879,-0.050996,-0.000031,0.173559,0.347270,-0.634266,-0.279885,0.070772,0.610157,0.000000
-0.325175,-0.371065,0.404279,0.483016,0.157872,-0.439927,-0.071869,-0.194311,0.206265,-0.539659,-0.319315,-0.843379,-0.169626,-0.089694,-0.351102,0.420488,-0.809809,-0.868099,-0.050920,-0.528794,-0.915952,0.000000
0.910764,0.976501,0.983520,-0.793695,0.194433,-0.215193,0.431013,-0.677175,0.679312,-0.414106,0.840876,-0.086935,-0.555528,-0.984619,-0.559923,0.813166,-0.738334,0.021925,-0.652272,0.152318,-0.693899,0.000000
0.258950,0.302774,-0.183996,-0.801691,-0.110569,0.077355,-0.758415,-0.288125,0.413459,0.393902,-0.956664,-0.623768,-0.558214,0.259316,-0.002990,0.208796,0.733268,-0.024370,0.467574,0.597339,0.100776,0.000000
0.459639,-0.459395,0.786920,0.203955,0.084506,-0.336100,-0.208899,0.722648,0.763115,0.805780,-0.871761,-0.681692,-0.808649,-0.729057,-0.923032,-0.637928,-0.201025,-0.294473,-0.557543,-0.610034,-0.852535,0.000000
-0.118130,-0.804498,0.932615,0.838740,0.575854,0.435285,0.318766,-0.840388,-0.880917,0.894223,0.572558,0.910825,0.947813,-0.256508,-0.993469,-0.309732,-0.453597,0.381207,-0.396405,0.850398,-0.746513,0.000000
0.258400,0.069796,-0.071261,-0.810541,0.121738,-0.267678,-0.152928,0.431929,0.652882,0.163488,0.813410,-0.350444,0.974731,-0.408307,0.444319,0.915281,0.312906,-0.184973,0.595996,-0.710685,-0.418073,0.000000
0.044061,-0.903256,-0.184484,0.742302,0.677236,-0.668996,0.009966,0.891659,0.905332,0.231178,0.357341,0.567675,-0.929014,-0.114597,-0.654469,0.950438,0.458418,0.923215,-0.007966,-0.492721,0.535203,0.000000
0.402142,0.565416,-0.995178,-0.841609,-0.327677,0.096841,0.038736,-0.396222,0.609668,-0.036811,-0.035305,0.362224,-0.945677,-0.418256,-0.682363,-0.302042,0.271950,0.993530,-0.711661,-0.736686,-0.773736,0.000000
-0.200191,-0.986023,-0.538865,-0.982360,0.978393,0.029930,-0.864559,-0.569689,0.038806,-0.722160,0.313578,0.475570,0.876339,-0.518113,-0.584155,-0.056730,0.326457,0.726127,0.147856,0.721244,-0.598437,0.000000
0.329569,0.595752,-0.700064,0.123080,0.357097,-0.171251,-0.895627,0.349773,-0.700919,-0.144139,-0.901181,-0.786187,-0.671865,-0.351054,-0.050653,-0.420698,-0.057995,0.313944,0.730949,-0.698721,0.425947,0.000000
-0.850337,-0.405622,-0.680776,-0.265175,0.817988,-0.176733,-0.021271,0.530015,0.251747,-0.606983,0.213782,0.055757,-0.480697,0.040620,0.230384,0.994568,-0.037385,0.345195,0.285623,0.304422,0.814386,0.000000
0.728629,0.788080,0.176733,0.176122,-0.817743,0.095453,0.315958,-0.233497,0.060319,-0.548509,0.541429,0.483871,-0.593982,-0.298196,-0.397931,0.460433,-0.320048,-0.586718,0.343974,-0.748283,-0.072066,0.000000
-0.896542,-0.624439,-0.708853,-0.158361,-0.765984,0.154515,-0.487716,-0.053011,-0.832881,0.816279,-0.713431,0.966002,0.063692,0.665578,0.265297,-0.037751,-0.952147,-0.914426,-0.941038,0.980224,0.761467,0.000000
-0.045459,-0.103542,0.589282,0.430647,-0.512864,-0.578478,-0.967223,-0.929624,-0.383325,0.452010,0.631703,-0.663198,-0.957396,-0.435530,0.736564,-0.343974,0.820917,-0.648366,0.071434,-0.238136,-0.294107,0.000000
0.534471,0.125445,0.664357,-0.754143,0.974609,0.075979,0.942381,-0.298990,-0.152617,0.303079,0.560533,0.423749,0.533799,-0.398358,0.552293,-0.715629,0.561876,-0.033684,-0.915586,-0.520310,-0.366008,0.000000
-0.804010,-0.836970,-0.149815,0.036958,0.357036,-0.620777,-0.599048,-0.178320,0.764336,-0.370037,-0.236427,0.610584,-0.076022,-0.025300,0.579699,-0.652821,-0.912473,-0.893246,0.341472,-0.753716,-0.724784,0.000000
-0.394635,0.589465,-0.898923,0.001391,-0.079440,0.803095,-0.338176,0.377972,-0.919810,0.543260,-0.460067,0.569933,-0.279763,0.342570,-0.419873,0.080271,0.478805,0.083470,-0.658315,0.861324,-0.056469,0.000000
-0.571337,0.522446,0.797235,-0.064388,-0.638173,0.131605,0.374737,0.085788,0.246536,-0.481124,-0.008433,-0.454451,0.758049,0.956481,-0.225326,0.794244,-0.241554,0.918638,0.027195,-0.752739,0.543199,0.000000
-0.895810,-0.417890,0.740532,-0.910886,-0.151585,-0.497604,-0.466475,-0.563036,-0.506088,-0.746696,0.490402,-0.181921,0.383282,0.426191,-0.826655,-0.181288,-0.515976,-0.756768,-0.076431,-0.530564,-0.243690,0.000000
0.741935,0.341893,0.681753,0.429304,-0.660268,-0.127426,-0.186877,-0.854366,-0.817766,-0.357036,0.864803,-0.879940,0.236190,-0.308573,-0.729240,0.519761,0.839290,0.403119,0.377606,0.443037,-0.396283,0.000000
0.534410,-0.297130,-0.053992,0.045750,0.867061,0.679800,-0.227516,0.173254,-0.141219,-0.034969,0.833552,0.701956,0.658132,-0.952696,0.488245,0.341150,0.500595,-0.396710,-0.396329,0.261635,-0.919492,1.000000

-0.781915,-0.593860,-0.488449,-0.027558,-0.916868,-0.188635,0.496689,-0.646840,0.809809,0.555834,0.959044,0.542405,-0.303568,-0.992065,-0.235939,-0.416181,0.994079,0.345927,0.022675,-0.344646,-0.695669,0.000000
-0.661061,0.027013,-0.399457,-0.291421,0.087860,-0.217994,-0.947142,-0.336955,0.978820,0.762078,-0.841304,0.322184,0.644215,-0.051546,0.470077,0.265603,-0.896603,0.142613,0.052767,-0.079184,-0.425275,0.000000
-0.089697,0.756401,-0.882504,-0.977233,0.289102,-0.206214,-0.188879,-0.294473,0.293374,-0.325724,0.538560,-0.866268,0.469161,0.197607,0.198584,-0.564135,-0.566210,-0.048189,0.398419,-0.553270,0.461959,0.000000
-0.635304,0.082675,-0.485275,-0.992798,-0.578356,0.435346,-0.538194,0.813227,0.668813,0.949400,-0.425520,0.053812,0.179907,-0.000987,-0.508103,0.742180,0.064119,0.843806,-0.021271,0.022651,-0.291910,0.000000
0.580004,0.689566,-0.420820,-0.212378,-0.331828,0.135350,0.116137,0.330790,0.232765,0.275124,0.603870,0.806513,0.919797,0.665517,-0.880245,-0.019807,-0.481002,0.458235,0.611560,-0.526231,0.237526,0.000000
-0.054105,0.739738,0.315958,0.701346,0.397321,0.195471,0.193762,0.618641,-0.472335,0.285501,-0.885311,0.278420,-0.202185,0.300516,-0.120823,0.970641,-0.513169,-0.003510,-0.085299,0.665090,0.872005,0.000000
0.575060,-0.906980,0.220740,0.827509,-0.400494,-0.567797,0.278970,0.146458,0.509629,0.970397,-0.247108,0.867061,0.728935,-0.047578,-0.828974,0.361675,0.475143,-0.521958,-0.569445,0.213111,0.221168,0.000000
0.210974,-0.827143,0.445174,0.951598,-0.563707,-0.221595,0.750359,0.649525,-0.517502,-0.268593,-0.576891,0.505173,-0.335246,-0.054231,0.088473,0.674551,0.165929,0.021027,0.516160,-0.066927,-0.346782,0.000000
0.620045,0.559618,0.103183,0.758171,-0.241127,0.647755,-0.916257,0.098239,0.251991,-0.890622,0.368145,-0.872311,-0.604480,0.258156,-0.551683,0.558031,0.133641,0.600024,-0.367595,-0.507492,0.206275,0.000000
0.797052,-0.616932,0.692740,0.742485,-0.197241,-0.915342,0.054878,-0.775262,-0.454024,0.666738,0.536119,0.402020,0.411176,0.024812,0.558702,0.600574,-0.910154,-0.273354,0.347331,0.221351,-0.864925,0.000000
0.989990,-0.625172,-0.439314,-0.243873,0.106262,-0.666677,0.586596,-0.612903,-0.144444,-0.103183,-0.587329,0.894589,0.270608,0.870663,0.078341,-0.083590,0.704459,0.293741,-0.536119,0.117691,0.177648,0.000000
0.429731,0.773736,0.065401,-0.720634,0.498520,0.825861,-0.418195,-0.605518,0.355144,0.573901,0.472213,0.246803,0.382672,0.125340,0.704581,-0.929136,0.226173,0.136814,0.973937,0.271401,-0.215308,0.000000
0.483444,-0.827570,-0.830378,-0.374798,0.630604,-0.118077,-0.950987,-0.471358,-0.437178,0.220679,-0.267312,-0.628895,0.748161,-0.704093,-0.941465,-0.996277,0.118223,0.817804,0.933836,-0.983032,-0.905881,0.000000
0.917112,-0.962767,-0.831111,-0.984375,-0.342326,0.365703,-0.388165,0.738578,-0.152928,0.905393,-0.886288,0.442366,-0.770501,-0.954772,0.934690,-0.090182,-0.592944,0.616321,-0.624134,-0.044649,0.769158,0.000000
-0.309854,0.719657,0.734245,-0.964232,-0.804193,0.199133,-0.939390,-0.971557,0.193213,0.998596,-0.955626,0.934263,-0.995972,0.817743,0.585009,-0.603259,0.627186,-0.718802,0.708182,0.215247,-0.050874,0.000000
0.573717,-0.537645,-0.148228,0.974303,-0.945616,-0.878903,0.211653,-0.870846,-0.204505,0.209998,-0.653310,0.227900,-0.832331,-0.971862,0.519578,0.362590,0.760674,-0.650136,0.863887,-0.590869,-0.249672,0.000000
-0.959349,0.003273,0.549669,0.442793,0.068628,-0.740715,0.538926,0.727165,-0.645558,-0.695425,0.210425,-0.618274,-0.215491,-0.953246,0.893979,0.059297,0.829829,-0.781732,0.555406,-0.687918,-0.545274,0.000000
-0.889645,0.650197,0.830805,-0.655568,0.246287,0.619495,0.398968,0.798456,-0.284280,-0.772149,-0.853694,-0.212561,0.902829,0.340495,-0.268105,-0.435713,0.661550,-0.403912,0.156468,-0.066919,0.621937,0.000000
-0.980590,-0.844661,0.284402,0.240272,0.121529,0.752800,0.745232,-0.707144,0.110385,0.655812,0.240822,-0.946654,0.765679,-0.488632,0.849300,-0.869991,-0.295877,0.895260,0.872494,-0.271767,0.465682,0.000000
0.346782,-0.461592,-0.230201,-0.816889,0.069899,0.097322,-0.429060,0.773370,-0.287088,-0.679373,0.800409,0.551927,0.152379,0.541124,-0.940428,-0.407941,-0.003636,-0.445296,0.528855,0.426252,-0.661000,0.000000
-0.026399,0.004852,0.562792,-0.834223,0.061251,0.673147,-0.430891,-0.825983,-0.119419,-0.145543,-0.056551,0.931822,0.182531,-0.269936,-0.627064,-0.475753,0.752617,-0.658254,0.059664,-0.091220,-0.816034,0.000000
0.949278,0.824641,-0.928037,0.677419,-0.076546,0.589038,0.940489,-0.754326,-0.553331,-0.454085,-0.003702,-0.128233,-0.827754,0.612659,-0.295938,0.385052,0.889828,-0.625355,-0.771477,0.249977,0.217811,1.000000

-0.885495,-0.345195,-0.771783,0.456832,-0.038423,0.035798,-0.735588,-0.466353,-0.448714,-0.106174,0.957823,0.275918,0.710440,-0.697684,-0.702384,0.324992,-0.871822,0.898373,0.366436,-0.352397,-0.370159,0.000000
-0.583850,-0.194678,0.528672,0.815668,0.693167,-0.980956,-0.007307,-0.695181,-0.930662,-0.013441,0.105502,0.306619,-0.536851,-0.552049,-0.077364,-0.517075,-0.544664,-0.296060,0.470138,0.769585,0.468734,0.000000
-0.335673,-0.019257,-0.678213,0.587085,0.902890,0.355510,-0.639149,0.671926,0.111484,0.165380,-0.158116,-0.058260,0.339702,0.304605,-0.471175,-0.347148,0.900021,-0.759026,-0.477035,0.490463,-0.171239,0.000000
0.291849,0.349956,0.268349,-0.041353,-0.202246,-0.080172,-0.586657,0.914792,-0.160009,-0.652211,0.315775,0.397015,-0.144200,0.599536,0.894406,-0.089877,-0.256264,0.169896,-0.693289,-0.078036,0.480819,0.000000
0.800470,-0.772942,0.223060,-0.901975,-0.671072,0.208167,-0.662587,0.996826,0.159154,0.374859,-0.820002,0.323161,-0.778924,-0.114719,-0.638783,0.742729,-0.688711,-0.441023,-0.974181,-0.718375,0.241249,0.000000
-0.419294,-0.371258,0.658498,0.982971,0.723319,0.292947,0.659291,-0.209693,-0.520432,-0.629688,0.724601,-0.453413,-0.667226,0.222449,-0.078219,0.715934,0.416913,-0.523484,-0.035066,0.930601,-0.929136,0.000000
0.882870,-0.637501,-0.594104,-0.777337,-0.330485,0.508469,0.395367,0.875607,-0.691458,-0.245277,-0.306742,-0.763298,-0.470077,-0.490829,0.402509,0.530869,0.361980,0.632130,-0.064486,-0.271706,-0.533311,0.000000
-0.637074,0.230323,-0.854122,0.409223,-0.835322,-0.505478,0.132115,0.467391,-0.421369,0.687429,0.936155,-0.013703,0.875546,-0.891171,-0.664296,-0.560411,-0.318217,-0.048494,-0.570910,0.315165,0.971801,0.000000
-0.182775,-0.237648,0.548326,-0.634083,-0.487594,-0.487594,0.937376,0.413800,-0.886532,0.037202,0.892697,-0.426008,-0.574694,-0.133213,-0.176672,-0.020112,0.435896,0.102878,0.426740,-0.027070,-0.660878,0.000000
0.609363,0.731864,-0.233924,-0.753471,-0.535447,-0.091586,0.923154,-0.384686,-0.375042,-0.671560,0.572130,0.413800,-0.176000,0.112583,0.259194,0.578112,0.496689,0.916746,0.915586,0.669729,-0.290933,0.000000
-0.748466,0.211585,0.962096,-0.547410,-0.863277,0.237648,-0.583361,0.270363,-0.711539,-0.919614,0.073458,0.748528,0.060823,-0.754692,0.973632,-0.929319,0.953551,0.881527,0.253151,0.794977,0.822871,0.000000
0.819208,0.352947,0.453902,-0.011276,0.990478,-0.900388,0.617725,0.380779,0.066195,-0.995239,-0.609119,-0.807001,-0.679495,0.950682,0.611072,0.898129,-0.159825,0.138157,-0.919065,-0.904599,-0.108127,0.000000
0.984069,-0.048128,0.855281,-0.179296,-0.549120,0.760735,-0.132847,0.259377,-0.658803,0.518235,0.652699,0.481307,-0.174902,-0.617725,-0.183752,-0.000272,0.884335,0.805048,-0.683157,-0.804437,-0.789117,0.000000
0.834834,0.791986,-0.328104,0.286233,-0.890866,0.648488,-0.131321,-0.315287,0.952391,0.636830,0.188818,0.847774,-0.122532,-0.130833,0.468062,0.447249,0.212561,0.825190,-0.272256,-0.200232,-0.595141,0.000000
0.401776,-0.757195,0.205603,-0.843440,0.701773,0.535142,0.691885,0.154210,0.028230,-0.251503,-0.275918,-0.235450,0.771050,0.788690,0.850154,0.339274,-0.873898,-0.291055,0.310343,0.545640,0.181188,0.000000
0.877071,0.331523,-0.484054,0.302408,0.162023,0.736381,0.507431,-0.277078,-0.580187,0.677969,-0.637806,-0.164464,0.691336,0.712760,0.272805,0.484054,-0.150060,0.204138,0.603931,-0.184973,-0.656728,0.000000
-0.680044,0.678152,0.263772,0.921628,0.245827,0.016485,0.899594,-0.556200,-0.652577,0.094943,0.691702,-0.452010,0.868892,0.423078,0.554796,-0.992187,-0.192419,0.340739,0.137181,0.938047,-0.312601,0.000000
-0.807367,0.990844,0.744255,-0.087191,0.064608,-0.879879,-0.876339,-0.075350,0.377422,-0.768792,0.045259,0.465255,0.297037,-0.746086,0.288308,0.299417,0.979980,0.880184,-0.318766,-0.580859,-0.747368,0.000000
0.547349,0.423749,-0.150792,0.336833,-0.993774,0.186010,0.498642,-0.223121,0.488571,0.651784,0.738762,-0.943175,-0.199011,0.648427,-0.338847,-0.376019,-0.971007,-0.032441,-0.539720,-0.504990,-0.502426,0.000000
0.833552,0.725700,-0.258217,0.038911,0.162084,-0.769707,0.484909,0.659291,0.632862,-0.071566,-0.945189,-0.268410,-0.088900,0.486129,-0.112339,-0.312052,-0.923399,0.927305,-0.638966,0.501450,0.740654,0.000000
0.118870,-0.123753,0.901364,-0.490524,0.227882,0.261513,0.433943,0.725578,-0.476119,0.404645,-0.060701,-0.080294,0.753044,0.861751,0.976562,-0.524094,0.668264,-0.634083,-0.470260,-0.595752,-0.321757,0.000000
-0.752190,-0.320048,0.531053,-0.129734,0.004026,-0.993835,-0.860164,-0.704459,-0.391705,0.294412,-0.279641,-0.966308,0.596301,-0.787713,0.993591,0.894101,0.732170,-0.853633,-0.344523,-0.942686,0.063570,1.000000

0.238075,0.996948,-0.300089,0.285195,-0.873714,-0.376629,0.256081,-0.057833,0.783196,0.235633,-0.328043,-0.559252,-0.852351,-0.788385,-0.948851,-0.224342,0.243812,0.059358,0.750481,0.271035,-0.670827,0.000000
0.049837,0.993042,-0.802301,0.795099,-0.206153,0.737846,-0.711661,0.703787,-0.530625,-0.536241,-0.732414,-0.212012,-0.466781,0.873287,0.723319,-0.475387,-0.563463,0.528123,0.733757,-0.347636,0.179785,0.000000
-0.651540,0.717216,-0.402936,-0.365520,0.288675,-0.428632,0.071871,-0.144383,-0.028230,-0.084140,0.726737,-0.301370,0.207007,0.135899,0.102878,-0.649525,0.070284,-0.711905,0.520188,0.461959,0.240516,0.000000
-0.309000,-0.581896,0.989441,-0.277261,0.158300,-0.293252,-0.745232,-0.539781,-0.965331,0.473251,-0.307840,-0.864254,-0.646290,0.084872,0.763726,0.337443,-0.401776,0.145360,0.846065,-0.489059,0.692801,0.000000
-0.373455,-0.337260,0.235694,-0.503098,0.947325,0.891232,0.581103,0.355571,0.376751,-0.909421,-0.475814,0.238197,-0.568224,0.589038,-0.579638,-0.064791,-0.469161,0.254616,-0.867916,-0.085726,-0.982421,0.000000
0.894467,0.983337,-0.355937,-0.517502,-0.993164,-0.930662,0.550279,0.872982,-0.965453,-0.721122,0.572741,0.927183,0.575487,0.338908,-0.581164,0.609485,0.772454,0.605579,0.524583,-0.896603,-0.756706,0.000000
0.975707,0.568102,0.726371,0.326945,-0.312052,0.831538,0.078951,-0.282754,-0.820002,0.865474,0.604541,-0.840327,0.213111,-0.644032,0.860713,-0.246925,-0.837275,0.351726,0.468856,0.189184,-0.769768,0.000000
0.752312,-0.955748,0.310037,0.213538,-0.353801,-0.818537,0.343120,0.974486,0.873959,-0.165563,-0.457686,-0.300638,-0.512192,0.343486,-0.804559,-0.884701,0.946715,-0.788934,0.649220,0.420331,-0.516892,0.000000
-0.663015,-0.686270,-0.190954,-0.175695,-0.976379,0.643361,0.522568,-0.105869,0.939634,0.193518,0.933348,0.961119,-0.079989,-0.251869,0.295084,0.773553,-0.169530,-0.145909,-0.065035,-0.082919,0.465560,0.000000
0.912168,0.242347,-0.661855,0.589404,0.364299,-0.540452,-0.498764,-0.123508,-0.313761,0.961547,-0.764214,-0.244545,0.396222,-0.017487,-0.570727,-0.807978,0.170751,0.717948,-0.001373,-0.109409,0.149510,0.000000
-0.020905,0.752068,-0.657094,0.274270,-0.764824,0.193701,-0.283608,0.259072,0.458174,-0.808527,0.635243,0.968749,-0.976745,0.284829,-0.507920,0.872982,0.080477,-0.620472,0.840876,0.475936,0.640431,0.000000
-0.939451,0.816340,0.539476,-0.037568,-0.990600,-0.921384,-0.488998,-0.538865,0.578600,-0.308451,-0.683767,-0.465255,-0.147008,0.310099,-0.386517,0.672353,0.843684,-0.259987,-0.173132,0.509812,-0.770318,0.000000
0.991577,0.405133,-0.644398,-0.378521,0.329264,0.254311,0.126133,-0.211097,-0.506211,-0.754631,0.235816,-0.765984,-0.402570,0.592761,-0.798212,0.794061,0.224464,0.309000,-0.506272,0.115879,0.204504,0.000000
0.604846,-0.390973,0.575793,0.616871,0.031281,0.957762,-0.674490,-0.946532,0.164159,0.549913,0.787652,0.900326,-0.435224,0.203284,0.933897,0.731864,0.628895,0.591174,0.128758,-0.056856,-0.733940,0.000000
-0.251259,-0.859981,0.251808,0.282571,0.173925,-0.008698,0.467208,-0.632984,-0.830256,0.354473,-0.393841,-0.259072,-0.643422,0.393719,0.183325,0.422651,0.102023,-0.043672,-0.215369,0.219031,0.482040,0.000000
0.759392,0.957884,-0.814142,0.622364,0.299661,0.954222,0.200842,0.552538,0.308878,-0.062288,-0.487472,0.305155,0.012078,0.563951,0.288430,0.598376,-0.358135,-0.310343,-0.268716,0.035188,-0.443037,0.000000
0.219337,-0.244789,-0.417585,0.716056,0.362163,0.389142,0.390118,0.273110,-0.194494,0.743339,0.354839,0.540757,-0.383221,-0.593982,-0.158666,0.044404,0.088961,0.611438,-0.641774,-0.095492,-0.610523,0.000000
-0.093722,-0.839778,0.541612,0.723807,-0.446028,0.569567,0.052889,-0.685659,-0.571825,-0.977416,0.201575,-0.510544,0.100436,-0.909848,0.291971,-0.366497,-0.285134,-0.343974,0.446638,-0.403912,0.042756,0.000000
-0.980773,0.904721,0.982055,-0.049532,0.745964,-0.795831,0.169042,0.478805,0.658681,-0.990356,0.367656,0.355571,-0.277627,-0.399457,0.470260,0.544420,0.434492,-0.431928,-0.836787,-0.136387,0.660756,0.000000
-0.963439,0.741264,-0.587023,-0.828059,-0.848262,0.877194,0.119358,0.428632,0.362285,0.834285,-0.731376,-0.415326,-0.265664,-0.202368,-0.230140,-0.602527,0.986694,0.267190,0.399518,0.310465,0.982849,0.000000
0.281716,0.176977,0.745537,-0.151402,0.136814,0.814386,-0.465011,0.326823,0.995117,0.220863,-0.187536,0.523362,-0.224769,-0.229225,0.092990,-0.779595,-0.311808,-0.855647,-0.460799,0.392804,0.760674,0.000000
-0.443342,-0.432417,0.226295,0.657704,-0.868221,0.074801,-0.001007,0.157689,-0.920469,-0.173254,-0.892270,0.504013,0.292276,-0.088656,0.280923,0.185888,0.035432,-0.251320,-0.446333,-0.635121,0.377545,1.000000

0.153172,0.916074,-0.706229,0.568468,0.692557,-0.048555,0.307840,-0.455123,0.125584,0.704825,0.720572,0.695181,0.055940,-0.322977,-0.791375,0.842036,0.707877,-0.122105,0.174596,0.953917,0.949339,0.000000
0.547349,-0.835810,-0.883114,-0.427412,0.512558,-0.450728,-0.989624,-0.561266,-0.742912,0.285440,-0.664113,-0.512253,-0.881893,0.581164,-0.162999,-0.412641,-0.178320,-0.632191,0.329508,0.418195,0.412336,0.000000
0.037751,-0.828486,0.585131,-0.388531,-0.334513,0.378704,0.996399,0.087374,-0.175634,-0.732780,-0.523118,-0.848262,0.057955,0.078890,-0.523850,0.193457,-0.007233,0.136753,0.475875,0.413007,-0.450301,0.000000
0.347209,0.889401,-0.754265,-0.710685,0.074007,-0.327067,-0.958373,0.255531,-0.150914,-0.541673,0.783013,0.295267,-0.621998,-0.081027,0.082797,0.265664,-0.633168,0.734245,-0.293191,0.838435,0.888913,0.000000
-0.322611,-0.469344,-0.566088,-0.972716,-0.871944,-0.511277,-0.956236,-0.904172,0.758476,-0.447371,-0.393475,0.676199,0.443770,-0.492843,0.400189,0.126988,-0.691641,-0.631031,-0.504868,0.612903,-0.375652,0.000000
0.109592,0.178686,-0.739372,0.032563,0.481490,0.808161,-0.819086,0.480758,-0.409284,0.035493,0.124729,0.445662,0.835444,0.092074,-0.093844,0.061983,-0.884335,-0.236000,-0.787286,0.296854,-0.861385,0.000000
0.950133,-0.348735,0.903012,-0.243324,-0.188818,-0.037568,-0.334086,-0.213233,-0.119724,0.984252,0.962035,0.360759,-0.106967,-0.735221,0.403607,-0.558519,0.328532,-0.062349,-0.767022,0.745170,0.495224,0.000000
0.801263,0.588061,0.720511,-0.827509,-0.157506,-0.077425,0.540330,0.950621,-0.750725,-0.137059,0.199194,0.064974,0.025483,-0.962279,-0.303629,-0.474532,-0.805292,-0.429792,-0.609485,0.332194,0.542772,0.000000
0.777032,-0.099704,-0.302774,-0.262368,0.115818,0.490829,0.873409,0.822077,-0.360515,0.301370,-0.534043,0.243263,0.703604,0.625416,0.969848,0.276894,0.854366,0.523423,0.050813,-0.522935,-0.398114,0.000000
-0.680105,0.036164,0.490097,0.872860,-0.091769,0.286660,0.172460,0.293802,0.347331,0.015168,-0.946165,-0.083529,-0.530931,-0.197974,0.173437,-1.000000,0.783502,0.176977,0.306864,-0.782098,-0.841975,0.000000
0.107700,-0.910337,0.910215,0.169835,0.552171,0.857540,0.879391,0.095431,-0.522080,0.027558,0.155919,-0.970641,-0.306253,-0.524033,-0.947813,0.936460,0.224586,0.480758,0.920957,0.788446,0.272195,0.000000
0.013642,-0.490463,0.350871,-0.411847,-0.018647,0.890011,-0.550829,0.613208,0.654836,0.805292,0.161656,0.022553,-0.306375,0.775262,-0.737785,0.695486,-0.640858,0.364727,-0.346110,-0.260170,0.631764,0.000000
-0.067843,0.617237,-0.364055,0.154332,0.336772,-0.302591,-0.840571,0.572375,-0.575060,0.198523,0.481307,0.859127,-0.039705,-0.883969,0.147008,0.056673,-0.849117,-0.439924,0.564501,0.770806,0.298074,0.000000
0.934385,-0.132786,0.829585,0.745354,0.164953,-0.858211,0.295816,-0.683462,-0.808283,-0.673147,0.694327,-0.533494,0.497360,0.771600,-0.212806,-0.970153,0.480880,0.731742,0.999023,0.400128,0.512131,0.000000
-0.346416,0.373638,-0.508469,0.845393,0.527085,0.465133,-0.494064,0.741386,-0.278665,-0.444014,0.991394,-0.403180,-0.532029,0.590686,0.466170,-0.975219,0.499680,0.044221,-0.288491,-0.788080,0.886349,0.000000
-0.678396,-0.841609,-0.392071,-0.297647,-0.690237,0.755242,0.755119,-0.072665,-0.542222,0.411847,0.935606,0.437300,0.032136,-0.681753,-0.819514,-0.958739,-0.954588,-0.677053,-0.017853,-0.921690,-0.251137,0.000000
0.831416,-0.327555,-0.541551,0.330912,0.127171,0.416364,-0.842891,-0.309610,0.826289,-0.942808,0.666250,-0.044832,-0.753349,-0.045137,-0.865352,-0.247780,0.717704,-0.256508,-0.422346,-0.630299,-0.897275,0.000000
-0.213355,-0.815851,0.787286,-0.166112,0.861141,0.904111,0.138096,0.331645,0.326579,0.953734,-0.423627,-0.916562,-0.122898,0.465011,0.929014,0.044587,-0.576220,0.995788,-0.326456,-0.564074,0.524400,0.000000
0.388226,-0.490097,0.721427,-0.802667,0.052950,0.831416,-0.273232,-0.063753,-0.007965,0.351238,-0.836421,0.253029,-0.821955,0.041170,-0.269265,0.774285,0.182714,0.844844,-0.575060,-0.420942,0.887082,0.000000
-0.581347,0.882321,0.473312,0.375408,0.440291,0.466903,-0.912412,-0.420637,0.546190,0.143101,0.576891,-0.720573,0.654531,-0.105747,0.305460,0.119175,0.136692,0.037874,0.993713,-0.364971,-0.315226,0.000000
-0.889889,-0.081149,-0.391705,-0.621082,-0.040803,-0.458541,0.459456,-0.846675,-0.917173,0.079073,-0.571581,-0.999634,0.219092,-0.113804,0.038850,-0.581164,-0.004364,0.564989,-0.002603,0.479110,-0.671316,0.000000
0.822871,-0.258156,0.869930,0.726798,0.651479,0.674062,-0.524033,0.298990,-0.676504,-0.457625,-0.248573,-0.778985,0.148595,0.368816,0.273598,0.707389,-0.983398,0.683157,0.321085,0.507736,0.202673,1.000000

0.395184,0.355937,-0.434675,-0.684072,0.919858,0.190893,-0.218116,0.641407,0.219214,0.130222,-0.961119,0.794061,0.583422,0.334697,0.013947,-0.882138,-0.229347,0.665639,0.895444,-0.268288,-0.094394,0.000000
0.756706,0.840571,-0.567003,0.457198,-0.506516,-0.487899,-0.645497,0.666921,-0.098300,0.754875,-0.744560,0.915830,-0.865963,0.671987,-0.248268,-0.617359,-0.810541,-0.484359,0.176244,-0.827754,0.217383,0.000000
-0.173864,0.721305,0.404889,-0.419965,-0.168432,0.887692,0.700186,0.728996,0.086947,-0.061312,-0.995300,-0.552110,-0.936705,-0.193640,-0.474532,0.567919,0.943907,0.226661,0.568407,0.391888,-0.290078,0.000000
0.065279,0.804498,-0.997925,-0.495590,-0.044282,-0.370952,0.616260,-0.284036,-0.445540,0.256081,0.610157,0.404340,-0.340556,0.162816,0.198767,0.974731,-0.817988,0.664907,-0.449629,-0.333415,0.889340,0.000000
0.277444,-0.809626,-0.039949,0.054720,-0.777947,-0.856258,-0.421735,-0.531419,0.916929,-0.428999,0.084811,-0.858394,0.335368,0.219764,0.327067,-0.837092,0.360759,-0.426740,0.542222,-0.631214,0.558824,0.000000
0.034761,-0.308329,-0.027070,-0.173070,0.345439,-0.645375,-0.146580,0.369732,-0.969970,0.202734,-0.763970,-0.684011,-0.933897,0.453963,0.102329,-0.515549,0.953001,-0.630482,-0.486007,-0.298074,0.391034,0.000000
-0.966308,-0.485641,0.866878,0.060640,-0.308756,-0.458113,0.668325,-0.710379,0.603992,-0.555956,0.711722,-0.984558,-0.855892,0.183874,-0.517808,-0.475814,0.368816,-0.155065,0.474105,-0.672353,-0.019074,0.000000
-0.132664,0.155553,-0.390728,0.250404,0.056246,0.265664,0.930479,0.358440,-0.402020,0.712332,-0.469100,0.104038,-0.538255,-0.245582,0.666067,0.402631,0.812189,-0.460067,-0.185888,0.741997,0.126621,0.000000
0.944517,0.637501,-0.555834,-0.617603,-0.895627,0.002228,0.139927,0.571947,0.100375,-0.273171,0.232460,0.714164,-0.232582,-0.410993,-0.177221,-0.257363,-0.396344,-0.050142,0.593371,0.123692,-0.580981,0.000000
0.771111,0.775079,-0.252113,0.760674,0.479049,0.775140,-0.825129,-0.044038,-0.755852,-0.162450,0.957823,0.946898,-0.664602,0.965026,-0.808222,-0.106784,-0.718497,0.660146,0.478133,0.607593,-0.073824,0.000000
-0.259194,0.212683,0.426374,-0.330851,0.952940,0.390484,-0.874142,-0.122471,-0.453658,0.205603,0.369244,-0.011567,-0.605823,-0.357585,0.675588,-0.360637,-0.160436,0.434919,-0.704093,-0.239906,-0.468490,0.000000
-0.388836,-0.452803,-0.422163,0.715629,0.271950,-0.903073,-0.032563,0.449812,-0.620167,-0.488388,0.140904,0.858394,-0.723624,-0.139073,0.126438,0.677358,-0.856746,-0.782952,-0.992859,0.016022,-0.505600,0.000000
0.277749,0.006928,-0.305643,0.556200,-0.509812,-0.743828,0.772271,-0.950743,0.838008,-0.168920,-0.497421,-0.377056,-0.586230,-0.548265,-0.956969,-0.876217,0.039827,0.081576,-0.363567,0.528672,-0.208411,0.000000
0.596179,0.021943,0.236671,0.206824,-0.882992,0.133091,-0.869564,-0.679678,-0.948790,0.756706,0.304361,0.130894,0.769646,-0.056429,0.558946,0.934568,0.703665,0.264260,0.689199,0.886837,-0.224586,0.000000
0.232521,0.441572,0.121006,0.400983,0.969115,-0.132420,0.455672,0.242714,-0.743217,-0.462386,-0.512619,0.427229,-0.961913,-0.333476,-0.005951,-0.441389,0.322916,-0.840144,-0.979614,-0.087802,-0.100192,0.000000
-0.088839,0.846370,0.374493,-0.608875,0.483871,-0.717765,0.126988,-0.564013,-0.720939,-0.108310,-0.573656,0.401105,-0.694144,0.928404,0.399762,-0.002594,0.620228,-0.175756,-0.376141,0.172521,0.192358,0.000000
-0.974670,0.468368,-0.426740,-0.329691,-0.078646,-0.958068,0.632008,-0.526048,0.770928,-0.371380,-0.613636,-0.078585,0.039399,0.771477,0.071993,-0.690603,-0.698965,-0.270302,-0.173925,-0.525071,-0.362957,0.000000
0.492965,0.611805,0.063082,0.180273,-0.919919,-0.823542,0.180273,-0.990417,0.192724,0.351726,0.452010,-0.056185,-0.042268,0.593982,0.319803,-0.196326,0.426191,-0.538560,-0.229469,0.039216,0.377972,0.000000
0.877377,-0.402814,-0.556688,0.318033,-0.061312,-0.742302,0.485214,0.945433,-0.484054,0.387493,0.589038,0.398968,0.657704,-0.640553,0.984863,-0.916440,0.890378,-0.508835,-0.483016,-0.233436,-0.195837,0.000000
0.709586,0.060946,0.428449,0.772088,-0.888730,0.383038,-0.697562,0.036103,-0.060579,0.644337,0.663564,-0.351115,-0.241127,0.499496,0.157872,-0.205542,0.951170,0.019257,0.838069,0.819147,0.956786,0.000000
-0.783258,0.409101,0.071322,0.197668,-0.910337,-0.569994,0.911496,-0.509445,-0.988159,0.842586,0.520981,0.505051,0.155797,-0.637440,-0.046236,0.493759,0.493881,0.707266,0.294107,0.472274,-0.928098,0.000000
-0.196142,-0.850581,0.421308,0.388592,-0.557482,0.429609,-0.868465,-0.315531,-0.801813,0.157262,-0.908444,-0.237831,0.952208,-0.854366,-0.836848,-0.550218,-0.564440,0.454451,-0.633290,-0.463668,-0.590991,1.000000

0.906308
0.008698
0.249062
0.653920
-0.244179
-0.582018
0.776605
0.918455
-0.918760
0.103794
-0.326151
0.538316
-0.240761
0.039216
0.214026
-0.883114
-0.289041
0.265725
-0.144566
-0.469649
-0.444624
0.185705
