-0.034699,-0.887285,0.081230,0.390977,0.095285,0.623341,-0.162313,-1.192203,-0.140031,-1.468510,0.358275,-0.962493,0.502795,1.168975,-0.223595,-0.552115,0.922511,0.836557,1.240341,0.307453,-0.298518,0.000000
-0.158838,0.434149,1.337350,0.790314,-0.348391,0.009133,-1.156114,0.464620,0.407231,-1.710220,1.794895,-1.115112,-0.729367,1.245522,-1.215925,-0.551928,0.888724,1.062820,0.581887,0.689124,-0.550853,0.000000
-0.169820,-0.420454,0.825286,1.229134,-1.332451,1.242176,-0.078118,-0.974576,0.818725,-2.701930,2.270621,-0.055421,1.085838,0.767633,-0.372461,1.023247,1.537441,-0.251033,0.487919,-0.200986,0.956027,0.000000
-0.521403,-0.971218,0.607713,0.964125,0.259045,0.304547,-0.179973,-0.466089,0.916574,-0.668220,1.008057,-0.745421,0.279007,0.772650,-0.384656,0.303300,-0.934142,-0.416068,0.347808,-0.206777,0.798026,0.000000
-0.570666,-0.930357,0.888607,0.697012,0.455123,-0.842158,-0.164220,-0.478744,-0.952879,0.911496,-0.604175,0.927976,-0.427778,-0.228309,-0.705496,-0.983093,-0.058626,0.963988,0.610401,-0.487655,-0.960509,0.000000
-0.797392,-0.182846,0.209258,-0.286123,-1.060665,1.172009,-0.355219,-0.658684,-0.260060,-0.996888,1.748100,0.360572,0.943296,-0.453246,-1.406484,-0.307929,-0.420107,-0.175256,0.417810,1.225285,0.325277,0.000000
-0.610665,-0.024064,1.035287,0.426109,-1.214452,1.124974,-0.163798,0.080973,1.271468,-1.718000,1.299866,-0.762874,-0.208182,0.673739,-1.556424,0.007450,0.441388,0.767017,0.960802,0.535156,0.433421,0.000000
-0.463951,0.503059,0.333295,-0.333594,-0.026265,0.664932,-1.196695,-0.610253,-0.074423,-1.842512,0.913327,-0.048150,0.825450,1.184146,-1.140330,-0.713195,1.007074,0.101212,0.179511,0.155513,0.058773,0.000000
0.028031,-0.937879,1.121669,-0.305646,-1.424630,0.715791,-1.113779,-0.636296,-0.196104,-1.385072,1.572875,0.451611,-0.178126,0.177034,-0.498590,0.919439,-0.345752,1.012997,1.571576,0.240626,-0.005955,0.000000
-0.751770,0.577392,1.427117,0.313209,-0.290859,-0.206557,0.238218,-0.888922,0.953564,-2.421756,1.798151,0.684366,0.889892,1.323898,-1.393753,0.484861,-0.013732,0.097974,1.147472,0.228857,-0.796256,0.000000
-0.507957,-0.605711,1.227297,0.581963,-0.876714,-0.440551,-0.530394,0.192712,0.186292,-2.723153,0.744053,-0.820469,1.078652,-0.103393,-1.438618,0.689695,0.159506,-0.092993,-0.002692,0.365183,-0.893031,0.000000
-0.782077,-1.036973,1.313070,1.374733,-1.202616,0.800258,0.465862,0.071705,1.127650,-3.085808,1.010445,0.642951,-0.285128,0.305262,0.271465,-0.679304,0.429457,0.835864,-0.214245,-0.251058,-0.126025,0.000000
-1.525915,-1.365312,1.428988,1.544987,-0.395978,0.080336,-1.513952,-0.370351,1.581594,-4.392526,2.956762,0.632504,1.177311,1.709314,-1.269288,0.878884,1.646680,1.620516,1.858667,1.262408,-0.038363,0.000000
0.056421,0.501110,0.088921,0.638335,-0.325044,0.301697,0.140188,-0.329406,0.131620,-0.523366,1.231814,-1.018495,-0.689192,0.076773,-0.955656,-0.272390,-0.347850,0.837894,0.323127,0.175158,0.642581,1.000000

-0.328110,0.964730,-0.820470,0.553767,-0.854995,0.971646,0.636484,-0.018422,-0.203362,0.628354,0.386303,0.887181,0.893091,0.917387,0.901367,0.797825,-0.922945,0.658807,0.308377,-0.485568,-0.181286,0.000000
0.776321,0.103850,-0.029865,0.757476,-0.305182,-0.156955,0.028357,-0.125527,0.380028,-0.421854,0.508842,-0.963984,0.687584,-0.488418,-0.847498,-0.392870,0.379503,-0.774375,0.831449,0.642552,-0.610188,0.000000
-1.085390,-0.101124,-0.585339,-0.351436,0.673058,-0.476759,-0.808467,0.938352,0.575285,-0.517921,-0.011006,-0.515574,0.665824,0.333629,-0.919609,0.755388,0.846661,0.079052,0.062777,0.130234,-0.281352,0.000000
-0.215709,0.743911,0.678807,-0.001296,-0.326746,0.826636,-0.657643,0.006385,-0.788916,-1.024445,0.389384,-0.568544,0.441540,-0.563645,0.064166,0.202222,-1.020622,-0.633934,-0.767750,0.014421,0.525752,0.000000
-0.171776,0.118963,0.847164,-0.939483,-0.721711,0.195788,0.349771,0.581931,-0.922880,-0.294916,-0.482511,-0.142452,0.924566,0.856993,0.978328,-0.167936,-0.718383,-0.263247,-0.678615,-0.697726,0.070843,0.000000
0.111841,0.743653,-0.036714,-0.360894,-0.593023,-0.570115,-0.607292,-0.281731,0.242203,0.881933,0.438526,-0.454299,-0.063046,-0.434721,-0.941729,0.233862,-0.124468,-0.989253,-0.206271,-0.468262,-0.553143,0.000000
0.949751,0.883536,-0.510883,0.672839,-0.110959,0.036865,-0.868314,-0.747963,-0.164593,0.776272,-0.954282,0.059489,-0.912409,-0.406817,0.143143,0.437000,-0.748003,0.379047,-0.564120,0.944031,-0.379335,0.000000
-0.713754,-0.953211,-0.349755,-0.270328,0.306922,-0.212811,-0.091157,-0.256842,-0.117540,0.106296,0.796492,-0.211138,0.614954,0.623362,-0.305757,-0.424510,0.497121,0.983993,0.996897,0.351063,-0.334286,0.000000
0.768996,-0.113976,-0.081807,-0.271670,-1.016177,-0.738603,0.704939,0.288655,0.083150,0.111591,0.829743,-0.283165,-0.690683,0.503428,-0.862665,0.140965,-1.010150,-0.840174,0.796857,0.353110,0.477357,0.000000
0.598714,0.098825,-0.004847,-0.481653,0.891411,0.494182,0.379552,0.611525,-0.754997,-0.078683,0.836997,-0.198876,0.592228,-0.537513,0.596705,-0.827189,0.643150,0.043076,0.256555,-0.610404,-0.913059,0.000000
-1.189352,-0.643759,-0.483161,0.568731,0.123394,0.414487,0.365127,-0.371624,0.544423,-1.007359,0.465368,0.471477,-0.300290,-0.268205,-0.532751,1.093570,0.297608,-0.595772,0.451592,0.891646,0.448613,0.000000
0.860936,0.238703,-0.088384,0.143768,-0.281926,0.570614,0.052925,0.486190,-0.218062,0.552245,0.146389,0.693385,0.166652,-0.115856,-0.816211,0.781692,-0.310554,-0.753794,-0.792268,0.278052,-0.688700,0.000000
0.409259,-0.410639,0.160114,0.223172,-0.396447,-0.959944,-0.903232,-0.455067,-0.873021,-0.202235,-0.203046,-0.641085,0.548321,0.292310,-0.094158,0.742397,-1.084736,-0.902582,0.739290,0.279915,-0.731246,0.000000
-0.599299,-0.086337,-0.072512,0.221825,0.306494,0.868953,0.138254,-0.755074,0.884649,-0.925157,-0.620519,-0.485512,-0.604444,0.658762,0.519725,0.710228,-0.819567,0.390647,-0.604240,-0.853601,-0.499554,0.000000
0.681192,-0.207825,-0.435128,0.500266,-0.860107,0.632352,0.169793,-0.903267,0.175442,-0.978951,0.091481,-0.753498,0.114561,-0.822709,0.397698,-0.759016,-0.710187,0.100451,0.830403,0.845287,0.162546,0.000000
0.125652,0.354301,-0.249179,-0.807125,0.306555,-0.696038,-0.063839,-0.645139,0.421208,-0.322661,-0.209510,0.107591,0.405034,0.820947,-0.521231,0.397186,0.366650,0.517231,-0.563875,-0.898338,0.541420,0.000000
0.621839,-0.241827,0.195780,-0.296009,0.600910,0.399739,-0.177613,1.046868,-0.826919,-0.365462,0.534989,-0.620339,-0.690344,0.579371,0.053676,0.899922,-0.591692,-0.584727,-0.353866,0.717711,0.836227,0.000000
-0.126779,0.279493,-0.109552,-0.186886,-0.966335,-0.141674,-0.567863,-0.237979,-0.208207,0.899228,-0.344687,-1.008634,-0.861469,-0.683266,0.168456,-0.373895,-0.857708,-1.013676,-0.258869,0.378300,0.984965,0.000000
0.187904,0.294965,-0.147024,0.349114,-0.963760,0.541524,-0.972360,-0.917797,0.549277,-0.530445,-0.065230,0.602066,-0.276646,0.544845,0.042050,0.753513,-1.086258,-0.606253,0.397185,-0.293531,-0.019041,0.000000
0.307196,0.963676,-0.366008,-0.037107,0.095233,0.171237,0.883865,-0.545243,0.116189,-0.082953,0.296202,-0.972285,-0.983747,-0.762173,-1.017978,1.015176,0.611754,-0.106649,-0.997619,0.190380,0.307528,0.000000
0.153761,-0.486946,-0.192605,0.979724,-0.122584,0.742015,0.731786,0.104541,-0.240225,-0.549605,0.198092,-0.751558,-0.632516,0.904467,-0.021989,-0.531829,-0.209762,-0.985966,0.342348,0.081816,-0.598088,0.000000
-1.115932,-0.346853,-0.341536,0.382231,0.888189,0.803834,0.859701,0.973497,0.284055,0.195106,0.255446,-0.177610,0.002592,0.761723,-0.550057,-0.508800,-0.487978,-0.176414,-0.143610,-0.758883,0.222958,1.000000

-0.571404,0.046072,0.612985,0.484724,0.749604,0.095600,-0.449783,-0.646718,0.345448,-0.842490,0.621593,-0.675466,0.966995,0.792474,0.651353,0.437177,0.673278,0.167440,-0.639832,0.829654,0.386457,0.000000
0.895213,-0.463119,0.602745,-0.180376,-0.736309,0.624421,-0.902445,-0.848994,0.478879,0.011527,-0.914544,0.993278,-0.104455,0.855914,-0.488797,-0.274742,0.610410,0.749102,-0.275536,0.786693,0.038645,0.000000
0.187725,-0.516903,0.969162,-0.400646,-0.250846,-0.384392,-0.946666,-0.405316,-0.403826,0.181519,0.646400,-0.301004,-0.133328,-0.019240,0.491374,-0.826932,0.246591,0.687621,0.146471,0.466917,-0.690848,0.000000
-0.132990,0.309734,0.222478,0.387964,-0.991159,0.725032,0.409564,-0.369060,-0.352083,0.156951,0.768594,-0.269211,-0.211540,-0.723441,0.178413,-0.391040,0.233311,-0.629233,0.303074,-0.125443,0.223350,0.000000
-0.584403,-0.675804,0.629521,0.311453,0.013584,0.873050,0.966811,-0.213050,0.605967,-0.294236,0.170894,0.338054,-0.580107,0.543016,0.137358,-0.956185,0.880361,0.447972,0.506609,0.249773,0.079470,0.000000
0.669815,0.744351,0.824285,0.869567,-0.366567,0.155892,0.228510,0.425947,-0.141186,0.972232,-0.573248,-0.027364,-0.817456,0.785704,-0.945555,0.644778,0.444799,-0.612930,-0.387156,-0.910397,-0.540211,0.000000
-0.967518,0.958067,0.814805,-0.528100,0.441490,-0.480952,-0.261799,0.484054,0.100811,-0.608112,-0.338169,-0.953917,0.076742,0.399763,-0.361644,0.477007,0.195815,0.032381,-0.868141,0.031328,-0.774712,0.000000
0.979518,0.191903,-0.539219,0.012205,-0.968037,-0.506523,-0.199095,-0.503220,-0.916327,0.654771,0.658904,-0.071664,-0.793370,0.128670,-0.125763,0.909849,-0.333624,0.638890,-0.781155,-0.451274,0.992309,0.000000
0.729665,-0.107084,-0.435285,0.821733,-0.922331,-0.837522,-0.695793,0.560533,0.762401,0.765156,0.419882,-0.114201,0.207298,-0.558946,0.277315,-0.802948,-0.197815,-0.642034,0.621660,0.713079,-0.827815,0.000000
0.101630,0.915188,-0.908143,-0.090881,0.766500,-0.582294,-0.915322,-0.926206,0.074055,-0.551549,0.702116,0.388683,0.149144,0.377851,-0.963015,0.875599,0.818537,0.575284,-0.860397,-0.511096,-0.822871,0.000000
0.707128,-0.743672,-0.140335,0.528658,-0.906884,-0.346162,-0.480660,-0.611744,-0.751688,-0.793076,0.582680,0.253439,-0.076605,0.830537,0.108350,-0.783575,-0.757453,0.693032,-0.542323,0.891259,-0.436010,0.000000
-0.169599,-0.361390,-0.165893,0.701222,0.213282,0.463191,-0.134111,0.978881,0.816634,0.913450,-0.607097,0.035333,-0.615399,-0.984985,0.105761,-0.017660,-0.709869,0.278580,-0.188665,0.823862,0.074218,0.000000
-0.722517,0.363769,-0.947893,-0.004096,0.642867,0.870221,-0.135480,-0.684927,0.539466,0.559839,0.688029,-0.933836,0.862997,0.841182,-0.266194,-0.476848,0.962282,0.917228,-0.894774,-0.439264,-0.132936,0.000000
0.619331,-0.740140,-0.985950,-0.024769,0.686722,-0.048608,-0.262233,-0.146736,0.039785,-0.822437,-0.641986,0.335330,-0.742215,0.207038,-0.723724,0.719772,0.157722,0.148641,0.357835,-0.149714,0.501633,0.000000
0.552180,0.657886,0.729162,-0.285490,0.186639,0.680546,-0.814935,-0.007739,-0.906050,0.156555,-0.195917,-0.116733,-0.127677,0.660329,0.094568,0.986313,0.161745,0.429017,-0.810779,0.703131,-0.358453,0.000000
0.288691,0.761717,-0.371964,0.375123,-0.177275,0.534041,-0.344225,0.150475,-1.015721,-0.884850,-0.721941,0.925036,-0.007976,-0.522672,0.734301,-0.773372,-0.566940,-0.174455,0.525642,-0.523023,0.845142,0.000000
-0.829524,0.852535,-0.825007,-0.971923,0.313852,-0.091370,0.738637,-0.542650,-0.079325,0.328349,0.797479,0.498520,0.560961,0.012307,0.280438,0.527573,0.543626,-0.650929,-0.695059,0.638783,-0.871395,0.000000
-0.673879,0.649281,-0.082920,-0.558763,0.547898,0.935423,0.501083,0.675161,-0.822748,0.083590,0.408917,-0.681082,0.840937,-0.210425,-0.184782,0.267617,-0.803156,-0.463546,0.578478,-0.487781,0.301859,0.000000
0.254014,0.238574,0.236331,-0.729583,0.083580,-0.457372,-0.256489,-0.845943,0.568401,0.657446,0.113251,0.320070,0.781905,0.289311,-0.063784,0.004951,0.021737,0.038610,0.968997,0.428129,0.593066,0.000000
-0.216446,0.792610,-0.189040,-0.530387,-0.649641,0.846818,0.231002,-0.364116,0.733055,0.559277,-0.085714,-0.347660,0.565078,0.345911,-0.276172,-0.014292,0.357984,-0.781066,0.131924,-0.502696,-0.359038,0.000000
-0.615868,-0.967320,-0.552581,0.037222,0.455611,-0.254462,-0.929157,0.488388,0.423579,-0.455367,0.886284,-0.513554,-0.921479,-0.638914,0.336074,0.956610,0.255976,0.598591,0.081471,0.020475,-0.333015,0.000000
-0.949047,-0.528560,-0.230215,0.941998,0.755232,0.663783,0.829777,-0.121799,-0.372298,0.766242,0.052720,0.988022,0.155405,0.214917,0.910903,0.356493,0.573961,-0.818882,0.172711,-0.110292,0.259826,1.000000

0.766062,0.127831,0.967589,0.820329,-0.195671,-0.010981,-0.634010,-0.416262,-0.059259,0.198546,0.122857,-0.983459,0.547410,-0.316935,0.063177,0.824152,0.982445,0.893350,0.187014,-0.213652,0.399152,0.000000
-0.344779,0.463424,-0.775506,-0.976638,0.008616,-0.249468,0.125476,-0.746940,0.555752,0.994237,-0.734069,-0.983182,-0.903012,0.214650,-0.427839,0.421125,0.336959,-0.030316,0.484053,-0.124449,-0.797357,0.000000
-0.002028,-0.157628,-0.798212,0.919892,0.575487,-0.865820,-0.472816,-0.947386,0.977583,0.911439,0.509426,-0.504643,0.744011,0.783135,-0.625965,-0.305948,0.821027,0.970455,-0.017508,0.491695,-0.133579,0.000000
-0.389156,-0.947691,-0.401227,-0.034668,-0.407269,-0.046412,-0.946564,-0.515793,0.929464,0.650973,0.739109,-0.315686,0.504214,-0.690420,-0.962340,0.733329,0.043180,-0.590531,-0.464622,-0.013775,-0.446699,0.000000
0.942173,0.873409,0.701651,0.689721,0.551561,0.836914,0.053470,0.987121,0.564811,0.948355,-0.561287,-0.122821,0.350835,-0.129153,-0.286721,0.891781,0.587356,0.389900,0.120270,0.590924,-0.246071,0.000000
-0.998275,-0.416242,-0.329020,-0.028295,0.138258,0.291715,0.846278,0.217567,0.521560,0.288043,0.088468,-0.611471,0.725801,0.259305,-0.935179,0.037924,0.469595,-0.321574,-0.579699,-0.903152,-0.519272,0.000000
-0.014936,0.353130,-0.548387,-0.239059,-0.469955,0.121834,0.442077,-0.119161,0.945860,0.123626,0.056163,0.655080,0.960204,0.391461,0.741325,0.401349,0.726981,0.674429,-0.980041,0.862850,-0.022437,0.000000
0.742058,0.080844,0.476302,0.337770,-0.705619,-0.345419,0.831172,0.034625,-0.692557,0.567247,-0.884186,0.074376,-0.121009,0.559557,-0.080050,0.946104,0.069864,-0.547349,0.790765,0.140376,0.466109,0.000000
0.788010,-0.421552,0.003480,-0.784934,-0.002754,0.150100,-0.022168,-0.489863,0.820004,-0.135179,-0.021720,-0.834031,0.156682,-0.007421,0.555773,0.284707,-0.755299,-0.204484,-0.403974,0.294212,-0.968505,0.000000
0.765027,-0.321146,-0.493759,0.104643,-0.619129,0.155019,-0.639498,0.266372,-0.651260,0.010587,-0.058756,-0.475340,-0.508286,-0.021614,0.745109,0.658254,0.771562,-0.027871,0.345985,-0.180900,0.338908,0.000000
0.248788,0.690542,0.059513,-0.100479,-0.656789,0.236838,0.305063,0.471117,0.895149,0.537268,-0.813098,-0.378006,0.126952,-0.157797,-0.949828,-0.553636,-0.044130,-0.986179,-0.956847,0.369416,-0.884335,0.000000
-0.900877,-0.561388,0.259987,-0.768048,0.347780,0.813441,0.389411,-0.607959,0.725167,-0.416103,0.374807,0.727769,-0.144013,-0.266946,-0.973693,-0.876034,-0.722104,0.538381,-0.225987,-1.000000,0.558824,0.000000
0.807439,-0.320048,-0.053262,-0.029507,-0.070296,0.201628,-0.286520,0.154225,-0.940907,0.925992,-0.083026,-0.332331,0.054123,-0.197470,0.891110,-0.340556,0.974148,0.992912,-0.905332,0.241862,0.298501,0.000000
-0.777132,0.994202,-0.591052,-0.005796,0.610096,0.836768,0.801429,-0.108199,-0.301826,-0.730047,-0.837791,-0.169139,-0.672834,0.835139,-0.486007,-0.734916,0.843606,0.651321,-0.417061,0.199418,-0.296731,0.000000
-0.497087,-0.548631,0.319010,0.827988,-0.333963,-0.891037,0.039780,-0.232044,0.566886,0.755448,-0.709015,0.074683,0.890133,-0.377239,-0.796075,0.062308,-0.369116,-0.736821,0.783196,-0.957555,0.124119,0.000000
0.690774,0.336528,0.105083,-0.312729,0.056433,-0.905588,0.813948,0.292887,-0.465125,0.926756,-0.051616,-0.944132,0.234134,-0.221969,-0.172081,0.089906,-0.682031,-0.269030,0.207148,0.013121,0.435346,0.000000
-0.002080,-0.457381,0.986999,-0.122958,0.658193,-0.297371,-0.101019,0.966185,0.924672,0.777894,-0.239896,0.384099,0.587165,0.228367,0.763848,0.004484,-0.810818,-0.817967,0.787164,0.664903,-0.658071,0.000000
-0.277223,-0.555589,-0.771538,-0.643204,-0.768670,0.403189,0.926630,-0.813105,-0.073030,0.510132,-0.643707,0.223791,-0.138725,-0.308878,0.863765,-0.452742,0.668007,-0.038030,-0.277851,0.916179,0.416791,0.000000
-0.264438,0.865047,0.017478,0.842481,0.284768,0.911775,0.422353,-0.087724,0.104204,-0.804888,-0.811619,0.396861,-0.455581,-0.859432,0.848201,0.223836,0.212522,0.034676,0.196660,-0.224974,0.862301,0.000000
0.751094,-0.834529,-0.385113,-0.695820,0.022073,-0.035898,0.926715,0.234511,0.940745,-0.680589,-0.263975,0.329506,-0.507187,-0.544114,0.020548,-0.252480,0.876513,0.133530,0.061724,0.770093,0.354534,0.000000
-0.126458,-0.243934,0.393841,-0.137198,-0.511643,-0.953050,-0.575067,0.726676,0.723893,0.147047,-0.506476,-0.571969,-0.896420,-0.958678,0.181369,-0.945128,0.430598,-0.804472,0.176421,0.876658,0.874874,0.000000
-1.010327,0.972411,-0.051838,-0.675578,-0.008687,0.159248,-0.109806,0.956969,0.314168,-0.211895,0.377864,-0.308883,-0.360070,0.120479,0.476485,0.882199,-0.250862,0.032598,0.917356,0.849072,0.872677,1.000000

-0.987793,-0.078056,0.385784,-0.522507,0.936338,0.000555,-0.807733,0.752251,-0.010090,0.381917,-0.997742,-0.874203,0.784845,0.998474,0.531968,0.658254,0.725578,0.637013,0.865902,-0.380291,-0.527268,0.000000
0.362285,-0.739372,0.255964,0.667470,-0.923704,-0.666128,-0.495407,0.184967,0.878842,-0.555956,0.356486,0.769829,-0.477584,-0.557421,-0.125217,0.513352,-0.372478,-0.133641,-0.733207,0.127459,0.301629,0.000000
-0.222238,0.579516,-0.252517,0.612354,-0.113073,0.202002,0.338603,-0.570788,0.549364,0.125499,-0.477078,-0.789239,-0.253639,-0.136448,0.481857,0.856136,-0.889950,-0.902890,0.210075,-0.344116,-0.931837,0.000000
0.491012,0.473800,0.515305,0.172855,0.270119,-0.240211,-0.262429,-0.586474,-0.805170,-0.868709,-0.793817,-0.478133,-0.412641,0.921506,0.280496,0.262856,0.076136,0.135533,0.122515,-0.525132,0.154723,0.000000
0.410138,0.651601,-0.189811,0.477289,0.141514,-0.705741,-0.803827,0.275918,-0.714225,-0.077415,0.998108,-0.572436,0.056780,-0.958129,0.446150,-0.740349,-0.005439,-0.633961,-0.391827,-0.875851,0.317339,0.000000
0.663503,-0.702872,0.138996,0.051490,0.065962,0.984008,0.778436,0.362297,0.933470,0.206076,0.928953,0.970092,-0.918455,-0.972472,-0.998474,0.050990,-0.405806,0.024343,0.126719,0.947691,-0.184044,0.000000
0.300154,0.541490,0.412731,0.442100,0.878292,-0.715629,0.383221,-0.282697,-0.779717,0.111547,0.723868,0.234535,0.481490,0.341349,-0.035015,-0.965697,0.280481,-0.152313,0.705619,-0.108382,-0.263996,0.000000
-0.082428,0.115086,0.961337,-0.931088,0.047981,0.527573,0.837825,0.880367,0.696829,0.765051,-0.943602,0.752556,0.539171,0.653310,0.814814,0.906064,0.113641,-0.541856,0.351726,0.592639,0.756292,0.000000
-0.646535,-0.043488,0.729915,-0.706468,0.616199,0.606189,-0.302835,0.461053,0.177221,0.739847,0.463375,-0.697562,-0.454146,-0.239983,-0.866024,-0.855464,0.908445,0.960814,0.907773,0.472010,0.349252,0.000000
-0.390057,0.406770,-0.285126,0.908274,-0.993774,-0.777703,-0.641285,-0.762566,0.243873,0.968140,-0.680549,-0.773370,0.130161,0.894894,0.304239,0.910215,0.692312,-0.303995,0.884396,0.095836,-0.446598,0.000000
-0.141759,-0.720634,-0.668813,0.442061,-0.427778,0.988952,-0.072420,-0.845698,0.808161,0.982666,-0.440291,0.074801,-0.866573,-0.645131,-0.755119,-0.956481,0.708670,0.025680,0.636464,0.800470,-0.814203,0.000000
0.886227,0.537095,-0.691580,-0.096808,-0.355205,-0.668996,-0.257241,-0.739067,0.958190,0.281716,-0.704276,0.640065,0.147130,-0.308390,-0.436140,0.730827,0.003261,-0.362957,-0.514573,0.774834,0.094835,0.000000
-0.993469,0.357036,0.380386,0.893820,0.176910,0.916929,0.184484,0.672964,-0.427595,-0.770101,-0.799249,-0.299356,-0.840510,0.631947,0.699088,-0.726920,0.742729,-0.616321,0.167064,-0.716849,0.056102,0.000000
0.442183,-0.647328,0.869564,0.230647,-0.854366,0.708487,0.841121,0.330485,-0.241615,0.386813,-0.304117,0.994751,0.589831,-0.342021,-0.526841,0.235023,-0.311869,0.255531,0.790460,-0.478744,0.582080,0.000000
-0.482467,0.313883,-0.937681,0.991333,-0.902951,-0.470809,0.995178,-0.589160,0.449263,0.282998,-0.069892,0.449080,0.012879,0.943968,0.243690,0.378582,-0.739921,0.741447,0.823664,-0.655629,-0.527573,0.000000
0.827265,0.641652,0.171653,0.283405,0.009038,-0.047028,0.953368,-0.192232,-0.374676,-0.621845,0.010260,0.782586,0.254189,-0.722404,0.757927,-0.527696,0.626942,0.669912,0.290139,-0.222766,-0.697993,0.000000
0.245964,-0.167135,0.845263,0.981735,-0.052085,0.611805,0.441389,-0.711295,0.365581,0.092715,0.556566,0.574511,0.046433,0.849239,-0.575610,0.780999,-0.644765,-0.345561,0.409546,-0.802645,-0.561099,0.000000
0.106421,-0.651906,0.514817,0.167939,0.141392,0.092380,-0.982543,-0.979553,0.295694,-0.198874,0.084281,-0.823969,-0.013163,-0.026483,-0.261879,0.596179,0.452498,0.604785,-0.161970,0.436499,-0.125594,0.000000
0.759575,-0.214022,0.306041,0.661938,0.389447,0.538377,-0.215369,-0.267281,0.184667,0.379372,0.420960,-0.624378,0.632496,-0.593371,0.034991,0.395123,-0.991577,0.400555,-0.850032,0.252640,0.030850,0.000000
-0.635853,-0.202114,0.026198,0.415264,-0.373089,-0.256935,0.148118,-0.344509,0.083833,0.684662,0.447129,-0.045845,-0.952086,0.705619,-0.111829,0.861751,-0.285971,0.997558,0.547655,-0.797544,0.229943,0.000000
0.972106,-0.080046,0.052277,0.304369,-0.374859,-0.117087,-0.390545,-0.651784,0.872494,-0.689485,0.838313,0.113071,0.458357,0.965087,-0.303323,0.081149,-0.278141,0.478927,0.994263,-0.853023,-0.564262,0.000000
-0.487578,-0.212296,-0.152781,-0.462390,0.532823,-0.943419,0.932981,-0.063495,0.487533,0.837299,0.520757,0.665273,0.104389,-0.117534,0.346355,0.935301,0.574328,-0.458907,0.816645,-0.039955,0.061060,1.000000

0.542955,-0.361003,-0.347209,0.793146,-0.107700,0.103940,0.819208,0.119602,0.619434,-0.199927,0.663198,-0.617298,0.641835,-0.171361,-0.524949,0.494980,0.174506,-0.264565,-0.144993,0.113987,-0.930906,0.000000
0.626759,-0.495468,0.993225,0.395230,-0.072054,0.504990,-0.363994,0.120151,0.265175,0.029275,0.989380,-0.379559,-0.653371,-0.683523,-0.731803,0.307108,-0.763665,-0.504990,-0.991516,0.605457,0.346110,0.000000
-0.706534,-0.370830,-0.757134,-0.683401,0.927854,-0.892087,0.099147,-0.698843,-0.803522,-0.425703,-0.155585,0.454756,0.592090,-0.254128,0.574633,-0.901914,0.789788,0.911862,-0.325236,0.760247,0.671316,0.000000
0.377911,0.062960,0.973388,-0.326423,0.103454,-0.759087,0.415509,-0.583972,0.948119,0.022682,0.382733,0.421979,0.583605,0.969359,0.358806,0.062553,0.381358,0.171410,-0.787652,-0.666982,-0.652516,0.000000
-0.645924,-0.576708,-0.532762,-0.643666,0.566576,-0.115152,0.003545,-0.520493,0.602344,-0.925230,0.643483,0.772759,-0.997253,-0.807550,-0.385907,0.107402,0.455184,0.072391,-0.760430,-0.271279,-0.996582,0.000000
0.286965,-0.897641,0.557421,0.756462,0.663747,-0.763298,-0.337931,0.919492,0.275124,0.781487,-0.325114,0.973876,0.832575,-0.443648,-0.128880,-0.670827,-0.140259,-0.300150,0.490890,-0.477462,0.062960,0.000000
-0.745537,0.549242,-0.312662,0.087555,0.542344,-0.867367,0.314127,0.145299,0.263466,-0.091450,-0.181860,-0.421674,0.275307,0.223365,0.491195,0.083792,-0.752739,0.715629,-0.019631,0.228553,0.559008,0.000000
0.001478,0.462813,-0.252052,-0.195288,-0.499130,-0.817011,-0.212561,-0.478988,-0.460738,0.302652,0.639760,0.238197,-0.432112,-0.628651,-0.921934,0.065645,-0.147862,-0.693655,-0.938658,-0.242531,-0.223243,0.000000
0.964843,-0.158422,0.260659,-0.315627,0.528672,-0.016193,-0.843745,0.162877,0.206824,-0.762688,0.529527,-0.451704,0.576769,0.205908,-0.884335,-0.122459,0.018758,-0.373150,0.342692,-0.497360,-0.182592,0.000000
0.994690,-0.298807,0.501266,-0.511765,-0.324442,-0.745598,0.452071,-0.855953,-0.934446,0.752617,0.471358,0.618946,0.643239,0.689749,-0.810968,0.694205,-0.281495,0.366558,0.407269,0.453841,0.178869,0.000000
-0.452803,-0.929136,-0.143162,-0.915281,0.722831,-0.094720,-0.948119,0.838618,-0.134922,0.247841,0.788080,0.793573,0.905820,-0.193396,0.667470,-0.088412,0.529710,0.104402,-0.974120,0.492538,-0.051668,0.000000
0.770623,0.306619,0.318461,0.261933,-0.419050,-0.853694,0.707633,0.765801,0.459151,-0.358379,-0.515427,-0.059124,0.508591,-0.840144,-0.633778,0.991028,-0.178262,0.830500,0.118503,0.343608,0.167211,0.000000
-0.965819,0.993957,0.065889,0.777764,-0.384625,-0.937498,-0.376263,0.177465,-0.660939,0.813166,-0.764885,0.989380,0.199561,0.760735,0.179174,-0.651845,-0.530259,0.384259,0.837886,-0.041841,-0.337870,0.000000
-0.289224,-0.537767,0.273354,0.259589,0.860164,-0.263763,-0.521226,0.686026,0.794183,-0.733573,-0.877621,0.850154,-0.384136,0.659047,-0.922300,-0.881161,0.842402,0.874569,-0.840083,-0.596973,-0.477584,0.000000
0.473373,0.324747,-0.238258,0.233676,0.557665,-0.658010,0.344890,0.959716,0.901242,0.923826,-0.933287,-0.183813,0.937681,0.813715,-0.826044,-0.627430,0.105784,-0.067682,0.338237,-0.173498,-0.493210,0.000000
-0.774651,0.359905,0.584460,-0.424197,-0.256874,-0.018873,0.729362,-0.350322,-0.107510,-0.862667,0.347880,-0.411481,0.145909,-0.056906,-0.901486,0.635853,0.202517,0.222571,0.614917,0.409894,0.056429,0.000000
0.599231,-0.887814,0.392315,-0.753044,0.632740,-0.288053,0.798456,-0.681143,-0.206275,-0.772149,0.364116,0.313639,0.343059,-0.662099,-0.081759,-0.391949,-0.894772,0.811701,0.615101,-0.285195,0.304483,0.000000
0.341227,-0.894833,0.722160,-0.340178,-0.215125,0.567125,-0.589099,-0.723563,0.031393,0.898740,0.129917,0.850887,-0.742424,-0.907285,0.978637,0.900632,-0.797601,0.112481,0.330119,-0.214026,0.653737,0.000000
0.265664,0.906552,-0.270974,-0.457829,0.388226,-0.107013,0.652455,0.960936,0.799371,0.651601,0.208007,-0.415204,0.080844,0.145389,0.339824,-0.088995,0.386975,-0.340739,0.420270,-0.839839,0.973083,0.000000
-0.182653,-0.429243,-0.051241,-0.707938,0.831538,-0.927366,0.076632,0.879635,-0.856807,0.318216,0.388958,-0.104160,-0.344401,0.663930,0.327799,0.676809,-0.198889,-0.295389,0.298501,0.636952,0.971557,0.000000
-0.141942,0.145909,0.879818,0.644948,0.443831,0.627125,0.200598,0.276589,-0.103183,-0.122349,-0.025888,-0.225257,-0.437300,-0.804743,0.054231,0.623463,-0.551500,-0.587695,-0.346110,-0.678396,-0.066378,0.000000
0.636219,-0.600269,0.382000,-0.621204,0.673879,-0.008688,0.110360,-0.581774,0.080183,0.516526,-0.287881,-0.349651,0.653066,0.992004,-0.912107,0.146458,-0.541612,0.064078,-0.692129,-0.816767,-0.306375,1.000000

-0.326334,-0.333659,-0.606616,-0.722709,0.283609,0.620838,-0.726432,-0.894223,-0.020586,-0.988159,-0.023120,0.246193,0.711417,-0.786981,0.249001,0.484787,0.041667,0.960509,-0.101429,-0.799188,0.357891,0.000000
0.183691,-0.115696,-0.322123,-0.409162,-0.427839,0.635731,-0.684072,0.724845,0.374554,0.904843,-0.831111,0.043428,0.080660,0.969481,-0.037873,0.211219,0.586840,0.269631,0.479782,0.363811,0.563158,0.000000
0.466658,0.389386,-0.402142,-0.993286,0.107028,-0.186132,-0.065828,0.895077,0.736564,0.453108,0.821223,-0.881588,-0.122227,-0.721610,-0.799799,-0.387249,0.083842,0.024201,0.086194,-0.849055,-0.163244,0.000000
-0.748100,0.228431,0.293863,-0.901242,0.530137,-0.651662,0.276223,0.117832,-0.601123,-0.229347,-0.730522,-0.285012,-0.686087,-0.832942,-0.901364,0.293619,-0.110874,0.170507,0.618152,0.995544,0.201880,0.000000
-0.225745,-0.844783,-0.490951,0.575976,0.489608,0.326151,0.362163,-0.197302,0.008995,0.000036,-0.557665,-0.204749,-0.102878,-0.595141,-0.670339,0.710929,-0.510300,-0.866939,-0.234474,0.741325,-0.014059,0.000000
-0.768365,0.522752,0.941465,-0.433027,-0.009491,-0.715018,0.661489,0.027619,-0.144017,-0.444014,0.170263,0.940001,0.350505,0.928465,-0.436384,-0.269204,0.922666,0.145421,0.703238,0.973510,0.689077,0.000000
-0.191565,0.537950,-0.551561,-0.721488,-0.846370,-0.175268,-0.588977,0.497909,-0.133335,0.778924,-0.152440,-0.635914,0.747368,0.802301,0.962706,-0.098178,-0.932554,0.094821,-0.086336,0.945555,-0.655934,0.000000
0.163976,-0.545152,0.400800,0.233619,0.255409,-0.322062,-0.738273,-0.298074,0.430219,0.568468,-0.569201,-0.527024,0.187231,-0.618580,0.817255,0.558885,0.859676,0.227760,-0.277017,0.792169,-0.705374,0.000000
-0.958007,0.870174,0.466292,-0.331462,-0.590258,-0.464400,-0.714652,-0.904538,0.217322,0.441389,-0.759026,-0.865902,-0.727531,-0.560656,-0.964904,-0.509629,-0.869625,0.064180,0.441267,-0.341533,0.054765,0.000000
0.967528,-0.035257,-0.526048,-0.244606,0.867611,-0.793939,-0.134617,0.345622,-0.370891,-0.750908,-0.085177,0.791620,0.914670,-0.313211,0.227210,-0.251259,-0.605396,0.313456,-0.557054,-0.242225,-0.135166,0.000000
-0.668630,0.142918,-0.076876,-0.556139,-0.167699,0.979186,-0.960997,-0.041072,0.456038,0.092319,-0.771966,-0.916562,0.957457,-0.741874,0.542467,-0.467391,0.316996,-0.101779,-0.821833,0.613636,-0.610340,0.000000
-0.638966,-0.227454,-0.095676,0.159276,-0.377972,0.762444,-0.821772,-0.934263,-0.357402,-0.874020,-0.658498,-0.144505,-0.067965,-0.128208,0.635975,0.350566,0.571764,0.320841,0.121910,-0.161962,-0.729362,0.000000
0.281838,-0.258461,-0.260475,0.786492,-0.893735,0.737053,-0.423872,0.804743,-0.482772,0.248268,-0.331523,-0.725089,0.667104,0.242164,0.096469,0.848201,-0.759331,-0.002533,0.733940,0.031365,-0.708609,0.000000
0.368145,0.209204,0.603381,-0.763726,0.377239,-0.055820,-0.451582,0.710746,-0.719413,0.472030,-0.796014,0.773919,-0.418195,0.913877,0.916623,-0.879208,0.437117,-0.292520,-0.099807,-0.867672,0.147557,0.000000
0.929685,-0.162389,0.785699,-0.061190,-0.459639,0.613880,0.296548,-0.298624,-0.242286,-0.752922,0.492660,-0.886105,0.187963,-0.700858,0.576586,0.146092,-0.270486,0.637867,0.398480,-0.039705,0.096591,0.000000
-0.315043,0.392254,-0.728202,-0.462569,-0.319071,-0.329630,0.567858,-0.628163,0.238990,0.929624,-0.391827,0.257668,-0.811090,0.695242,-0.941343,-0.878414,0.733818,-0.175024,0.891964,0.562853,-0.120457,0.000000
0.395245,-0.193884,-0.349406,-0.964232,-0.303384,0.486923,-0.325053,-0.873043,0.415570,-0.181494,0.316324,-0.689566,0.117344,0.592029,0.756951,0.297891,-0.502548,0.851558,0.508286,0.034486,-0.907407,0.000000
-0.551561,-0.861080,-0.807123,0.418928,-0.644215,-0.457015,-0.813044,0.479110,-0.051039,0.462630,0.030235,0.773370,-0.630909,0.423139,0.637623,0.690359,-0.385846,-0.559679,0.184729,-0.832148,0.410932,0.000000
-0.600391,0.994140,0.958678,-0.646962,-0.796258,0.466170,-0.638966,0.819575,-0.617176,0.237404,0.363994,-0.699026,-0.990234,0.036592,-0.158300,0.061007,-0.171300,-0.628956,-0.867489,-0.034272,0.653127,0.000000
-0.775750,-0.863826,0.197607,0.146886,0.350749,0.597400,0.078585,0.860652,-0.699210,-0.126988,0.962096,-0.371685,0.379131,-0.137059,-0.626392,0.370342,-0.872921,-0.618763,0.696524,-0.551317,-0.872799,0.000000
0.683645,0.781610,0.730583,-0.563341,0.336100,0.977294,-0.903806,-0.208411,0.922483,0.842952,-0.707511,-0.062281,0.958129,-0.578600,-0.702689,0.982238,-0.501144,0.262795,0.765862,0.954955,-0.273354,0.000000
0.602283,-0.952635,-0.193030,0.173559,0.603809,0.089976,0.863948,0.112615,0.840144,-0.967467,0.164586,-0.933775,-0.524277,-0.480819,-0.889035,-0.884335,0.304361,0.923765,-0.675893,0.816034,-0.008439,1.000000

0.633778,0.265175,-0.663564,-0.258217,0.149327,0.188330,-0.350627,-0.228431,-0.539293,-0.480636,-0.072909,0.136265,-0.508774,-0.506027,0.969481,0.486251,0.907407,-0.066805,-0.793756,0.225135,-0.794855,0.000000
-0.942991,-0.587634,0.070528,-0.522996,-0.677664,-0.401593,-0.572192,-0.056490,0.189489,0.298440,0.329386,0.373272,0.099887,0.078707,-0.788324,0.713614,-0.485275,0.999756,0.871212,0.902097,-0.342875,0.000000
0.089755,-0.570727,-0.303934,0.044832,0.193823,0.402875,-0.302896,-0.998535,-0.226112,0.871761,-0.000627,0.414106,-0.127171,0.317118,0.785150,-0.254250,-0.275613,-0.013276,-0.592212,0.738151,0.526414,0.000000
-0.858516,-0.556749,0.347026,0.289224,0.121372,-0.267739,-0.757805,0.280923,-0.921079,0.673147,0.682241,0.116916,-0.216346,0.283670,-0.356487,-0.506149,0.682974,0.531053,0.839412,0.522691,-0.418073,0.000000
-0.636402,0.885983,-0.221290,0.907163,0.570971,0.975829,-0.953124,0.558031,-0.121250,0.946348,-0.414655,0.289529,-0.716788,-0.638783,-0.105991,0.753899,0.996887,-0.814020,-0.487167,-0.389569,-0.591113,0.000000
0.083773,0.067904,0.426801,0.417280,-0.049654,-0.830073,0.815607,-0.046052,-0.334758,-0.628651,0.929929,0.658193,-0.674368,-0.870724,0.981079,-0.653432,-0.369732,0.946287,-0.690298,-0.935240,-0.003107,0.000000
0.208106,-0.899655,-0.636952,0.544053,0.353557,0.953246,-0.547349,0.364605,-0.245094,0.533616,-0.993347,-0.295694,-0.136814,0.024567,0.258034,-0.207373,0.574084,-0.276345,-0.697867,-0.577075,-0.123875,0.000000
0.647694,-0.056856,-0.217139,0.945311,0.343120,-0.912717,0.238319,0.496445,0.117832,0.222022,0.627979,0.675161,0.392193,0.133946,-0.348552,0.753533,-0.497482,0.516404,-0.329203,0.562731,0.756401,0.000000
0.890500,-0.430403,0.227332,0.138096,-0.692862,-0.510117,-0.788385,-0.468184,-0.805048,-0.830683,0.661122,0.738578,0.973022,0.239845,0.281594,-0.941160,-0.438459,-0.136021,-0.958251,0.366741,-0.782098,0.000000
0.480087,-0.701102,0.613514,0.146336,-0.973815,-0.903134,-0.961608,0.565661,0.281167,0.675344,-0.485763,0.709281,-0.051302,-0.838252,-0.490402,-0.676077,-0.521043,0.342143,-0.045747,0.686148,-0.439192,0.000000
0.748711,0.065279,0.803156,0.032197,0.807855,-0.856685,0.105930,0.746391,0.623768,0.956359,0.166479,0.047456,0.202124,0.051363,0.821162,-0.250099,0.559557,-0.749687,-0.227393,-0.670461,-0.753044,0.000000
-0.142918,-0.437727,-0.330607,-0.369610,-0.671072,-0.532823,-0.104770,0.251686,0.131260,-0.811884,-0.633412,0.082003,0.895627,-0.705435,-0.151891,-0.485763,0.470565,0.781793,0.754692,-0.793146,-0.648671,0.000000
0.710135,-0.294290,-0.673208,-0.893429,-0.879879,0.909665,0.644948,0.912595,0.986206,-0.147008,0.919858,-0.568834,0.468307,0.194983,-0.962157,-0.023211,-0.674429,0.566698,-0.816523,-0.684805,0.626881,0.000000
0.853389,0.304727,0.901120,0.751152,-0.173437,0.929319,-0.235084,0.441389,0.339152,-0.977599,-0.072542,-0.776605,-0.253273,-0.495041,0.190649,-0.321635,-0.141759,-0.368084,0.712271,-0.719962,-0.196753,0.000000
-0.395123,-0.377728,-0.407636,-0.058870,0.036592,0.062471,0.132664,-0.805780,-0.622303,-0.713248,-0.480758,0.732841,0.053682,0.837275,0.963439,-0.756768,-0.620289,-0.496506,-0.140965,0.983398,0.959655,0.000000
0.942320,0.719535,-0.885006,-0.027778,-0.289712,-0.613575,-0.658864,0.295572,-0.582629,0.382244,-0.948912,-0.669668,-0.689261,0.166051,-0.240272,-0.271767,-0.782159,0.705435,-0.316874,0.676504,-0.648976,0.000000
-0.252724,0.097263,-0.758721,0.162145,0.901975,-0.655629,-0.704947,-0.221595,-0.512497,0.812494,0.079318,-0.191870,0.192358,-0.134312,-0.395734,0.162877,0.213782,-0.405927,0.025849,-0.601917,-0.155980,0.000000
-0.897824,-0.502548,-0.670583,0.488571,0.316874,0.379192,0.151097,-0.629261,0.743889,-0.773858,-0.514328,-0.378643,-0.970763,-0.280679,-0.361492,-0.096042,-0.458052,-0.387860,-0.272500,0.200598,0.615894,0.000000
0.062532,-0.929685,-0.985290,0.583178,-0.781426,-0.545640,0.061617,0.266640,-0.527940,-0.691824,0.706778,-0.731071,0.752190,0.268532,-0.973571,0.404157,0.069430,0.004757,0.908872,0.780633,0.789178,0.000000
0.101230,0.909360,-0.941954,0.783990,-0.274453,-0.025849,-0.001288,0.172704,0.103671,0.783319,0.983825,-0.417035,-0.153539,0.387310,0.807672,0.158116,-0.429182,0.989318,0.079501,-0.590930,0.079318,0.000000
0.240822,-0.914243,-0.214332,0.609668,-0.385907,-0.673757,0.868099,0.836421,-0.162694,-0.877010,0.550096,0.315348,-0.117100,-0.558214,-0.621998,0.858394,0.954894,0.040376,0.703970,-0.574999,-0.050081,0.000000
-0.988891,0.377239,-0.435774,-0.797296,-0.417524,-0.906674,0.158361,0.210425,0.519272,-0.977599,-0.994507,-0.238380,0.490280,0.916135,-0.322062,0.694205,0.719291,0.399396,0.580187,-0.347392,0.602161,1.000000

-0.591479,0.283120,-0.954344,0.555589,0.649281,0.140416,-0.158544,-0.107395,-0.485702,0.100803,0.592090,0.548814,0.563463,0.814997,-0.029756,-0.502365,0.041231,0.053865,-0.342387,-0.061495,0.838069,0.000000
0.330790,-0.453352,-0.495651,-0.443281,0.957640,0.854976,-0.969970,-0.972045,0.829890,-0.185766,0.696402,-0.329936,-0.645802,-0.379070,-0.803827,0.335734,0.132786,-0.639515,-0.554735,0.450484,0.080477,0.000000
0.790521,-0.627674,0.464034,-0.909726,-0.925962,-0.919980,0.983764,-0.872372,0.516098,-0.795770,0.316141,-0.481979,-0.361187,0.710196,0.249916,0.382672,0.628101,-0.853633,0.155004,0.375225,-0.018708,0.000000
-0.475753,-0.154149,0.573046,0.756279,0.548509,-0.995483,-0.784234,0.595569,-0.336772,-0.944334,-0.033601,0.029206,-0.925352,-0.560594,-0.142430,0.654775,-0.750725,-0.904111,0.428022,-0.277932,0.968139,0.000000
0.608325,-0.825983,0.296670,0.324931,0.808893,-0.686514,-0.713614,-0.961180,-0.708853,-0.400067,-0.435896,0.258888,0.115757,0.705496,0.836482,-0.690115,0.813349,-0.948729,-0.458052,0.809259,0.220313,0.000000
-0.372234,0.141575,0.929929,0.820490,0.510666,-0.505966,0.636280,-0.274514,-0.860530,0.182043,-0.105869,-0.505661,-0.706717,-0.787042,-0.830866,-0.199438,-0.408734,-0.403668,-0.018036,-0.309061,-0.015168,0.000000
0.370586,-0.211768,0.749687,0.024812,-0.645863,0.566942,-0.685476,0.942930,0.576708,-0.740837,0.229164,-0.626820,0.818232,-0.227393,-0.661367,-0.650197,0.588488,0.258095,-0.426679,-0.962951,0.650441,0.000000
-0.110019,-0.015229,-0.263283,0.451338,-0.215186,0.694998,-0.142979,0.477401,0.782464,0.153966,0.165624,-0.094394,0.191198,-0.149937,-0.599353,-0.530625,-0.619984,-0.208716,0.294534,0.761956,0.208594,0.000000
-0.365764,0.633229,-0.377361,-0.283792,0.186377,0.699576,-0.784661,0.257851,-0.778619,0.300943,-0.219581,0.027009,-0.130894,-0.660329,0.283364,0.315348,-0.673086,0.408918,-0.043611,0.085604,-0.428999,0.000000
-0.143651,0.031220,-0.136387,-0.701102,-0.830317,-0.766350,-0.970397,0.931638,-0.089267,0.736625,0.916379,0.830195,-0.474227,-0.268777,-0.911618,0.643239,0.508530,0.587023,-0.440046,0.255776,0.266640,0.000000
0.738578,-0.365581,-0.876522,0.386517,0.850093,-0.154088,0.379192,0.364177,-0.700125,-0.310404,-0.190954,0.948546,-0.759026,0.896115,-0.663869,0.623829,0.934996,-0.087863,-0.214759,-0.585498,0.150487,0.000000
0.706839,0.951537,-0.640309,0.713309,-0.665029,0.790033,-0.426496,0.208106,-0.665822,0.381695,0.506333,-0.080905,0.769097,0.620472,0.537156,0.104587,-0.371868,-0.497971,0.590381,-0.347942,0.628712,0.000000
0.175085,-0.935545,-0.288369,0.674062,0.051118,0.340922,0.401166,-0.257485,-0.094150,-0.341105,0.459273,-0.696768,0.975524,0.078768,0.303507,-0.551561,0.973998,-0.394330,0.965758,0.633106,-0.321024,0.000000
0.997925,0.200110,-0.851131,-0.161290,0.143284,-0.638050,-0.732536,0.466903,-0.673696,0.746269,0.953246,0.445845,0.549486,-0.054964,0.289834,0.897031,-0.368145,0.966735,0.767266,-0.895810,-0.548631,0.000000
-0.193335,0.368633,-0.666311,0.593616,-0.113681,-0.192297,-0.122349,-0.268593,-0.818720,0.788812,-0.049287,-0.415082,0.551500,0.215308,-0.705680,0.594348,-0.343242,-0.008271,-0.319742,0.962706,-0.769402,0.000000
-0.331217,0.139927,0.362590,0.413678,-0.625233,-0.646901,-0.351054,0.362346,-0.300272,-0.437361,-0.094211,0.110446,-0.537584,-0.980773,-0.067537,0.923460,0.331523,0.220069,-0.313272,0.028046,0.005103,0.000000
-0.143223,-0.013459,0.306497,-0.794183,-0.572680,0.841487,0.841121,-0.015595,-0.403668,-0.909665,-0.959288,0.775079,-0.287881,-0.901791,0.437056,0.023530,0.823542,0.741203,-0.663808,0.542039,0.140721,0.000000
-0.949278,-0.008271,-0.957701,-0.448531,0.703238,0.685659,0.812006,-0.790460,-0.555650,0.298440,0.107273,0.850093,-0.184973,0.383526,0.544298,0.409345,0.504929,-0.788751,0.665395,-0.025666,0.969298,0.000000
-0.047884,-0.738151,-0.845332,0.909665,0.613330,-0.822504,0.061190,0.352763,0.606433,0.284036,0.078646,-0.957823,0.550951,-0.024140,-0.274392,-0.651296,0.870357,-0.253517,0.992737,-0.558946,-0.059420,0.000000
-0.472091,0.831355,0.790155,0.965575,0.555589,-0.227943,0.416669,0.188818,0.043855,-0.452376,-0.103061,0.342082,-0.592395,-0.189489,-0.426313,-0.225745,-0.100192,-0.833552,0.623951,0.689993,0.166295,0.000000
-0.228126,-0.728874,0.168310,-0.539964,0.053621,0.347087,-0.725272,0.718986,0.834590,0.946104,0.509506,0.430158,0.049898,0.603137,-0.850887,-0.835871,0.370342,0.242775,0.217505,0.174474,0.538255,0.000000
-0.308756,-0.356914,-0.425947,-0.171178,-0.443159,0.838069,-0.773370,0.508530,0.531358,-0.369243,-0.324686,0.354106,0.270302,-0.059664,0.176305,0.802423,-0.527573,0.766045,-0.006256,0.491379,-0.128086,1.000000

0.930967,-0.054964,0.700980,0.182409,0.497848,0.363506,-0.305399,0.676809,-0.417280,-0.038545,0.912168,-0.797601,0.262856,-0.174047,0.436384,0.483627,-0.945860,-0.987976,0.550462,-0.744194,-0.252724,0.000000
0.824458,0.066683,0.792169,0.252297,-0.328227,0.168859,0.159764,-0.362957,0.024995,-0.772027,0.239601,0.529099,0.613269,0.006378,-0.630665,-0.596423,0.099704,0.612232,0.535569,-0.047029,0.573351,0.000000
0.255898,0.517686,0.406049,0.435774,0.155492,-0.713553,-0.031281,-0.549303,0.608203,0.948302,0.492660,0.391461,0.543504,-0.853999,-0.793207,-0.113254,-0.660756,-0.265297,-0.355998,-0.835627,0.345500,0.000000
-0.097751,0.625965,-0.368450,-0.056978,-0.379681,-0.351848,-0.185827,0.070101,0.717460,0.949583,0.069185,-0.672597,-0.946410,-0.187658,-0.016572,-0.335673,0.393414,0.132298,-0.518357,0.483444,-0.164342,0.000000
0.311686,-0.810358,-0.434919,0.536119,0.680166,0.473312,0.803827,0.599902,-0.953429,-0.705496,0.206336,-0.199438,-0.114414,-0.825983,-0.807917,0.782403,0.208045,0.041719,0.416425,0.079379,-0.727775,0.000000
0.525315,0.015290,0.499741,0.548021,-0.468856,0.106052,0.228614,-0.861385,0.388165,0.708060,0.572802,0.985778,-0.491501,-0.841914,0.734672,0.680227,0.945311,0.814753,-0.540208,0.393292,-0.740349,0.000000
0.097201,-0.559740,-0.206275,0.731803,0.706229,0.366802,-0.142064,0.262429,-0.523057,-0.363201,0.006195,-0.728202,-0.335002,-0.455428,0.248512,0.417035,-0.146825,0.569018,0.215308,-0.135838,-0.649709,0.000000
0.128819,0.103183,-0.293374,-0.256569,-0.461165,0.657094,-0.996399,0.298929,-0.431623,0.798700,0.508713,0.923337,0.974303,0.731498,-0.659780,0.356304,-0.218726,-0.645436,-0.994507,0.060457,-0.913450,0.000000
0.634632,0.370220,-0.683218,0.354778,0.341655,-0.080477,-0.769707,0.081881,0.126072,0.100375,0.388897,-0.663015,0.146886,-0.955443,-0.007782,-0.231788,-0.990478,-0.952940,0.323222,-0.895260,0.352153,0.000000
-0.213111,0.594165,-0.760491,-0.423017,-0.091220,0.680593,-0.734794,-0.293008,0.241310,0.938047,0.197546,0.298868,-0.981750,0.744682,0.773431,0.807184,0.384075,0.238807,-0.269997,-0.307535,0.635548,0.000000
-0.093844,0.471419,-0.188147,-0.244118,0.647084,0.907346,0.897214,0.955870,0.678274,-0.116794,0.587146,0.881710,-0.834834,-0.055879,-0.337077,-0.025422,-0.207739,-0.394940,-0.844661,-0.092624,0.036103,0.000000
-0.935057,-0.679739,0.271584,-0.361370,-0.985351,-0.768548,0.145665,0.698904,-0.422651,0.613819,0.482772,-0.503464,-0.345317,-0.206946,-0.037873,0.294351,-0.157811,0.435346,-0.234901,0.909726,0.608509,0.000000
-0.696646,-0.052034,-0.232154,-0.135960,0.460189,0.643361,0.903500,0.414350,-0.422773,0.902402,-0.929624,-0.743644,0.753899,-0.135594,-0.839595,0.844478,-0.741447,0.898740,0.809015,-0.781610,0.990051,0.000000
-0.350566,-0.306497,-0.563097,-0.828547,0.590991,0.062349,-0.689322,-0.805231,0.504501,0.059908,-0.919736,0.080660,0.678152,-0.083712,-0.719169,0.739189,0.142125,0.422468,-0.532762,0.574694,-0.713492,0.000000
-0.190588,-0.883175,0.603381,-0.515000,-0.540025,-0.581225,0.475753,-0.209449,0.886044,-0.874142,0.942259,-0.454451,-0.534227,0.602466,0.764580,-0.800165,-0.399579,0.780267,-0.104831,-0.029939,-0.137974,0.000000
-0.410382,-0.770745,-0.359355,0.277078,0.079867,-0.222266,-0.465560,0.038850,-0.581225,-0.513169,-0.948607,-0.409833,-0.255226,0.099765,0.804804,0.042573,-0.621693,0.906980,-0.914243,-0.542955,-0.623707,0.000000
0.905087,-0.342509,0.746086,0.381512,0.507065,0.610462,0.555467,-0.353191,0.287881,-0.797113,0.528733,0.379742,-0.988159,-0.302713,0.130955,-0.137242,-0.852473,-0.035371,0.043245,0.780023,-0.796136,0.000000
-0.319132,-0.662709,0.296731,0.590075,-0.538316,-0.199438,0.325968,-0.615711,0.781243,0.231117,-0.986877,-0.482772,-0.192297,-0.634632,0.049104,-0.710318,0.846309,0.363750,0.726371,0.047945,-0.668752,0.000000
0.115696,0.622120,-0.511765,-0.492538,-0.400678,-0.085360,-0.760613,0.627369,-0.509629,-0.102695,0.817743,-0.242958,-0.098483,-0.209387,0.893063,-0.451765,0.784478,-0.207007,-0.420331,-0.232643,0.953368,0.000000
0.738456,-0.858333,0.050325,-0.199072,0.051729,-0.728080,0.647450,0.112705,-0.678518,-0.194372,0.610034,0.568285,0.358440,0.792047,0.702078,0.548204,0.706046,0.597156,0.603748,-0.660634,0.569933,0.000000
-0.553331,-0.579272,-0.046785,-0.241066,-0.511826,0.842586,0.508530,-0.729728,-0.626698,0.882565,-0.323405,-0.919248,-0.775384,0.259865,0.845271,-0.958861,0.216651,0.993957,0.903439,-0.467330,-0.213172,0.000000
-0.482711,-0.809687,0.480392,0.442854,-0.371136,-0.020722,0.079379,0.186438,-0.680044,-0.321390,-0.037690,-0.909665,-0.440901,-0.470870,0.926817,-0.374004,-0.591479,0.121250,0.516770,-0.077059,0.391827,1.000000

0.198889,-0.211280,-0.506638,0.050081,0.698599,0.660085,0.140233,0.188147,0.699576,0.778741,0.818049,0.267067,0.396222,0.658498,-0.224647,-0.341472,0.987976,0.941221,-0.534715,-0.157018,-0.609851,0.000000
-0.009491,0.516282,-0.708487,0.546861,0.119480,-0.241127,0.671987,-0.186010,0.558214,0.602405,0.535020,0.644642,-0.440413,0.404157,0.595752,0.447005,-0.388531,-0.613025,-0.793878,-0.446577,-0.696829,0.000000
-0.210486,-0.237953,-0.342692,0.331889,-0.520554,0.487899,0.138829,0.134617,-0.950987,-0.368084,0.696280,0.338908,-0.768548,0.426862,0.801630,0.149754,0.305948,-0.241127,0.265908,0.249794,0.496078,0.000000
0.381573,-0.491928,-0.506943,0.497421,0.198401,-0.100742,0.421979,0.331339,0.199438,-0.377117,0.802057,-0.065645,-0.290933,-0.932981,0.365764,-0.597278,0.663137,0.909116,-0.921567,-0.350749,0.413617,0.000000
-0.894284,-0.486068,-0.455367,0.399152,-0.355754,0.845332,0.911069,-0.993225,-0.590564,-0.332194,0.137242,0.635487,-0.141697,0.559496,-0.419904,-0.136204,0.862911,-0.519639,-0.851497,-0.929624,0.296548,0.000000
-0.970824,-0.318888,0.637989,-0.380963,-0.498520,-0.460311,0.259133,-0.040315,-0.794977,0.709220,-0.088534,0.502243,-0.519944,0.229102,-0.139683,0.909360,-0.328837,0.242409,0.964965,0.693289,0.369121,0.000000
-0.819269,-0.125706,0.839412,-0.176550,-0.663808,0.639454,0.276040,0.833918,0.313944,-0.631703,0.037202,0.693777,0.960082,0.622669,-0.680776,0.220191,0.358318,-0.097263,-0.213294,0.930723,0.103488,0.000000
-0.669729,0.463607,-0.885433,0.698660,0.638844,-0.549364,-0.478378,0.000159,0.183203,-0.893857,-0.049409,0.637379,0.823176,0.706229,0.835627,0.744987,-0.044099,-0.039277,0.456710,-0.393719,0.695669,0.000000
0.958983,0.430647,0.681143,-0.635182,0.231666,0.708060,0.457198,-0.827326,-0.060274,0.550768,0.431501,0.571337,-0.691580,-0.752434,-0.768731,-0.601184,0.200964,-0.964110,0.195959,0.297586,-0.420576,0.000000
-0.827998,0.601184,0.714286,-0.779534,0.188574,0.795282,0.948973,0.526841,0.720756,-0.168249,0.047273,0.517441,-0.321513,0.492538,0.338359,0.950865,-0.691885,-0.035920,-0.735282,0.423810,-0.190771,0.000000
0.242775,-0.954588,-0.311136,-0.097812,-0.600391,-0.842219,0.632008,0.191687,0.795099,-0.621998,-0.140599,-0.690481,-0.058748,-0.585009,-0.249062,0.159581,0.591601,0.014069,-0.403974,-0.618641,0.889706,0.000000
-0.119907,0.332194,0.725272,0.676382,-0.342937,0.590808,-0.053194,-0.012665,0.612110,0.870968,-0.060152,0.419965,-0.517685,-0.118259,-0.536973,0.723441,-0.469527,0.473128,-0.203162,-0.309671,0.099704,0.000000
-0.519333,-0.848506,-0.812128,0.199927,0.805597,0.549242,0.393902,-0.685293,0.164830,0.097446,-0.337321,-0.505417,-0.473312,0.161107,-0.977172,0.108860,-0.467269,0.932432,-0.812372,0.647267,0.833430,0.000000
0.956481,0.040437,-0.271889,0.180029,-0.180639,-0.556200,0.427839,0.934507,0.123508,0.000391,0.057527,-0.545885,-0.575365,-0.861141,-0.382427,0.779290,0.509567,0.055879,-0.696097,0.838984,-0.612415,0.000000
-0.749504,0.175573,-0.607715,-0.679189,-0.265175,0.824519,-0.448897,-0.966124,0.513047,0.449751,0.814631,-0.179357,0.534654,-0.805414,0.923948,-0.884945,-0.693045,0.149083,0.283548,-0.065401,0.918821,0.000000
0.543199,-0.163610,0.336894,-0.545518,-0.886776,0.366985,-0.545763,-0.434065,-0.800836,0.911496,-0.176794,-0.401898,-0.898984,-0.249489,-0.006195,-0.415082,0.695181,-0.424665,-0.223853,0.060396,-0.635914,0.000000
0.123753,0.240638,-0.684072,0.985839,0.618458,0.052217,0.080966,-0.639210,0.622303,0.244423,0.644276,-0.202124,-0.209937,-0.157933,0.035249,-0.812250,-0.702750,0.888913,-0.246742,-0.829463,0.051118,0.000000
0.056551,-0.887204,-0.931639,-0.206824,-0.862545,0.959899,-0.273293,-0.842341,-0.229774,0.648915,0.581286,-0.887387,-0.673513,-0.496445,0.504685,0.009125,-0.134190,-0.958922,0.209998,-0.799554,-0.497604,0.000000
0.085177,0.506150,0.358379,0.572741,-0.391766,0.642689,-0.390728,-0.840999,-0.512192,-0.447615,0.748528,0.894284,0.600940,0.069124,-0.725150,-0.345317,0.011383,0.695669,-0.583056,0.560045,0.868404,0.000000
-0.033662,0.502670,-0.002045,-0.586535,-0.283425,0.489364,0.309610,-0.830378,-0.388409,-0.490829,-0.224158,0.968627,0.043550,0.646962,-0.451399,0.392315,0.094333,-0.770196,-0.159154,0.542650,-0.159886,0.000000
-0.922666,0.365581,0.096591,0.000336,-0.983764,0.927366,-0.258034,-0.477523,0.128452,-0.418500,0.714957,-0.302225,0.167150,0.315714,0.614063,0.147435,-0.933470,0.640431,0.105564,0.183142,0.027619,0.000000
0.514695,-0.926023,-0.889096,-0.030183,0.683767,0.689932,0.113315,-0.976379,0.760064,0.703848,-0.990783,0.023469,0.694693,-0.574023,-0.161229,-0.995666,-0.853877,-0.151280,0.689260,0.179296,0.222327,1.000000

0.881039
0.347453
0.262795
0.067782
-0.485641
-0.954344
0.470443
0.244667
-0.536912
-0.875118
0.366802
0.423200
0.516160
-0.374737
0.609607
0.295084
-0.396466
0.742302
0.656423
0.355815
-0.365703
-0.437788
