-189.997971,303.593628,181.839386,126.012077,-55.349075,-170.541718,98.466881,-192.802185,152.694550,-161.305038,-149.794388,238.346802,73.963921,-313.626495,-88.108200,166.393723,208.347214,-88.078262,-56.622299,187.798950,70.315857,0.000000
-247.452164,384.171356,238.541046,166.418900,-77.579857,-227.120453,130.650375,-251.290436,198.216476,-210.885284,-197.547363,305.845459,103.393990,-399.037994,-119.515717,213.453110,267.443604,-119.496414,-83.658249,243.050293,101.995789,0.000000
-1.029457,2.239367,1.025749,0.389733,-0.029972,-0.407105,0.252712,-0.860237,0.059780,-1.625176,-0.909388,1.188305,0.437750,-3.109840,-0.184116,2.040697,2.340613,-1.122715,-0.200525,1.066023,0.132289,0.000000
-4.671349,8.588581,4.585888,3.416200,-0.956815,-4.840560,2.575800,-5.680351,5.368845,-4.026635,-4.821538,7.802556,2.006218,-9.017689,-1.956651,4.493985,6.459842,-1.754618,-1.909651,5.227108,3.102774,0.000000
-54700.183594,87758.023438,52347.898438,36032.906250,-15502.164062,-49101.125000,28285.816406,-55638.367188,43592.472656,-46434.621094,-42834.503906,68335.156250,20852.560547,-90275.203125,-25251.166016,47513.292969,60014.402344,-24981.648438,-15890.666016,54086.613281,20167.611328,0.000000
-23.057310,37.965973,22.028521,15.949625,-7.173556,-20.764782,11.777226,-24.771143,18.264648,-19.973612,-18.432577,30.034069,8.778359,-39.880653,-11.153591,20.921305,26.482780,-11.905962,-6.578846,24.207756,10.034439,0.000000
-1.055627,1.306412,0.932044,1.182690,-0.971493,-1.731397,1.405624,-1.198505,0.258491,-0.943620,0.061006,1.582063,0.669806,-1.086325,-0.928546,0.817686,1.849519,-0.675217,-1.263007,1.950922,0.557364,0.000000
-172.549362,278.480530,164.521118,113.543068,-48.810234,-155.246750,88.519402,-175.413605,138.348190,-145.880051,-133.830002,216.891068,63.853268,-287.655212,-79.779633,151.055573,190.503647,-78.768692,-49.296734,172.002899,62.650246,0.000000
-190.490631,302.924561,182.410797,127.124207,-54.994946,-172.451233,98.251083,-194.465866,152.567490,-162.663818,-149.509857,237.092743,74.482483,-311.956268,-88.540482,165.333389,208.621628,-87.976608,-56.957886,188.626389,71.466537,0.000000
-6.924657,10.257387,6.463212,3.458106,-2.560171,-5.214418,3.393658,-6.649675,4.097799,-4.722165,-5.049367,7.192536,3.036788,-10.742307,-2.254712,6.038877,7.341629,-1.792307,-2.297251,5.418328,1.928484,0.000000
-20.752407,34.602383,20.154963,14.175884,-6.008368,-19.125488,12.224682,-21.404203,16.381090,-17.478634,-18.016523,26.602354,8.590164,-34.925037,-10.462468,18.174397,22.820894,-9.223024,-6.595954,21.914747,8.829350,0.000000
-3.513026,5.475791,3.310989,3.036079,-0.314860,-4.046756,2.517951,-4.561587,2.301688,-3.443962,-2.245332,4.907755,0.972178,-7.245644,-2.245603,3.815760,4.836230,-2.780236,-2.266803,4.278565,1.615657,0.000000
-404.435822,641.928589,389.047791,268.952271,-119.772285,-366.447723,211.385498,-411.140930,321.582428,-343.761353,-319.844360,503.175476,158.128540,-663.049683,-190.613113,351.397064,442.178772,-187.809692,-123.754196,399.955231,154.892273,0.000000
-0.171468,0.280914,-0.155770,-0.402237,0.380814,-0.090579,0.050996,0.255725,0.129459,0.273487,-1.156149,0.538602,0.837422,0.306951,0.722239,0.446172,0.795148,-0.104491,-0.975782,-0.135343,0.718440,1.000000

0.327694,0.334306,0.424343,-0.370809,-0.514075,-0.798326,0.118294,0.335405,-0.868357,0.168270,0.708129,0.343783,0.124102,0.460925,-0.949738,-0.916499,0.337186,0.921788,-0.646841,0.644381,0.272866,0.000000
0.631440,-0.890175,-0.312523,-0.747930,0.652996,0.476230,-0.499466,-0.958907,-0.873029,-0.798908,-0.068767,0.170642,0.484312,0.500951,-0.103707,0.733571,0.595770,-0.658169,1.079620,-0.871194,-1.137997,0.000000
0.038038,0.768885,0.560840,0.497275,-0.612309,-0.531269,0.607235,0.266210,0.249037,-0.716376,-0.342976,-0.743876,-0.959951,-0.074099,1.091870,-0.034554,-0.360418,-0.568102,1.096220,0.153649,-0.738617,0.000000
0.978435,-0.196291,-1.007258,-0.115534,0.472261,0.457771,-0.831163,-0.759282,0.144602,-0.767158,-0.202045,-0.421787,-0.260470,0.362192,-0.340658,-0.289387,-0.605843,-0.281598,-0.779230,-0.143723,0.169740,0.000000
-0.229327,0.358280,-0.403541,-0.151076,-0.256251,0.553853,-0.669859,-0.827253,0.711384,0.956068,-0.149894,0.717569,-0.672667,0.218271,-0.020196,-0.322998,0.078672,-0.993713,0.150664,0.249928,0.769929,0.000000
-0.672457,-0.574469,0.903904,-0.912643,-0.211943,0.671568,0.142036,0.848369,-0.445743,0.945152,-0.698225,0.965685,0.277124,0.142679,-0.148742,-0.966305,-0.167589,0.024668,0.836054,0.946941,-0.285013,0.000000
1.124123,-0.694185,-1.007540,-0.434513,-0.612302,0.129049,0.868072,0.442817,-0.312886,0.477872,0.087671,0.590576,-0.640779,-0.408617,0.514667,-0.862242,0.550786,0.711807,1.102326,-0.399378,-1.035088,0.000000
0.376036,-0.845670,-0.344823,-0.321733,-0.164937,-1.016518,-0.146766,0.726566,0.309754,0.467705,-0.004992,0.663551,0.388099,-0.766617,-1.140089,0.205396,0.245670,0.791803,-0.362958,-0.882428,0.474509,0.000000
-0.270748,0.372577,0.936035,-0.574160,-0.952896,1.027687,-0.344520,-0.160499,0.479637,-0.554384,0.832532,-0.725320,0.986642,0.627941,-0.173046,-0.568083,0.251966,-0.508164,0.596117,0.145958,-0.879125,0.000000
-1.139748,-0.084836,-0.751054,-0.361898,0.441578,-0.555276,0.179879,0.817850,-0.821420,-0.449123,0.180037,-0.408438,-0.513553,-0.269016,-0.758692,-0.851189,-0.381830,-0.321471,-0.766107,0.498686,-0.565782,0.000000
0.388000,0.021967,-0.058684,-0.510956,-0.302029,-0.094113,-0.481677,0.759709,0.910914,0.838938,0.262469,0.779704,0.179659,0.701445,-0.575030,-0.812208,0.863358,-0.287450,0.019314,0.485045,0.074163,0.000000
0.864480,-0.457723,-0.425198,1.019503,0.843675,0.560037,-0.572768,-0.329667,0.818124,0.655726,-0.405321,-0.128073,-0.731236,-0.454517,0.736536,0.526534,-0.451997,0.486332,1.054106,0.227048,-0.842708,0.000000
-0.013171,-0.090646,0.676833,0.550328,-0.854375,1.000678,-0.535597,0.496040,-0.160113,0.304709,0.660260,-0.613441,0.523319,0.729839,-0.397298,0.980039,0.816846,0.122614,0.109049,0.138055,-0.182405,0.000000
-0.757786,0.274598,0.130409,-0.626255,-0.059893,-0.840965,-0.171791,0.864205,0.168273,0.978530,-0.177788,0.843305,-0.273115,0.415053,0.028816,-0.797071,0.931597,-0.771416,0.608082,0.733710,0.754609,0.000000
-0.385827,-0.555744,0.235271,0.308535,-0.494723,0.164808,0.453532,0.785955,0.294739,-0.319856,-1.031997,-0.648257,0.349279,-0.285530,-0.379152,0.912088,-0.785679,-0.353187,-1.073819,-0.010639,1.036226,0.000000
0.630829,-0.457221,0.114106,0.441854,-0.564273,0.731282,-0.417947,0.422464,0.907684,-0.732184,-0.427879,-0.122885,-0.236606,-0.794771,-0.150035,-0.219251,-0.328618,0.200473,0.991088,0.540377,-0.092108,0.000000
0.692477,-0.203262,0.082389,0.767436,0.552651,0.203026,0.288215,-0.245313,0.946424,-0.489200,-0.520990,0.089339,-0.998883,-0.029028,1.059399,-0.313639,0.765575,0.620434,1.104401,0.349973,-0.606800,0.000000
0.056264,0.871118,0.990477,0.879467,0.505494,0.694299,1.025352,0.537107,0.431950,0.921521,0.005079,0.948533,-0.510492,-0.918111,-0.477666,0.409385,0.586189,0.239543,0.839168,-0.241604,0.399556,0.000000
-0.491971,-0.898711,-0.009183,0.480477,0.454098,-0.770284,-0.702148,-0.544408,-0.366536,1.140329,-0.181756,-0.694279,0.226535,-0.608958,0.740622,-0.899124,0.377020,0.823726,-0.351605,0.593874,-0.510017,0.000000
0.555876,-0.436055,-0.859103,0.379293,-0.357469,-0.767213,-0.583694,-0.757607,-0.134539,-0.899375,0.875782,0.474907,0.374385,0.601112,0.116759,0.434858,-0.083028,0.872700,-0.619494,-0.290000,-1.133541,0.000000
0.265402,0.760022,0.217463,0.039319,-0.194136,-0.505547,0.647057,-0.879497,-0.939986,-0.882345,-0.145612,-0.895310,-0.774511,0.135466,0.113218,0.132423,0.487546,-0.500511,-0.128567,-0.169083,0.077736,0.000000
1.149793,0.912353,0.534136,0.601596,-0.162502,1.083910,-0.820510,-0.153150,-0.648542,-0.860632,0.554761,0.730037,0.274584,0.658337,0.935689,-0.174399,-0.989484,0.429034,0.182396,0.421337,-0.251900,1.000000

-0.969851,0.623183,0.940443,-0.450088,-0.272650,-0.577257,0.758393,0.391395,-0.004622,0.010288,1.006969,0.231439,0.500833,0.447478,0.803189,0.445217,0.698327,-0.916243,0.215452,-0.443501,-0.761682,0.000000
0.521736,0.539499,-0.467577,-0.591880,-0.403222,0.490226,-0.440610,-0.828268,0.677967,-0.676557,-0.792812,0.674755,-0.949962,-0.356879,0.940779,-0.337674,0.405380,0.328776,-0.669085,0.312605,0.892583,0.000000
0.535242,-0.656435,0.547873,0.097448,0.176753,-0.599142,-0.813892,0.457449,0.729126,-0.896090,-0.611690,-0.689149,0.898909,0.512503,0.443763,0.389301,0.397197,-0.896689,-0.449019,0.409475,-0.142357,0.000000
0.660102,0.042793,-0.205516,-0.548973,0.309943,-0.371217,1.007799,0.027174,0.700253,-0.340984,0.506291,0.198040,-0.002269,0.328530,0.366957,-0.040646,0.787488,0.867253,0.294827,-0.626119,-0.176323,0.000000
0.139326,-0.626740,0.292734,-0.961529,-0.075499,0.865132,-0.669086,0.475409,0.327335,0.133657,-0.157917,-0.886203,-0.042386,-0.529821,-0.252924,-0.506129,0.016401,0.211533,0.089248,0.746381,0.101269,0.000000
0.013509,-0.222262,-0.300397,0.151110,-0.838261,0.106655,0.523612,-0.067443,0.033216,-0.187878,0.121572,1.017675,-0.154131,-0.368246,0.380875,0.914946,-0.760896,0.386682,-0.961986,0.716640,-1.039569,0.000000
0.645414,0.267334,0.838727,0.575128,-0.112252,0.652916,-0.576870,0.286069,0.400011,-0.084229,-0.668859,0.915610,-0.436606,-0.847882,-0.013975,-0.059009,0.383506,-0.635048,-0.704619,0.828493,0.378481,0.000000
-0.486918,0.044070,0.199175,-0.491906,-0.663587,-0.279890,-0.907624,-0.787232,0.184802,-0.148167,-0.712262,0.304047,-0.965504,-0.614105,-0.683297,-0.444539,-0.411023,0.859779,-0.280208,0.603296,0.636287,0.000000
-0.872411,0.947815,0.251859,-0.867797,0.265917,0.730411,0.339980,-0.548900,-0.784029,-0.697701,0.040286,-0.154825,-0.692525,0.941290,-0.783240,-0.330910,0.322327,-0.508802,0.187243,-0.561840,0.399553,0.000000
-0.569462,0.727585,-0.554551,0.921576,0.112224,0.660716,-0.209869,-0.450043,-0.926074,0.172133,-0.940892,-1.014045,-0.769966,0.894509,-0.816709,-0.764105,-0.621541,1.006353,-0.021419,0.093993,0.499148,0.000000
0.613701,-0.671164,-0.494306,0.226412,0.288299,0.255825,-0.755585,-0.217776,-0.747431,-0.107981,0.194849,0.954274,-0.016747,-0.093496,-0.031751,-0.242427,-0.145503,0.651945,0.948591,0.699163,-0.550673,0.000000
-0.921651,0.425939,0.258031,0.586502,0.783459,-0.347795,0.661032,0.939424,0.553765,0.768034,-0.236743,0.279232,-0.884341,0.954932,0.464871,-0.908556,-0.497049,0.535797,0.443452,-0.035532,0.792513,0.000000
-0.207105,-0.724025,0.640839,0.904775,0.713555,0.863583,0.444646,0.691227,0.864689,-0.045590,0.386650,-0.653555,-0.348689,0.466514,0.585169,-0.363473,0.363318,-0.725445,-0.590080,-0.464424,-0.515937,0.000000
-0.150728,0.762042,0.246099,-0.048963,0.225484,0.218936,-0.056864,0.288867,-0.903355,0.187623,0.879647,-0.092366,0.952803,0.210629,0.078215,-0.295280,0.120328,0.266276,-0.799156,-0.113988,0.195779,0.000000
0.737668,-0.109010,0.264769,0.719240,0.083923,0.309669,0.344063,-0.305731,0.652452,-0.599352,1.002110,0.345664,0.815460,0.622471,1.025570,0.541988,-0.885619,0.242864,-0.810274,-0.771818,-0.519923,0.000000
0.526690,-0.475653,-0.775232,-0.584802,-0.485803,-0.290182,0.318424,-0.647758,0.704589,-0.838009,0.901392,1.000515,0.106242,-0.375954,-0.750263,0.839349,-0.107523,-0.473906,0.576873,0.129953,0.276453,0.000000
-0.448932,-0.902579,-0.440537,0.826546,0.726257,-0.462121,-0.635570,0.278467,0.702687,-0.730871,0.156003,0.564062,0.662333,-0.955676,-0.625424,-0.008578,-0.773317,-0.269476,-0.287320,-0.810082,-0.330950,0.000000
-0.850010,-0.609252,-0.825284,0.279349,-0.002164,-0.306761,0.493998,0.839776,0.383918,0.994565,0.700061,-0.435946,-0.661636,-0.795515,0.720205,-0.385438,-0.919854,-0.799057,-0.861650,0.100808,0.689202,0.000000
0.061853,-0.736232,0.809153,-1.005870,0.149541,-0.208470,0.982517,0.512075,-0.914192,0.011935,0.227147,0.630370,-0.047041,-0.370600,-0.020881,-0.050043,0.099794,-0.400910,0.698137,0.027035,-0.762832,0.000000
0.089395,-0.963237,0.482733,0.640796,0.710477,0.267452,0.651807,0.665122,0.472420,0.375555,0.571685,0.564340,0.048039,0.194310,-0.579254,0.774104,0.267412,-0.013428,0.380562,0.499172,0.609153,0.000000
0.819528,-0.486179,0.566533,0.825532,0.285064,0.429957,-0.366498,0.678178,0.482139,0.051019,-0.214011,-0.730159,-0.276847,0.088771,-0.943521,0.276714,0.666494,0.348562,0.059494,0.569537,-0.667500,0.000000
0.196229,-0.122425,-0.351784,0.376663,-0.196257,0.067411,0.607973,0.021503,-0.771621,0.678823,-0.336792,-0.300750,-0.024452,-0.384790,-0.159370,-0.629915,0.047869,-0.183543,-0.160969,0.285211,0.137791,1.000000

-0.823769,-0.751778,0.874031,0.848457,-0.901368,-0.185390,0.975366,-0.218841,0.063149,0.792789,-0.392406,0.029766,-0.610089,-0.815206,0.384039,-0.593563,-0.823584,0.362143,0.686244,0.163653,-0.877060,0.000000
-0.805475,0.532147,-0.816411,-0.511457,-0.178150,-0.374439,0.886557,0.565384,-0.512848,0.011758,-0.667157,0.976777,0.409497,-0.394552,0.485546,-0.283815,-0.287250,-0.100256,0.035842,-0.868387,0.664568,0.000000
-0.540146,-0.876757,0.582193,-0.496491,-0.242471,0.447884,-0.746177,0.968860,-0.797064,0.979235,-0.329669,-0.342056,-0.860786,-0.634478,0.067324,0.055604,0.438128,-0.482862,-0.352645,0.575931,-0.342873,0.000000
0.382535,0.711513,-0.741958,-0.747508,-0.474834,0.813082,0.583990,-0.240145,0.644192,0.239242,0.976226,-0.852489,-0.241392,-0.031670,-0.597289,-0.365541,-0.432358,-0.967726,-0.593834,-0.507969,-0.731178,0.000000
-0.490017,-0.276026,-0.536901,0.455735,0.050533,-0.740457,-0.611568,-0.733823,0.255010,-0.053224,0.788535,-0.757049,-0.735944,0.668048,-0.915400,-0.202870,0.444166,-0.995038,0.458345,-0.946384,0.236660,0.000000
0.374253,-0.326650,0.032087,0.637795,-0.425791,0.015211,0.629412,0.157270,-0.134703,0.493251,-0.639023,-0.776714,-0.435240,-0.420758,0.329142,0.466775,-0.423010,-0.527742,0.825921,0.207060,-0.866493,0.000000
0.238523,0.863423,0.151482,0.308100,0.984674,0.306890,0.859597,-0.877748,-0.050238,0.397914,-0.994782,-0.415127,0.429506,-0.787861,0.652649,0.468940,0.212568,0.104855,0.628810,-0.069743,0.466093,0.000000
0.649540,0.826246,-0.591106,-0.984494,0.269915,0.285496,0.833194,0.824416,-0.916868,0.979968,0.718799,-0.900073,0.376947,0.020281,-0.328920,-0.579646,-0.799830,-0.390462,-0.864902,0.140084,-0.448527,0.000000
0.216242,0.740479,0.925637,-0.104985,-0.967847,-0.680900,0.848568,0.609587,-0.127307,-0.204092,0.263583,0.903608,-0.541852,-0.948275,-0.935778,0.501541,-0.511188,-0.484845,-0.903943,-0.372952,-0.630991,0.000000
-0.310832,-0.545545,-0.946674,0.753913,0.325618,-0.291161,0.155986,-0.490607,0.910133,0.391181,0.718120,-0.956526,0.898387,0.860160,-0.696445,-0.075148,0.071391,-0.355364,0.086058,-0.951227,0.644137,0.000000
0.120474,0.241948,-0.567590,0.821731,-0.348919,-0.290541,1.007326,-0.041785,-1.003368,-0.669624,-0.099372,-0.373562,0.422240,-0.079540,-0.820479,0.169613,-0.528600,-0.795938,-0.603589,-0.619995,0.726116,0.000000
-0.867928,0.807494,0.861401,0.428586,-0.464568,0.344831,0.920884,0.551150,-0.257651,-0.671220,0.168871,0.718208,-0.912356,0.698633,-0.842652,-0.214870,0.304936,-0.693425,0.997876,0.889016,-0.057405,0.000000
-0.479742,-0.793898,-0.064985,0.332393,-0.320737,-0.737186,-0.849588,0.122535,-0.687652,-0.218475,0.284051,-0.109435,0.700670,-0.765768,-0.912421,0.360065,0.163522,-0.002302,-0.347501,-0.956507,0.506416,0.000000
-0.008795,-0.707920,0.965771,-0.704061,-0.613353,0.970618,0.035792,-0.884653,-0.592753,0.465790,0.855653,0.722572,0.950490,-0.229711,0.534559,0.910615,0.040195,0.080023,0.285295,-0.979529,0.317603,0.000000
0.983443,-0.252269,0.951699,0.729768,0.039390,0.612127,1.002985,0.656705,-0.871956,-0.566930,0.433386,-0.763919,0.552533,0.475107,-0.963038,-0.503514,-0.508136,0.853338,0.629104,-0.704840,0.636306,0.000000
-0.086840,0.144851,0.887499,-0.822514,0.693676,-0.159691,0.754825,0.358720,-0.088804,-0.296127,0.852685,-0.211249,-0.340067,0.199091,0.424290,0.139393,0.640228,-0.115912,-0.331013,0.233743,-0.047731,0.000000
-0.958202,0.962400,-0.995644,-0.586934,0.069391,-0.645299,-0.042216,-0.385445,0.845426,-0.306444,0.052072,-0.507926,0.714592,0.181834,0.307115,0.650901,-0.557920,0.502212,0.938939,-0.008529,-0.415511,0.000000
-0.077785,0.844667,-0.463222,-0.221384,0.016114,-0.628816,-0.727908,-0.017649,-0.448093,0.508933,0.134809,0.002522,0.030607,-0.242728,-0.777528,0.755725,0.942811,-0.611371,-0.718237,0.463312,0.627480,0.000000
-0.530726,0.589143,0.020132,0.844972,0.283980,0.081487,0.295160,-0.353157,0.012922,-0.297595,0.820952,-0.266701,-0.510431,0.499009,-0.230443,-0.912179,-0.162005,-0.218344,0.741882,0.383994,0.062969,0.000000
0.369554,-0.287265,0.678164,-0.265339,0.563095,-0.772265,-0.423976,-0.408457,0.838602,-0.940093,-0.773798,-0.251181,0.364888,0.755043,0.409812,-0.408980,0.692692,0.464715,0.925840,-0.148279,-0.939321,0.000000
-0.247761,1.000112,0.118952,-0.052986,-1.013517,0.240759,-0.294502,0.119845,1.000380,-0.038958,-0.098137,0.268916,1.008166,0.886437,0.210611,-0.155912,-0.659386,0.707590,-0.464473,-0.975501,-0.205805,0.000000
0.235354,-0.976150,-0.691319,0.202427,-0.628024,-0.016133,-0.703110,0.898110,-0.176143,0.029450,-0.632613,-0.548982,-0.737033,-0.233413,0.953346,-0.018589,-0.730334,0.456182,0.650019,-0.023409,0.435618,1.000000

-0.752285,-0.617045,0.755119,-0.593767,0.951896,0.077670,0.925525,-0.895779,0.774197,-0.133851,0.294200,0.418500,-0.824436,0.782697,-0.730200,-0.732158,0.508894,0.426584,-0.745264,-0.426855,0.846639,0.000000
0.888717,0.944176,0.297787,-0.680758,0.864450,0.026702,-0.688157,0.907060,0.559351,0.727085,-0.030229,0.602173,-0.377847,-0.661598,0.449373,0.774038,-0.908775,0.892109,-0.526437,0.934355,0.116500,0.000000
0.231016,0.036985,0.303554,0.208318,-0.806661,-0.084793,-0.685788,-0.390025,-0.252585,-0.468960,-0.935057,-0.949681,0.307308,0.594398,0.401152,-0.819044,-0.708735,0.928885,0.900324,-0.567917,-0.959442,0.000000
-0.092977,0.402599,0.472612,0.087884,0.294703,-0.363498,-0.665587,0.755263,-0.119778,0.139368,-0.774176,0.471444,-0.611999,0.987719,-0.569724,0.018610,0.945289,0.003025,0.034375,-0.813935,0.142270,0.000000
-0.812780,0.494770,0.104246,0.576743,0.267760,-0.583943,-0.305148,-0.142824,-0.607170,0.294505,-0.455286,-0.230783,-0.010210,-0.476405,0.798108,-0.396808,-0.275636,-0.681482,0.145992,-0.012434,0.100323,0.000000
-0.911114,-0.674088,-0.337110,0.480424,0.339448,0.828050,0.876601,-0.902518,-0.898440,-0.624286,-0.634307,0.758227,-0.211880,-0.838606,-0.832095,0.528317,-0.544054,0.057407,0.764470,0.770865,0.885451,0.000000
-0.830378,0.478471,0.021850,0.390457,-0.224287,0.614785,0.957634,0.250446,0.299236,0.096734,-0.912612,-0.575135,-0.807335,0.332072,0.095540,-0.164069,-0.789108,-0.041663,0.602653,-0.242227,0.190257,0.000000
-0.421389,0.153505,-0.326168,-0.430239,0.960387,-0.576451,-0.429136,-0.401661,-0.449168,-0.547545,-0.961455,0.603581,0.809260,0.110764,-0.259992,-0.576474,0.738002,0.631029,-0.520575,-0.798187,-0.677520,0.000000
-0.629507,0.519353,0.029664,0.987402,0.568592,0.777040,0.958074,-0.149673,0.812982,-0.420965,0.815378,0.296381,0.779074,-0.725015,0.912377,-0.153631,-0.148062,0.289766,0.253079,-0.595876,-0.293042,0.000000
0.986914,-0.102361,-0.483724,-0.160332,0.092121,-0.528013,0.741703,-0.915544,0.318577,-0.803642,0.494051,0.293417,0.435890,0.161294,-0.018555,0.784241,0.130042,0.683679,0.888554,0.862448,-0.510568,0.000000
0.114021,-0.656396,0.969982,0.984486,0.642332,-0.034054,-0.365624,-0.291696,-0.085493,0.088324,0.205982,-0.376571,-0.177475,-0.265055,-0.891607,-0.687373,-0.443485,-0.297763,-0.110647,0.533382,-0.627935,0.000000
-0.962154,0.197436,-0.817815,0.333438,0.748352,-0.668579,0.948885,0.902669,-0.162414,0.408637,0.936577,0.874534,0.542253,-0.782820,-0.733904,-0.953456,0.348236,0.584814,0.095492,-0.115094,0.806668,0.000000
-0.380448,-0.728893,0.870789,-0.708021,0.600065,-0.098926,-0.129173,-0.989939,-0.217193,0.632898,-0.329712,0.835611,0.850846,0.454768,-0.387348,0.775356,0.127365,-0.649401,0.975472,0.157445,-0.026172,0.000000
-0.068934,0.547157,-0.340674,0.384507,0.695623,-0.531420,-0.987815,0.008573,0.249107,0.517534,-0.248880,0.626196,0.101060,-0.200168,0.960213,0.939153,-0.958521,-0.271243,-0.750769,0.906839,-0.998748,0.000000
-0.558454,0.037370,0.223937,-0.727579,-0.271116,0.066401,-0.629066,0.901147,0.603109,-0.323593,0.313870,0.843052,0.037879,-0.743506,0.289415,0.882057,0.314587,0.623577,0.358163,-0.777302,0.553777,0.000000
0.794618,0.155355,-0.712267,0.859329,-0.716386,0.067316,-0.596551,-0.037728,-0.683626,-0.392687,0.561812,0.487963,-0.397475,-0.578726,-0.540247,-0.541109,-0.709651,-0.989470,0.408715,-0.052739,0.247338,0.000000
0.403440,-0.584567,0.168117,0.120479,-0.319979,0.569471,-0.382494,0.368058,-0.253709,0.963285,-0.142460,0.516829,0.444246,-0.711018,-0.304424,0.335221,0.405674,0.063160,-0.437589,-0.387031,0.371533,0.000000
-0.407310,-0.340281,-0.729379,0.961014,-0.871622,0.864506,0.134295,0.977679,0.058514,0.258453,-0.768900,-0.983746,-0.691464,-0.300941,-0.884859,-0.626761,0.611361,0.896092,0.829153,-0.509356,0.629532,0.000000
-0.025156,-0.772782,-0.120236,-0.538851,0.798346,-0.300744,-0.198783,0.843581,-0.609541,-0.869505,0.461367,0.233450,-0.367587,0.137299,-0.740328,-0.060521,-0.562309,-0.172180,0.075717,-0.803916,0.156853,0.000000
-0.094859,-0.462220,-0.176521,-0.730240,0.405746,-0.445264,0.101902,-0.306274,0.352632,0.313919,-0.076713,0.151794,-0.453150,-0.315940,0.427495,-0.051473,-0.861388,-0.886547,0.270883,0.970024,-0.804971,0.000000
-0.983213,0.862280,-0.922937,-0.148199,0.153301,-0.762207,-0.526177,0.266192,0.286479,-0.270884,-0.954414,-0.315793,-0.877037,-0.150737,0.858858,-0.668290,0.756047,0.440730,-0.593423,-0.957821,0.756376,0.000000
-0.420392,-0.767526,-0.130135,-0.727677,0.966264,0.459312,0.999691,0.776339,-0.058925,0.515032,-0.722396,0.226422,-0.490068,-0.231553,0.535838,0.361533,0.974335,-0.353013,-0.730120,-0.538721,0.429238,1.000000

0.895697,-0.738368,-0.976379,0.941015,-0.140897,-0.526750,0.864203,-0.175138,-0.339417,0.990654,0.718500,0.326038,-0.180329,-0.025307,0.270626,-0.357747,-0.705852,0.913496,0.519779,-0.755124,-0.922489,0.000000
0.996458,-0.106940,0.905637,0.489907,-0.640087,0.110445,-0.141620,0.237458,0.535546,0.304714,-0.958692,-0.471158,-0.289268,0.329679,-0.167144,0.747692,-0.927963,0.292409,0.875045,0.684189,-0.117457,0.000000
0.575563,-0.378091,-0.985534,-0.986529,0.610372,0.874206,0.298669,0.666241,-0.489273,-0.229819,-0.742506,-0.271912,0.397185,-0.259883,0.555597,-0.837113,-0.365405,-0.292761,-0.677027,0.968170,0.618327,0.000000
-0.676185,-0.226166,0.379687,-0.165041,-0.856837,0.920830,-0.454277,-0.064916,0.723035,0.666562,0.815043,-0.071951,0.621006,-0.254577,-0.170198,0.595058,-0.990595,-0.362221,0.021168,0.831943,0.117099,0.000000
0.233017,-0.318129,-0.659536,-0.515349,-0.934101,-0.321084,0.584812,0.797165,0.858020,0.552603,-0.759027,-0.725424,0.017640,-0.969241,-0.332778,-0.350884,0.443433,-0.167545,-0.949755,0.529158,0.026207,0.000000
0.196035,0.656334,-0.106411,-0.693048,0.547238,-0.093152,0.871286,0.222317,-0.400353,0.769128,0.579405,-0.675363,-0.247123,0.270815,0.244841,-0.732432,0.241428,0.703258,-0.176704,0.305787,-0.485099,0.000000
0.781918,-0.709985,-0.886227,-0.810214,-0.063553,-0.850547,-0.494822,0.855883,-0.458050,0.708143,-0.039796,0.134644,-0.580701,-0.748627,0.020205,0.578212,-0.782613,0.502570,-0.763893,-0.843934,-0.897596,0.000000
0.961901,0.774731,0.255281,-0.497206,0.538123,0.355659,0.972302,0.395303,-0.611655,-0.505296,0.883179,0.147223,0.883582,-0.765602,-0.170886,-0.372320,0.167089,0.551566,0.866917,0.700695,0.072604,0.000000
-0.472870,-0.985653,-0.896603,-0.348692,0.642106,0.817005,-0.141400,-0.050770,-0.701827,-0.773202,0.137905,-0.170673,0.896138,0.420407,-0.990738,0.101880,-0.281059,-0.965887,0.176825,0.859376,-0.718083,0.000000
0.777010,0.736245,0.704825,0.040473,-0.977375,-0.377970,-0.053748,0.272701,0.794076,-0.911757,-0.423860,-0.464744,-0.621598,0.692920,0.579179,-0.872347,0.745849,-0.156226,-0.769957,-0.274418,0.336153,0.000000
0.402081,-0.338253,-0.428382,-0.926777,-0.476347,0.335461,0.666240,0.845453,0.918916,-0.679189,0.852044,-0.588703,0.133532,-0.313528,0.754405,-0.248004,0.966192,-0.810670,-0.653044,0.952861,-0.997016,0.000000
-0.249294,-0.717502,0.633106,0.244827,0.848488,0.635626,-0.870483,0.023523,0.865558,-0.846047,-0.262822,-0.013406,0.833132,0.406877,-0.033969,0.613191,0.373384,-0.876691,-0.533098,-0.713772,0.891649,0.000000
0.990854,0.215353,-0.561510,0.307929,0.121332,-0.067319,0.160520,0.224773,0.588156,-0.883662,-0.508295,-0.905798,0.123418,0.740579,0.943801,-0.692033,-0.965932,0.524394,-0.207116,0.761946,0.424725,0.000000
0.533306,0.038260,-0.873959,-0.783222,0.341292,-0.137668,0.023269,0.150869,0.163898,0.661270,0.380319,-0.083037,0.180613,0.474515,-0.287629,-0.060543,0.149316,0.343239,-0.543106,0.361176,0.629878,0.000000
-0.238529,-0.281877,0.532395,0.706686,-0.742952,0.404478,-0.180652,0.565151,-0.097842,-0.703227,0.081348,0.096764,0.994218,-0.607387,0.665537,-0.747193,-0.727920,0.953145,-0.550205,0.104203,-0.604276,0.000000
0.596313,-0.714981,-0.434485,0.072390,-0.205955,-0.507450,0.272788,0.373276,0.177073,-0.067047,0.326886,-0.576195,0.439697,0.261747,-0.104389,0.643090,0.199868,-0.405087,0.806777,0.342005,0.565288,0.000000
-0.714050,-0.336382,-0.267562,0.026492,-0.652576,0.015150,0.251508,-0.105263,-0.790926,0.367051,-0.851316,-0.548474,-0.991102,-0.191310,-0.687204,0.631854,0.413922,-0.715363,0.870827,0.927191,0.819642,0.000000
0.363632,-0.473739,-0.634754,0.325288,-0.920882,0.229354,0.890573,-0.785181,0.585080,-0.914275,0.253886,-0.531012,-0.219499,0.661685,0.640418,0.721330,0.134720,-0.768716,0.831190,-0.782829,-0.721511,0.000000
0.509177,-0.734211,-0.732108,-0.994141,0.083598,-0.156354,0.386701,0.426883,-0.094765,0.736565,0.461013,-0.244146,-0.510609,0.736753,0.200811,-0.309586,0.813654,-0.217690,-0.171401,-0.630847,-0.298187,0.000000
0.501584,0.193929,0.550462,-0.929340,-0.563148,0.515840,0.975816,-0.229770,-0.019896,-0.191804,-0.516773,-0.975980,-0.934792,0.217064,-0.994367,-0.123488,-0.555706,-0.287649,-0.782198,-0.685192,-0.371320,0.000000
0.537809,-0.454042,0.551012,-0.963181,0.346660,0.062460,-0.879482,0.320850,-0.479989,-0.832537,-0.118404,0.367797,0.851773,0.853721,0.803275,0.611576,-0.018400,-0.121208,-0.153867,0.890406,-0.531226,0.000000
-0.524580,0.290918,-0.453298,0.204356,-0.557139,-0.650486,0.680857,-0.613642,-0.989002,0.394405,0.156382,-0.754274,0.988650,0.157023,-0.209959,-0.207570,0.798200,0.348129,0.737283,-0.892035,0.457135,1.000000

-0.924614,0.723853,0.138749,0.831791,0.671916,0.876626,0.552843,0.612260,0.946473,0.043128,-0.098335,0.627900,-0.539912,-0.315794,0.920834,-0.797292,-0.025365,-0.773131,0.401162,-0.987888,-0.025055,0.000000
0.243226,-0.977315,0.767866,0.145099,-0.121097,-0.914392,0.278292,-0.951391,0.269138,0.819245,-0.307236,-0.097517,-0.623252,0.047173,0.075907,-0.429879,-0.183093,-0.047558,-0.421214,-0.884098,0.287682,0.000000
0.639404,0.705251,0.901697,-0.491965,0.230773,-0.713828,0.510324,0.025458,0.442671,-0.026894,-0.466674,-0.026578,-0.553741,0.671701,0.961791,-0.745909,-0.303238,-0.557073,0.770897,-0.592996,-0.354430,0.000000
0.248986,0.085871,-0.986532,-0.332252,0.655741,-0.952643,0.579692,0.524856,0.795066,0.558533,0.755183,-0.489098,-0.005881,0.809516,0.032420,-0.556444,-0.030633,0.759221,-0.804236,-0.531207,-0.305658,0.000000
0.562431,-0.885409,0.439644,-0.968675,-0.242461,-0.842493,0.156752,0.861975,0.219846,0.175865,0.724071,0.305177,0.461599,-0.092519,0.283573,-0.661788,0.074412,0.027923,0.348598,-0.800724,-0.873653,0.000000
0.574791,0.170954,-0.041952,0.619812,-0.139961,0.191595,0.802838,0.975505,0.199314,-0.340003,-0.689362,0.745500,0.574784,0.441308,0.200163,0.708453,-0.011262,-0.149644,-0.669383,-0.881518,-0.732707,0.000000
-0.485922,0.657555,-0.263358,0.133887,0.697963,-0.659400,-0.518160,0.380046,-0.593718,-0.168205,0.861266,0.864411,-0.882316,-0.730646,0.269023,-0.882343,-0.491374,0.707086,0.933656,0.503411,-0.961282,0.000000
-0.761734,-0.976359,-0.801318,-0.252351,-0.374222,-0.912077,0.298321,0.582425,-0.366857,-0.451579,0.890460,-0.503990,-0.468159,0.757603,0.124661,0.294376,0.256450,0.581890,-0.097284,0.542108,-0.354996,0.000000
-0.974954,-0.929589,0.020417,0.454375,0.884057,-0.581209,0.171217,0.772746,0.556701,0.388963,-0.076450,-0.287736,-0.910067,-0.406374,0.815421,0.659390,-0.197751,0.369978,0.385476,-0.015564,-0.444897,0.000000
0.030849,0.624870,0.128579,0.643550,0.884827,-0.759286,-0.061964,0.672326,0.531934,0.836852,0.972169,0.500509,0.226559,0.529900,-0.362435,-0.445063,-0.335121,-0.476345,-0.407879,-0.434654,-0.834607,0.000000
-0.815069,0.484177,0.495738,-0.708100,0.855193,-0.267714,0.427779,-0.027202,0.694478,0.763069,-0.146131,-0.488727,-0.252916,0.347997,0.486099,0.869508,-0.022776,-0.760362,0.530158,0.345687,-0.270800,0.000000
0.420671,-0.521132,-0.889347,0.317422,0.142099,0.197640,0.790906,0.831616,-0.040804,-0.362289,0.727815,0.260890,0.325274,-0.866858,0.996953,-0.008112,0.183572,-0.675166,-0.558075,0.653231,0.586090,0.000000
0.000134,-0.675152,-0.237489,-0.487469,0.349183,0.557725,-0.368979,-0.307385,-0.147603,0.662525,-0.242405,-0.082449,0.395773,0.698599,0.286745,-0.792677,0.638263,0.043195,0.303499,-0.900783,-0.839964,0.000000
0.259578,0.653611,0.378021,0.559659,-0.462997,0.479882,0.041211,0.642925,-0.723017,0.816121,0.085530,0.479822,0.095289,-0.679182,0.976441,-0.528941,-0.461811,-0.052343,-0.393631,0.715525,0.638112,0.000000
0.920317,0.987331,-0.358936,0.190731,-0.488171,-0.102132,0.869514,0.653613,0.190318,-0.852585,0.736447,-0.557085,0.289938,-0.744377,-0.848051,0.974080,0.599883,0.101590,0.992669,0.814488,-0.300085,0.000000
0.312928,-0.715027,-0.956748,-0.052376,-0.929909,0.508436,0.635907,0.656812,-0.608089,-0.649666,-0.787869,-0.121918,-0.263075,-0.223829,-0.871633,0.514240,-0.551717,0.921168,-0.909266,-0.739485,-0.252803,0.000000
-0.060662,0.713269,0.706962,0.835088,0.656944,-0.167601,0.308897,-0.319035,0.453466,-0.569405,-0.493820,-0.230355,0.575590,-0.948831,0.977664,-0.051389,-0.143269,0.960979,0.595271,-0.073122,-0.258373,0.000000
0.867372,-0.200340,0.779513,0.387439,-0.014598,0.150813,0.208740,-0.914459,0.794911,-0.718764,-0.555435,-0.018083,-0.290734,0.281674,-0.771291,-0.128770,-0.377521,-0.694584,-0.032393,0.202149,0.839722,0.000000
0.020027,0.387036,0.370574,0.061814,0.122694,0.065744,-0.717425,-0.302860,-0.386524,-0.022319,0.229838,0.222116,0.811614,-0.272723,0.671685,-0.754485,0.835761,-0.035008,-0.682904,0.654077,0.816380,0.000000
-0.324657,0.207166,0.172785,0.114865,-0.827010,-0.513834,0.147846,-0.383951,-0.633534,0.576482,-0.112837,0.258074,0.636915,0.068068,-0.023854,-0.761533,0.211714,0.654700,0.498228,0.165769,0.530590,0.000000
-0.410306,-0.350942,0.024658,-0.504119,-0.860732,-0.603518,-0.946020,0.912104,-0.729669,-0.581221,0.425882,0.730673,0.828827,-0.253989,-0.501567,-0.711902,0.376554,0.355148,-0.610217,-0.056733,-0.909075,0.000000
-0.474850,0.703855,0.715899,-0.616731,0.365869,-0.864753,-0.494826,-0.067517,-0.293017,-0.130414,0.613928,0.048519,-0.961323,-0.589017,0.620108,0.933734,-0.055286,-0.341792,0.067286,-0.036268,-0.591935,1.000000

-0.667568
0.995805
-0.742553
-0.682949
-0.174936
-0.370908
-0.872315
0.243216
0.068482
0.053174
-0.228800
0.420950
-0.394061
-0.021443
0.060816
0.278327
-0.922841
0.791912
0.966164
0.523124
0.502184
0.896125
